Hidden_layer_0/kernel:0
(24, 80)
[[ 1.70283794e-01 -5.94963208e-02 -7.12870881e-02 ...  3.02818537e-01
   2.07147980e-03 -3.52384821e-02]
 [-5.21367118e-02  1.81932569e-01 -1.09007865e-01 ...  1.49534658e-01
  -2.80144042e-03  3.86517532e-02]
 [ 1.28391841e-02 -2.37930536e-01 -1.52871773e-01 ...  1.48908257e-01
   3.87638039e-03  1.96574978e-03]
 ...
 [-2.17559282e-03 -3.23585421e-02  2.41433168e-04 ... -1.11562513e-01
  -1.13293855e-02 -3.36801447e-02]
 [ 9.67795104e-02  1.07398957e-01  1.14679998e-02 ...  1.14848420e-01
   4.03483817e-03 -2.06222292e-02]
 [ 9.52166691e-02  6.39458671e-02  6.75607892e-03 ...  4.91339490e-02
   1.01794405e-02 -4.11502570e-02]]
Hidden_layer_0/bias:0
(80,)
[-2.10434422e-01  1.44908667e-01  2.51591265e-01  2.36200273e-01
  5.52847087e-01 -2.84310222e-01 -1.51638836e-01  2.44700760e-02
 -3.06265771e-01 -3.17212135e-01  3.06215763e-01 -4.34448630e-01
  2.72411108e-01  2.61977892e-02 -1.21662219e-03 -2.50895947e-01
 -1.62784010e-02  2.98576415e-01 -1.31639899e-05 -3.15132558e-01
 -3.39867592e-01  2.74902582e-01  2.20557243e-01 -5.55279553e-01
 -1.80770680e-01  1.76897526e-01  3.62838656e-01 -2.49586031e-01
 -4.07204360e-01  1.79137811e-01  2.03317612e-01 -1.47445425e-01
 -3.96854162e-01  7.17257557e-04  2.86846727e-01  2.09714085e-01
  1.32457361e-01 -4.49103087e-01  3.64588410e-01  2.39777446e-01
  2.35351831e-01  1.53057673e-03  2.84969598e-01 -4.62306738e-01
  3.63106638e-01  2.72620708e-01  2.47371510e-01  2.51212418e-01
  3.00046742e-01 -1.19782723e-01  3.46213251e-01  1.77580029e-01
 -2.12826679e-04  7.68497353e-03 -2.30579916e-03 -1.73607618e-02
  1.01256400e-01 -4.96671746e-05 -2.29255632e-01  3.15357774e-01
 -8.71381350e-03 -1.34796068e-01  3.07352573e-01  6.51313504e-03
  8.07835720e-03  3.44820291e-01  2.98690408e-01  5.99640571e-02
  3.30055445e-01  2.11400643e-01  2.24235550e-01 -5.03135324e-01
 -3.44428271e-01  1.05671264e-01 -6.69182092e-02  1.26272038e-01
  2.41632193e-01 -3.73257816e-01 -1.12138903e-02  2.37612292e-01]
Hidden_layer_1/kernel:0
(80, 80)
[[-0.00420699  0.03611843  0.00802564 ... -0.04814744 -0.13429017
  -0.06255613]
 [-0.00420718  0.00236663  0.01198835 ... -0.04545471 -0.06480365
  -0.07071742]
 [ 0.00153911 -0.00798343  0.00599263 ...  0.00989283  0.04247935
   0.02128351]
 ...
 [-0.00777707  0.04161145 -0.03814036 ... -0.05637424 -0.07489586
  -0.1083952 ]
 [ 0.0015962   0.00142427  0.00151731 ... -0.00117285 -0.00859033
   0.00275368]
 [ 0.00204297 -0.01514049 -0.01815808 ...  0.02190668  0.0988768
   0.01766401]]
Hidden_layer_1/bias:0
(80,)
[-2.3409848e-03 -2.7094502e-02  3.6553267e-01 -3.4820932e-01
 -2.2863916e-01  4.5040482e-01  5.5840409e-01 -7.0333541e-03
 -1.1253486e-01  3.3998668e-01  3.7009671e-01  2.3286007e-01
 -3.5583977e-02 -4.2184610e-03  5.0584614e-01  6.3586593e-02
 -1.3013076e-02  3.4158921e-01  4.7533056e-01  4.6272865e-01
  4.5442614e-01  4.0272334e-01 -1.4099254e-03  4.5014256e-01
 -2.9154322e-01 -3.6674780e-01  3.7349787e-01  3.7297019e-01
  4.3928444e-01  4.1330197e-01  5.2063751e-01 -2.5534527e-03
  4.3318757e-01 -2.2312728e-01  5.1047570e-01  4.6652833e-01
  4.6035174e-01  3.2911170e-01  4.4741628e-01  3.9141443e-01
  4.1421092e-01 -4.9303807e-03 -3.3700156e-01  1.5118231e-01
  4.5243675e-01  4.5694333e-01  4.4364208e-01  4.1736713e-01
  5.0459260e-01  4.4117081e-01  1.3193992e-03 -3.2719621e-01
  1.0240829e-01  4.7216994e-01  4.5284593e-01 -5.7718037e-03
  4.4581592e-01  4.1572273e-01  3.7191018e-01 -3.0647466e-01
  1.6665757e-01 -3.2979900e-03  3.9271644e-04  3.9403883e-01
 -4.9465718e-03 -5.7213388e-02 -3.0970871e-02  4.6642977e-01
  4.2419666e-01  4.7429727e-04 -2.1929052e-01  4.5407116e-01
  4.1750535e-01  4.6653625e-01 -4.6762247e-03  4.4039902e-01
 -1.6192740e-01  4.8751712e-01  4.4349271e-01  4.7520334e-01]
Hidden_layer_2/kernel:0
(80, 80)
[[-3.0479432e-04 -1.1566890e-03 -2.6315966e-04 ...  2.2031568e-06
  -2.5931408e-04 -3.1766996e-03]
 [-2.6403437e-03 -7.0773333e-04  1.1371501e-04 ... -1.5578549e-03
   2.1678843e-03 -9.4058774e-03]
 [ 1.3836097e-03  7.8870408e-02  6.9040939e-02 ... -1.7912882e-04
  -9.7624201e-04 -4.0839598e-02]
 ...
 [ 4.5952966e-05  5.5662058e-02  9.3282364e-02 ... -1.5415925e-04
  -4.2025448e-04  4.9959183e-02]
 [-1.2461110e-03 -9.3985982e-03  6.1356522e-02 ...  1.2793149e-03
  -1.0032518e-03  1.9398028e-01]
 [ 1.6719413e-03  1.3515852e-01  1.5387636e-01 ... -4.7610616e-04
   3.1635538e-04 -1.2463015e-02]]
Hidden_layer_2/bias:0
(80,)
[ 0.06729517  0.48302236  0.5610165   0.48134786  0.59944344  0.0422153
  0.25627822  0.20271474 -0.04268356  0.4501051   0.0276174   0.5154677
  0.50311893 -0.08911928  0.142219    0.09633246  0.50405735  0.4800308
  0.56197023  0.47216913  0.5087202   0.2269898   0.49933675  0.2714527
  0.00274652  0.22167295 -0.12391061  0.12153784 -0.13817745  0.5188202
  0.04995499  0.6288181   0.15857033  0.18116991  0.24498783  0.28741118
  0.11035006  0.4397616   0.00418074  0.25986454  0.12134938  0.68191844
  0.4848253   0.7449202   0.22154762  0.06787354  0.05199266  0.3807533
  0.5784551   0.23665507  0.6536664   0.21920063  0.6522356   0.70717126
  0.43177032  0.60756654  0.24457394 -0.05631346  0.5542136  -0.15563828
  0.28060058  0.13681164  0.5618895   0.6317616   0.20694897  0.6619725
  0.10391247  0.0647817   0.06815108  0.46020097  0.10947945  0.03495146
  0.03560497  0.5988879   0.45481223  0.3571143   0.386345    0.04668023
 -0.03589326  0.4646989 ]
Hidden_layer_3/kernel:0
(80, 80)
[[-4.4052848e-03 -1.9425026e-03 -3.9728973e-03 ...  1.3029838e-03
  -2.8862493e-04 -1.5665216e-03]
 [-1.3479542e-02 -1.6635599e-02 -1.3270731e-02 ...  1.1554914e-01
   1.6269718e-01  1.0866128e-03]
 [-1.9518979e-02 -2.6087753e-02 -1.9237190e-02 ...  1.5718473e-01
   2.3039651e-01 -1.2821484e-02]
 ...
 [-1.8145828e-04  9.5635751e-04  2.3796366e-04 ...  1.5951800e-03
   2.3920921e-04 -5.6895041e-03]
 [ 4.0244346e-04 -2.0449920e-04  3.1472981e-04 ... -1.8855345e-03
   1.7712078e-04  4.0135141e-03]
 [-3.4541755e-03 -6.6466327e-03 -3.6213044e-03 ...  7.3047495e-04
   4.0231097e-02  1.4881296e-01]]
Hidden_layer_3/bias:0
(80,)
[-2.6997054  -1.2375498  -2.6519134   0.78123647  0.7316896  -2.5279145
 -0.05705788  1.0241009   0.26352695 -2.4995618  -2.2926958   0.87363565
 -1.4221916   0.40286824  0.42558235  0.42552924  0.75034034 -2.477088
 -0.17513244  0.3304601   0.16149646 -1.6072472   0.633289    0.04413991
  0.76868534 -2.300837   -0.2456318  -1.930262    0.08169308  0.35841665
  0.81141436 -2.4332116   0.40933257  0.33639243  0.17118856  0.46354514
 -2.8482034   0.05049901 -1.5623059   0.32758683  0.09486417 -2.1171758
 -0.42179596 -2.618169    0.29693344 -2.570088   -1.4575721  -1.2459074
  0.3477941  -1.7852882  -1.2367849  -2.0009687   0.05502116  0.49464008
 -2.2882166  -0.4424366   0.4820991   0.81041056 -1.6613529  -2.0934129
  0.2657136   0.5275915  -1.4777417   0.45229527 -1.0657074  -1.5766342
  0.80175453 -2.5016735   0.6961962  -2.2895985  -0.5763754  -0.9880855
  0.39109966 -1.9277307   0.39919436 -1.813139    0.34040496  0.5644325
  0.5430422   0.03786834]
output_layer/kernel:0
(80, 6)
[[-1.61833489e+00 -2.30108649e-01 -1.00333273e+00 -1.28731549e-01
  -3.96989435e-01 -5.76715350e-01]
 [-1.01387846e+00 -2.58960754e-01 -1.04062319e+00  1.00000218e-01
  -6.28192008e-01 -5.29037476e-01]
 [-1.26805019e+00 -3.11288476e-01 -1.08553410e+00 -6.86460584e-02
  -6.22938991e-01 -7.23064482e-01]
 [ 5.97591519e-01  3.41050357e-01  9.05916572e-01  1.96666196e-02
   1.13798797e+00  1.49164036e-01]
 [ 3.91259879e-01  4.59338874e-01  8.38636756e-01 -8.33349861e-03
   1.46627080e+00  7.30142742e-02]
 [-1.32758009e+00 -5.19144833e-01 -9.96215105e-01 -9.77889150e-02
  -3.32079321e-01 -6.13495350e-01]
 [ 2.54284191e+00 -1.44708371e+00 -2.66614270e+00 -1.46479800e-01
  -2.88111353e+00  2.68275499e-01]
 [ 1.88015401e+00 -1.96945071e-01  2.77406573e-01 -1.60664335e-01
  -2.16941333e+00  1.57666194e+00]
 [ 7.10855499e-02  8.88147950e-02  4.74416345e-01  3.78326029e-02
   1.53929889e+00  6.33459762e-02]
 [-1.60343122e+00 -1.68688416e-01 -8.77549410e-01 -1.54486731e-01
  -3.22901249e-01 -8.68260324e-01]
 [-1.30082273e+00 -3.60331744e-01 -1.08657074e+00 -1.58649668e-01
  -5.11575878e-01 -8.08195114e-01]
 [ 4.90424693e-01  1.44795030e-01  8.01088572e-01 -3.09061110e-02
   1.10898268e+00  3.85375351e-01]
 [-5.52693546e-01 -7.82343820e-02 -9.21756089e-01 -1.09680735e-01
  -3.57418835e-01 -1.02484167e+00]
 [ 4.55563247e-01  1.80663571e-01  5.64832032e-01 -6.87375711e-03
   9.30507720e-01 -8.20987448e-02]
 [ 2.17046723e-01  5.62823534e-01  1.12286830e+00  1.58077598e-01
   8.72750163e-01  7.67296195e-01]
 [ 2.75276780e-01  2.51259923e-01  1.02551854e+00  8.60338435e-02
   1.15001452e+00  2.03338757e-01]
 [ 3.42591166e-01  4.25461054e-01  6.97729111e-01 -1.39881680e-02
   1.07688272e+00  3.38725001e-01]
 [-1.61608815e+00 -5.29980421e-01 -6.76246166e-01 -1.31463170e-01
  -5.68627417e-01 -5.57950556e-01]
 [ 1.84972918e+00 -1.19071162e+00 -2.32540107e+00 -2.89921224e-01
  -3.47941566e+00  4.00257796e-01]
 [ 3.24320793e-01  3.86973381e-01  7.95674264e-01  1.82281181e-01
   1.06447756e+00  4.44714516e-01]
 [ 2.04342365e+00 -4.23947424e-01 -4.45617527e-01 -1.48701817e-01
   1.35870433e+00 -5.32280266e-01]
 [-7.36906886e-01 -3.46655130e-01 -1.09151566e+00 -6.53102249e-02
  -4.72386092e-01 -8.88836861e-01]
 [ 1.58740175e+00  4.08305168e-01  3.69527787e-01  2.59540766e-03
   2.23376012e+00  4.50458266e-02]
 [ 1.41840801e-01  1.73721105e-01  6.60206079e-01 -1.35377839e-01
   1.12179780e+00  3.85319203e-01]
 [ 4.21477973e-01  5.28680503e-01  1.07825935e+00 -2.52894182e-02
   9.89946365e-01  2.28719369e-01]
 [-1.34713459e+00 -1.67965025e-01 -8.53306592e-01 -1.71543628e-01
  -7.62735009e-01 -9.53595877e-01]
 [-6.55392632e-02  6.30145613e-03  1.34125262e-01  3.94086465e-02
   2.97631621e+00 -9.82535005e-01]
 [-1.20106089e+00 -2.93934286e-01 -7.55859017e-01 -2.86295563e-01
  -7.45841801e-01 -8.76793742e-01]
 [ 2.18063378e+00 -4.31806296e-01 -4.41789508e-01 -2.88174897e-01
   1.88639951e+00 -4.79394197e-01]
 [ 1.28525987e-01 -3.45184766e-02  8.23490560e-01  1.70151573e-02
   1.32347083e+00 -5.35317399e-02]
 [ 6.49146497e-01  3.95868540e-01  9.31287289e-01  1.05719967e-02
   9.01802063e-01  5.37015676e-01]
 [-1.55600333e+00 -3.39167804e-01 -1.07841229e+00 -1.30355448e-01
  -6.77920103e-01 -9.31729913e-01]
 [ 1.56854928e-01  4.35394228e-01  6.64396584e-01  4.41777445e-02
   1.51472616e+00  8.18601027e-02]
 [ 3.52083653e-01  6.26515821e-02  8.84009302e-01  9.82746929e-02
   1.11691189e+00  4.57333364e-02]
 [ 4.82957453e-01  6.98174015e-02  7.80275047e-01 -1.76424980e-01
   9.07892585e-01  5.27477384e-01]
 [ 6.37273490e-01  4.85914558e-01  4.13484782e-01  5.22395000e-02
   1.27682471e+00  3.55565697e-02]
 [-1.58199155e+00 -3.63967568e-01 -6.97270751e-01 -2.65642107e-02
  -5.49353778e-01 -8.73850048e-01]
 [ 2.32275391e+00 -1.92636383e+00 -2.90955853e+00 -7.05065787e-01
  -5.30101919e+00  9.24369931e-01]
 [-7.34773636e-01 -1.11960590e-01 -7.85988808e-01 -9.82414857e-02
  -5.78321338e-01 -8.68890464e-01]
 [-3.22861858e-02  1.96945101e-01  9.14661407e-01  7.33146444e-02
   8.01341355e-01  3.78096849e-01]
 [ 8.84095430e-02  5.64855874e-01  5.59668303e-01  2.76499987e-01
   1.38106787e+00  1.88140497e-01]
 [-1.46648586e+00 -3.51287186e-01 -1.00747502e+00 -2.34103739e-01
  -8.28593910e-01 -9.44591522e-01]
 [-7.00878441e-01  2.00850829e-01  6.01337016e-01  3.18343118e-02
   3.17360902e+00 -1.07808363e+00]
 [-1.44297338e+00 -2.86446571e-01 -1.08601367e+00 -1.04236521e-01
  -4.74320352e-01 -6.60008073e-01]
 [ 1.52959466e-01  4.74010706e-01  8.83460879e-01  7.30561987e-02
   1.16538346e+00  9.82557889e-03]
 [-1.55385494e+00 -2.50538379e-01 -9.14642870e-01 -8.95736217e-02
  -7.60008991e-01 -9.72508252e-01]
 [-1.00557983e+00 -5.36051057e-02 -7.68107057e-01 -1.82890981e-01
  -6.02280676e-01 -7.98198104e-01]
 [-2.52805889e-01 -3.16823125e-01 -1.02699113e+00 -8.28391463e-02
  -6.68417275e-01 -8.39331448e-01]
 [ 5.31126797e-01  3.49485308e-01  9.01985347e-01  6.62433356e-02
   1.00028360e+00 -8.77950639e-02]
 [-9.73996937e-01 -2.40209937e-01 -7.45242059e-01 -1.24025851e-01
  -6.05165660e-01 -6.80720925e-01]
 [-4.43819553e-01 -2.11178109e-01 -5.04806101e-01 -1.43063262e-01
  -9.83090475e-02 -8.22871089e-01]
 [-1.19516945e+00 -4.91128981e-01 -7.85213709e-01 -2.27186725e-01
  -4.93492514e-01 -9.94603932e-01]
 [-2.65365899e-01 -9.69169378e-01 -2.19380069e+00 -1.01826295e-01
  -3.93805981e+00  1.07388282e+00]
 [ 2.86648095e-01  2.59423200e-02  1.00902998e+00  6.21334463e-02
   7.66857326e-01  4.80491579e-01]
 [-1.52848232e+00 -5.07937372e-01 -7.21827924e-01 -1.66461423e-01
  -5.37179530e-01 -6.69412136e-01]
 [-7.45692015e-01 -2.02272832e-01 -3.54387105e-01  9.18240845e-02
   3.10591793e+00 -1.09372187e+00]
 [ 8.66264641e-01  5.58931112e-01  1.09653616e+00  1.06458932e-01
   1.50651062e+00  2.32954711e-01]
 [ 6.20609045e-01  4.95504588e-01  9.72024858e-01 -5.47910929e-02
   7.70474792e-01  5.44247448e-01]
 [-8.18761170e-01 -3.83224368e-01 -1.04279685e+00 -6.24209791e-02
  -7.60983646e-01 -7.52089262e-01]
 [-1.24927342e+00 -2.67194301e-01 -9.44414794e-01 -2.39200965e-01
  -3.67941499e-01 -9.80632067e-01]
 [ 4.93360490e-01  5.62453926e-01  6.19279623e-01  1.70071170e-01
   8.49889934e-01  3.74111742e-01]
 [ 3.95386368e-01  5.04310310e-01  5.91404855e-01 -5.91962831e-03
   1.26270902e+00 -6.82562143e-02]
 [-1.14079678e+00 -3.90364945e-01 -6.72370970e-01 -1.96294576e-01
  -5.15234292e-01 -7.15579152e-01]
 [ 4.52065974e-01  3.97764027e-01  1.02721143e+00  1.41070962e-01
   1.12916422e+00  4.52125937e-01]
 [-8.47131968e-01  1.49961719e-02 -6.84249520e-01  6.60432577e-02
  -6.56146035e-02 -4.02737737e-01]
 [-1.00288594e+00 -4.07091558e-01 -8.95582080e-01 -2.93253839e-01
  -3.77982259e-01 -8.19485843e-01]
 [ 6.61931753e-01  4.02409613e-01  8.80885303e-01 -3.10932845e-02
   1.18784404e+00  5.60877100e-02]
 [-1.21341944e+00 -3.40086222e-01 -7.81897902e-01 -1.05468526e-01
  -6.67789936e-01 -6.20455027e-01]
 [ 1.13807118e+00  2.81139702e-01  5.88915169e-01 -3.91418561e-02
   2.15319395e+00  1.80303916e-01]
 [-1.31790066e+00 -4.61468577e-01 -5.82953036e-01 -1.78397015e-01
  -4.36047375e-01 -8.29170942e-01]
 [-4.12480861e-01  1.09995529e-01  5.25087118e-01 -8.57655182e-02
   2.78771734e+00 -9.66645777e-01]
 [-3.28753471e-01 -3.01134259e-01 -7.33473063e-01 -1.14135399e-01
  -9.42469656e-01 -6.26599133e-01]
 [ 1.27868617e+00  2.23102242e-01  4.34961468e-01  1.74846314e-02
   2.49999857e+00 -9.59820002e-02]
 [-1.44501328e+00 -2.75069356e-01 -8.58410358e-01 -3.17510635e-01
  -4.11786854e-01 -6.08879566e-01]
 [-8.16829875e-02  6.89373255e-01  1.18940270e+00  1.48367330e-01
   3.11181039e-01  7.71645784e-01]
 [-1.30174112e+00 -3.21130455e-01 -7.11903453e-01 -2.41479188e-01
  -3.75616878e-01 -7.76337385e-01]
 [ 5.80145895e-01  3.44781339e-01  7.21397340e-01  2.37177417e-01
   1.08878505e+00  4.20361638e-01]
 [ 4.80145365e-01  9.98014361e-02  7.90008187e-01  4.90017757e-02
   1.17801666e+00  8.58339965e-02]
 [ 4.17276084e-01  5.32734156e-01  9.40958858e-01  6.36079833e-02
   9.13835645e-01  4.69274551e-01]
 [ 2.54994512e+00 -1.13610280e+00 -2.07535744e+00 -4.31653291e-01
  -4.51221323e+00  7.52367556e-01]]
output_layer/bias:0
(6,)
[1.3577483  0.28843087 0.80897564 0.10170977 0.5299925  0.7315175 ]
