Hidden_layer_0/kernel:0
(24, 80)
[[-2.4407463e-01  4.1567823e-03  1.3849242e-01 ...  3.0004054e-02
  -1.0741649e-03 -1.5714139e-02]
 [-1.1985796e-01 -5.8785342e-03  1.0631150e-01 ... -3.3622426e-01
   5.9594947e-04 -5.7899028e-02]
 [-1.3149616e-01  1.0263211e-03 -8.8018909e-02 ...  1.7000699e-01
  -1.8796969e-03 -4.3357387e-02]
 ...
 [ 4.6017773e-02  3.8506570e-03 -9.3210809e-02 ...  1.8765637e-01
   1.1632510e-03  1.3044697e-01]
 [-9.0200029e-02 -1.1205325e-02  1.7251301e-01 ... -3.8633901e-01
   1.7137676e-03  5.6261215e-03]
 [-7.1995467e-02  3.0893396e-04  1.3696977e-01 ...  6.8737842e-02
   2.5748964e-03 -7.0218936e-02]]
Hidden_layer_0/bias:0
(80,)
[ 2.8269356e-01  1.9437483e-01 -1.5948200e-01 -9.2210099e-02
  2.7873299e-01  2.4694987e-01  1.9133246e-01  3.1182456e-01
 -2.0691153e-01 -1.6868946e-01  2.0908925e-01 -3.3610290e-01
 -1.0717206e-03  2.6372385e-01  1.5658394e-01  1.6035807e-01
  2.7401501e-01  3.1021866e-01  3.0263275e-01  3.5485095e-01
 -1.1445143e-03  2.3120227e-01  3.1591482e-02  3.1134818e-04
  1.4496762e-01  1.6391699e-01  9.1763519e-02 -8.6792337e-04
  2.4153453e-01 -2.1670376e-01  3.7514690e-01  1.8207353e-01
 -4.6522018e-01  1.5645860e-01 -1.1777767e-03 -5.1561709e-02
 -4.1099590e-01  2.4960254e-01  3.1959444e-01  2.4350555e-01
  6.7511916e-02  5.8272298e-02  2.4363435e-04  1.6451435e-01
  3.7464727e-02 -8.5563067e-04  2.3153928e-01 -1.1812232e-03
 -2.7616501e-01 -1.8213362e-01  3.3260652e-01 -4.0852013e-01
  4.0252158e-01  8.9796074e-02  5.1227435e-02  2.5789595e-01
  6.5840296e-02  2.7056977e-01 -4.5847699e-01  1.5917942e-01
  1.5576763e-01  5.7700870e-04  2.7434224e-01  4.7012283e-03
  3.7315920e-02 -4.7728747e-01  1.2624200e-01  1.9791716e-01
 -4.0196738e-01 -3.5429519e-01  1.4986919e-01  1.4253117e-01
 -2.2739157e-01 -3.5908809e-01 -2.2440828e-01  2.4373615e-01
  9.9940613e-02 -4.0331911e-02 -9.7098836e-04 -3.4091935e-01]
Hidden_layer_1/kernel:0
(80, 80)
[[-5.2113272e-03 -3.9480388e-02  2.2349237e-02 ... -2.3128118e-03
  -2.3750319e-04 -1.0583383e-02]
 [-3.8975935e-02 -5.3592909e-02  2.4795914e-02 ... -1.8113210e-03
  -1.7103474e-05 -4.0136259e-03]
 [ 1.4264283e-01  1.0303696e-01  1.6423033e-01 ...  9.5089572e-03
   2.4257207e-04  1.0860971e-02]
 ...
 [ 7.7422433e-02  3.2478437e-02  1.8922670e-01 ... -1.1462844e-02
  -2.3515195e-04  2.8588834e-01]
 [ 1.3466239e-03  3.5284348e-03  1.9036836e-03 ... -8.9268410e-04
  -2.1514608e-05  1.6979504e-03]
 [-7.5589940e-02 -7.1095720e-02 -9.8708928e-02 ...  4.1529490e-03
   8.3754414e-05 -2.0037515e-02]]
Hidden_layer_1/bias:0
(80,)
[ 2.21991867e-01  3.39295477e-01  4.57213521e-01 -2.87367334e-03
 -4.41430649e-03  4.22102988e-01  5.08230090e-01  4.89312500e-01
 -6.23966975e-04  3.93932372e-01  4.36335057e-01  3.24909657e-01
 -6.73098164e-03  2.53178459e-02 -4.44086315e-03 -7.19048409e-03
  5.10886788e-01  4.11837138e-02 -2.55748187e-03  3.27484275e-04
 -1.23672583e-03  4.85193193e-01 -6.12669252e-03  5.82273640e-02
 -5.94679778e-03  3.32014173e-01 -7.57510662e-02  3.69091034e-01
  4.49543029e-01 -7.41152689e-02  3.71731251e-01  4.45935994e-01
  2.90300220e-01 -2.56181449e-01  3.77309203e-01  5.09936929e-01
 -8.31490755e-03  4.52687204e-01  3.53737324e-01  2.06704482e-01
 -2.74434220e-03 -4.65622125e-03 -1.77148322e-04  4.17810202e-01
 -2.17717583e-03  5.27393997e-01  1.55718261e-02 -2.25042272e-03
  3.86941671e-01  2.72498667e-01 -3.00624371e-01  8.71095154e-03
  3.06968153e-01 -3.58563918e-03 -6.67804712e-03 -2.54523871e-03
  2.89371878e-01 -3.56758945e-03 -1.73249856e-01  1.01713955e-01
  1.02900550e-01 -5.41131664e-03  4.61107761e-01  1.93614200e-01
  3.47224593e-01  4.65927184e-01  3.40228230e-01  4.87775326e-01
  2.66223758e-01  3.93240541e-01  3.63049835e-01 -6.17872784e-03
  2.57482201e-01 -3.47095123e-03 -3.38428630e-03 -4.00301768e-03
  5.03489316e-01 -2.92117312e-03 -5.94727404e-04  3.68576765e-01]
Hidden_layer_2/kernel:0
(80, 80)
[[ 4.3085910e-02  2.9149178e-02  4.0505365e-02 ...  7.9688238e-04
   4.4234920e-02 -6.4894039e-04]
 [ 1.4418404e-01  5.1593956e-02  2.9317873e-02 ... -9.6706883e-04
   5.0773811e-02 -3.3667806e-04]
 [ 9.4578817e-02  1.0891402e-01  5.0252095e-02 ... -5.3564855e-04
   9.2819251e-02 -1.7117135e-03]
 ...
 [ 1.3183299e-03 -6.8782450e-04  1.2898706e-04 ...  5.1562744e-04
  -3.8905673e-05 -2.0184813e-03]
 [ 5.0307067e-06  8.6004602e-06  1.5732487e-05 ... -2.9777775e-05
  -2.7606648e-05 -7.1771035e-05]
 [ 6.4970698e-04  1.4542067e-01  5.5232864e-02 ... -1.1735583e-03
   1.0804786e-01 -2.3085263e-03]]
Hidden_layer_2/bias:0
(80,)
[ 0.4150151   0.6784596   0.1241669   0.3824614  -0.02582831  0.6564466
  0.5233156   0.43406183  0.4386412  -0.01094334 -0.00441267  0.34972227
  0.50390095 -0.02238446  0.6480414   0.38424414  0.45621037 -0.01455184
  0.40980062  0.1160252   0.42956698 -0.01425282  0.31986442 -0.02550122
  0.5675026   0.40041718 -0.02082322 -0.844302    0.77560735 -1.1176962
 -0.01595007  0.60291934  0.44405335  0.39000228 -0.01464437  0.59110475
 -0.8171663  -0.02626739 -0.0240727  -0.01433868 -0.0139148   0.3390591
  0.32166076  0.5821683   0.4961672  -0.01875108 -0.01199726  0.46077895
  0.6128814   0.17329815  0.6506663  -0.01375757  0.47640595 -0.01260578
 -0.02103025  0.677668   -0.14441015 -0.01543883 -0.01372435 -0.01484133
 -0.03716664 -0.00437851  0.33984622  0.4946552   0.5045633   0.4799674
  0.3365297  -0.01281464  0.46646807  0.762887    0.49003932  0.38602084
  0.4234613   0.12487157 -0.56168365  0.3254127  -0.0256859  -0.01275456
  0.45096698 -0.01564934]
Hidden_layer_3/kernel:0
(80, 80)
[[-1.23154437e-02  4.50335741e-02  1.09909363e-01 ... -1.27280215e-02
   1.14512280e-01 -1.34625342e-02]
 [-1.73451658e-02  1.02812991e-01  1.30337253e-01 ... -1.77080724e-02
   6.64010346e-02 -1.88894663e-02]
 [-3.17850430e-03  8.55031237e-02 -1.13514550e-02 ... -3.53908096e-03
   6.17530383e-02 -3.98525875e-03]
 ...
 [ 1.51462620e-04  4.70960920e-04  1.27792388e-04 ...  5.50579804e-04
   1.32820802e-03  4.88241261e-04]
 [-1.23767061e-02  9.63868648e-02  7.68100768e-02 ... -1.29021248e-02
   9.54641402e-02 -1.38522862e-02]
 [ 1.11186423e-03  3.54266551e-04  1.18259282e-03 ...  2.53746752e-03
   3.15100327e-03  2.35018786e-03]]
Hidden_layer_3/bias:0
(80,)
[-2.3094742   0.15034461  0.6116457  -3.423474    0.1587225   0.36748737
 -0.1038819  -0.01470324  0.69406074 -0.7827394  -3.1121004  -2.09541
 -2.3966413   0.94079185  0.2817936  -2.8696816  -0.861513    1.1035411
  0.20903112 -2.0619564   0.22775029  0.67423147  0.02364769  0.5017783
 -2.187325   -2.1173284  -2.275162    0.82275325 -3.771037   -2.13087
 -2.0695546   0.25605395  0.40173316 -2.2210588  -0.6422657  -2.6627796
 -2.7426035  -2.0364938  -2.1953857  -2.9865136   0.55348474 -2.504522
  0.4007197  -2.4568095  -2.058858    0.11166282  1.0865849   0.17123246
 -0.6479817   0.27003825 -2.3318594  -2.4557767   0.33173293 -2.5768628
 -2.4063866  -2.5818982   0.78408056  0.46397653 -2.295642    0.0418997
  0.51115084 -2.6299438  -1.2016901   0.36503953 -2.163384    0.56405157
 -2.1551619  -2.3284297  -1.8680111   0.7993958  -0.24519509 -2.7911696
  0.03344665  0.27253875  0.5875946  -1.5750263  -1.9349214  -2.3470275
  0.29192024 -2.1565413 ]
output_layer/kernel:0
(80, 6)
[[-1.17506897e+00 -2.19148174e-01 -7.85794020e-01  7.83967599e-02
   2.68855449e-02 -9.20863986e-01]
 [ 1.68182254e-02  2.03186214e-01  9.20548677e-01  1.25316441e-01
   1.56431735e+00  1.12465275e-02]
 [ 6.83208704e-01  2.34104261e-01  6.79703653e-01  2.91551761e-02
   2.47314528e-01  5.76311588e-01]
 [-1.47988105e+00 -1.97234675e-01 -5.49248338e-01 -4.91805607e-03
  -6.68783262e-02 -7.87905395e-01]
 [ 6.39698729e-02  1.70100629e-01  8.85560811e-01  6.44344762e-02
   1.47380269e+00  1.94742903e-02]
 [ 2.82550722e-01  2.95117378e-01  9.35053110e-01  1.15775049e-01
   4.95152682e-01  5.12231886e-01]
 [ 2.64729428e+00 -4.81442004e-01 -6.41417861e-01 -2.13729516e-01
  -9.91698727e-02 -1.87053960e-02]
 [-8.87502968e-01  3.94697666e-01  8.92119408e-01  1.58010900e-01
   1.12414634e+00  9.70917344e-02]
 [ 6.03352785e-01  4.80204046e-01  9.40985143e-01  5.25573967e-03
   1.04719138e+00  4.24108714e-01]
 [-7.16909707e-01 -9.29306000e-02 -7.03387141e-01  1.69435188e-01
   1.91672891e-02 -5.90819359e-01]
 [-1.22432220e+00 -6.95915073e-02 -1.02539730e+00  2.78023947e-02
  -9.15091410e-02 -1.03022134e+00]
 [-1.40002096e+00 -4.59104151e-01 -6.70143127e-01 -2.45890200e-01
   3.03878486e-01 -6.77095890e-01]
 [-1.06744373e+00 -4.51657593e-01 -8.18219125e-01 -9.02905986e-02
  -7.96882529e-03 -6.97606802e-01]
 [ 5.70261121e-01  1.97681665e-01  9.46105123e-01 -3.80160734e-02
   7.26937294e-01  3.51618081e-01]
 [ 1.23271093e-01  4.33206826e-01  5.27487457e-01 -3.73344272e-02
   1.40278542e+00  1.20387375e-01]
 [-1.43853307e+00 -3.24748069e-01 -5.39588094e-01 -9.74077806e-02
   3.11390191e-01 -1.10985494e+00]
 [-5.89650214e-01  8.38491619e-02 -1.57033995e-01  1.23319834e-01
   4.65499973e+00 -1.83274305e+00]
 [ 8.23347747e-01  7.36398622e-02  7.29991972e-01 -2.90532298e-02
   4.26693559e-01  3.99134159e-01]
 [ 4.89590734e-01  3.19588512e-01  6.18892550e-01  4.09880616e-02
   1.22169375e+00 -2.10228026e-01]
 [-9.86885130e-01 -1.67269275e-01 -6.83574796e-01 -2.64570266e-01
  -1.01376742e-01 -8.99452090e-01]
 [ 4.54691410e+00 -1.86089575e+00 -3.09178901e+00 -5.13400376e-01
  -3.10654831e+00  1.00166011e+00]
 [ 6.84101403e-01  9.10903662e-02  7.63318300e-01  3.46782133e-02
   5.97711384e-01  5.37014663e-01]
 [-6.45769298e-01  8.88851643e-01  5.69759548e-01  3.31563830e-01
   7.14319527e-01  2.64171362e-01]
 [ 6.01186872e-01  4.42413628e-01  5.75334132e-01  4.65086624e-02
   7.34026372e-01  3.63476425e-01]
 [-1.40895319e+00 -1.39586717e-01 -1.02983356e+00 -2.40248233e-01
   1.44794613e-01 -8.22472453e-01]
 [-9.67813134e-01 -3.87546122e-01 -9.33305562e-01  3.75189842e-03
  -2.48644993e-01 -5.98832071e-01]
 [-1.08299851e+00 -2.04599112e-01 -7.32310176e-01 -1.80023730e-01
  -2.17477292e-01 -9.69101012e-01]
 [ 5.97745001e-01  9.52264369e-02  7.46041715e-01 -6.82190154e-03
   1.24859726e+00  3.26067865e-01]
 [-1.31991637e+00 -1.77133501e-01 -6.07837558e-01 -3.84370834e-02
   3.02696288e-01 -8.54216814e-01]
 [-1.10438156e+00 -7.42122605e-02 -1.04904699e+00 -3.04402888e-01
  -1.83066037e-02 -1.09793401e+00]
 [-1.19159627e+00 -3.50650817e-01 -8.91905785e-01 -2.17501014e-01
   1.50572583e-01 -5.93378007e-01]
 [ 6.02346659e-01  2.24272788e-01  6.30125284e-01  8.51323362e-03
   1.29831445e+00 -2.77372003e-01]
 [ 1.87309101e-01  2.89068311e-01  9.09733713e-01  7.00645968e-02
   9.39052284e-01  4.04142648e-01]
 [-1.09471607e+00 -4.70321119e-01 -9.49961245e-01 -1.85987711e-01
   1.10813901e-02 -1.05716610e+00]
 [-9.61016774e-01  2.31150806e-01 -6.29139781e-01  1.33284867e-01
   2.25347534e-01 -3.78016829e-01]
 [-1.45201027e+00 -2.39425629e-01 -6.88105583e-01 -8.80912244e-02
  -1.20047899e-02 -1.10381150e+00]
 [-1.01101458e+00 -2.16412097e-02 -8.43101919e-01 -9.01443437e-02
  -1.80483591e-02 -1.06391883e+00]
 [-1.14128077e+00 -3.64426702e-01 -9.68157351e-01 -2.30616063e-01
  -2.02978894e-01 -9.05208290e-01]
 [-1.29786599e+00 -4.17023152e-01 -1.01009691e+00 -2.40605071e-01
   7.86927119e-02 -1.03940928e+00]
 [-1.32036018e+00 -4.85579014e-01 -8.86943460e-01 -4.66799811e-02
   2.71215916e-01 -7.34045506e-01]
 [ 6.54731214e-01  4.79841709e-01  8.44636202e-01 -1.00005127e-01
   9.75127637e-01  2.14033917e-01]
 [-1.06147301e+00 -9.61390659e-02 -8.66818964e-01 -1.30354300e-01
  -3.79024372e-02 -8.80713403e-01]
 [ 5.44355989e-01  3.60531658e-01  9.25721228e-01  1.24454230e-01
   1.12041211e+00  3.21513206e-01]
 [-1.07947290e+00 -4.72964376e-01 -8.13984334e-01 -1.41207665e-01
   2.05448657e-01 -1.11997378e+00]
 [-1.23126483e+00 -2.87956476e-01 -5.52136838e-01 -2.69469112e-01
  -4.23136428e-02 -7.87414849e-01]
 [ 4.26990539e-01  3.82350206e-01  5.33609986e-01 -1.01730987e-01
   1.20276344e+00 -1.62211917e-02]
 [ 9.24038172e-01  4.21098433e-02  5.06987512e-01 -4.31144685e-02
   4.98211026e-01  5.87971509e-01]
 [ 1.67174891e-01  1.28896952e-01  7.51377881e-01  7.66141564e-02
   1.52002084e+00 -2.29044948e-02]
 [-1.07440448e+00  4.93200198e-02 -2.94038296e-01  1.67169392e-01
   8.40104818e-02 -4.90968227e-01]
 [ 5.51199913e-01  2.41706878e-01  8.57308269e-01  1.39293909e-01
   1.42175758e+00 -5.38693406e-02]
 [-1.25274503e+00 -1.07072666e-01 -8.75215888e-01 -1.96297050e-01
   8.20056126e-02 -9.74842250e-01]
 [-1.17799199e+00 -1.37189463e-01 -7.67611504e-01 -1.79483771e-01
   2.59326309e-01 -1.01640582e+00]
 [ 1.41336694e-01  4.75869387e-01  7.98967302e-01 -1.59254279e-02
   1.37276101e+00  1.40208036e-01]
 [-1.33443320e+00 -4.92264807e-01 -9.29906726e-01 -8.33885744e-02
   3.99623774e-02 -9.08016086e-01]
 [-1.01386917e+00 -4.12859380e-01 -6.11587763e-01  4.73728031e-02
   5.45900762e-02 -7.87720203e-01]
 [-1.38537633e+00 -4.18619603e-01 -1.04430676e+00 -7.87303448e-02
   6.67625144e-02 -6.81741714e-01]
 [ 7.26719379e-01  1.03003733e-01  5.12836576e-01  1.25717521e-02
   8.72609317e-01  5.09300828e-01]
 [ 6.32012248e-01  5.47781698e-02  8.58486652e-01  6.47835284e-02
   9.83192980e-01  1.63641423e-01]
 [-9.80767548e-01 -1.76521420e-01 -6.20738089e-01  5.03280461e-02
   3.24705601e-01 -6.61601961e-01]
 [ 2.51642048e-01  2.96037227e-01  7.52629220e-01  3.11005805e-02
   1.36589682e+00 -2.76085526e-01]
 [ 4.51054692e-01  4.83941227e-01  5.45064747e-01 -4.20550667e-02
   1.10045886e+00  1.28038958e-01]
 [-1.29713798e+00 -4.02987033e-01 -1.05031300e+00 -3.91566232e-02
  -6.46197721e-02 -6.05224073e-01]
 [-1.08534002e+00 -2.69343585e-01 -7.29499340e-01  1.12900339e-01
  -3.93519700e-02 -4.81838614e-01]
 [ 1.16873182e-01  4.62646723e-01  5.75674117e-01  7.01082870e-02
   9.59833682e-01  5.11859298e-01]
 [-1.04881084e+00 -1.93303049e-01 -6.80189908e-01 -2.57142693e-01
   2.68661112e-01 -8.63675594e-01]
 [ 3.46202582e-01  3.86769503e-01  7.24655867e-01 -3.37365046e-02
   1.08083487e+00  1.65298447e-01]
 [-1.02407098e+00 -4.63593304e-01 -6.34189248e-01 -2.52822429e-01
   2.72429526e-01 -9.96212840e-01]
 [-1.20519042e+00 -4.93751615e-01 -9.09679472e-01 -1.73416495e-01
   2.05679387e-01 -9.30171251e-01]
 [-9.20091033e-01 -4.09087002e-01 -1.01314795e+00 -1.63943172e-01
  -2.23267034e-01 -6.58538163e-01]
 [ 6.97741926e-01  5.34894586e-01  9.02798057e-01 -3.85263637e-02
   1.10095465e+00  4.47762221e-01]
 [ 9.36354697e-01 -1.74597859e-01 -5.21946490e-01  2.11890005e-02
   2.30859470e+00 -7.60581493e-01]
 [-1.14571321e+00  7.64489919e-02 -8.08784485e-01  4.07926776e-02
   1.51372746e-01 -9.48022068e-01]
 [-1.01442444e+00  6.57497466e-01  7.92444527e-01  4.78778899e-01
   1.43860385e-01  5.83618224e-01]
 [ 6.49870634e-02  4.97962981e-01  1.10558271e+00  1.22985400e-01
   1.62498131e-01  5.90103984e-01]
 [ 5.64813733e-01  4.21007335e-01  9.98053491e-01  2.54399590e-02
   7.61072159e-01  1.87027305e-01]
 [-8.40346515e-01  3.42549905e-02 -8.49539101e-01  1.03161491e-01
  -1.41132489e-01 -8.71353328e-01]
 [-9.56566393e-01 -4.25211251e-01 -9.42889929e-01 -1.72619119e-01
  -1.70777693e-01 -6.18199468e-01]
 [-1.28246498e+00 -3.69265527e-01 -8.80950570e-01 -1.99936777e-01
   2.42088154e-01 -1.00050402e+00]
 [ 3.35185044e-02  4.09054667e-01  8.05422544e-01  7.55976513e-02
   1.26458955e+00  3.10598761e-01]
 [-1.16893792e+00 -4.87183452e-01 -8.36645663e-01 -2.52988130e-01
   3.00061196e-01 -8.76192451e-01]]
output_layer/bias:0
(6,)
[ 1.2147789   0.22651365  0.7596817   0.07205501 -0.12471288  0.87188154]
