Hidden_layer_0/kernel:0
(24, 80)
[[ 1.5433120e-03  2.5974211e-01  9.9110464e-04 ... -6.6213566e-04
   3.4295110e-05  1.4923358e-03]
 [-2.7308953e-03 -1.3549583e-01 -3.3844076e-03 ...  5.3594918e-03
  -1.7497109e-03 -5.9323240e-02]
 [ 5.2137516e-04 -3.4926113e-01  2.6759930e-04 ...  1.7170477e-04
  -3.3449230e-04  3.5660166e-02]
 ...
 [ 6.4029777e-04  4.6292007e-02  5.2843187e-03 ... -5.9441868e-03
  -3.2757265e-03 -3.4440886e-02]
 [ 1.3100062e-02 -3.9590076e-02  7.2612497e-03 ... -1.0494340e-02
   2.6637907e-03  8.0816112e-03]
 [ 2.1113949e-03 -2.8804183e-02 -4.4578193e-03 ...  5.1111747e-03
  -3.9907084e-03  2.2936994e-02]]
Hidden_layer_0/bias:0
(80,)
[-1.03124604e-03  2.49511644e-01 -1.23175932e-03 -1.75925717e-03
  1.83417529e-01 -2.01744842e-05  2.67406856e-03  4.07636464e-01
  1.53407022e-01  2.95739383e-01  4.18533415e-01 -5.42639732e-01
  4.05580699e-01  1.34619936e-01 -7.57730217e-04 -1.65204506e-03
  2.87144590e-04 -3.31416070e-01  1.38188928e-01  1.01746880e-01
  7.38371909e-02  7.14131743e-02 -1.24448597e-05  1.34944499e-01
  3.18687260e-01  1.70809828e-04 -3.70611669e-04  2.40841793e-04
 -2.65335917e-01  2.72306683e-03  4.30684723e-02  1.52661562e-01
 -9.83835198e-04  4.35374794e-04  2.05955151e-02  3.50430876e-01
  1.06712826e-01 -1.56547094e-03  2.59174705e-01  3.40140797e-02
 -9.61695332e-03 -5.42712919e-02 -1.39640435e-03  1.38426549e-06
  1.50416091e-01  2.18932897e-01  1.15933537e-03 -1.03118606e-02
  8.85740072e-02 -4.10355744e-04  8.91269892e-02  2.98450559e-01
 -2.18677536e-01 -3.45390797e-01 -2.26572622e-04 -5.43312848e-01
 -4.65707958e-01 -4.92681980e-01  2.32829303e-01 -6.36908770e-01
  7.87019357e-02  3.03034633e-01  2.93787837e-01  2.92507231e-01
  1.52014822e-01  2.89421052e-01 -3.29871058e-01 -2.17139168e-05
 -1.39127264e-03 -4.68376815e-01 -3.16115856e-01  1.12073973e-03
 -3.60432565e-01  2.63161987e-01  1.98033243e-01  9.30138049e-04
 -3.82657647e-01  6.08141650e-04  5.36789812e-05 -1.08694024e-01]
Hidden_layer_1/kernel:0
(80, 80)
[[-1.09983273e-04  5.32104634e-04  4.37414797e-04 ...  1.80466624e-04
  -1.08961179e-03 -1.20059216e-04]
 [ 7.51923537e-04 -1.25287811e-03 -1.16576615e-03 ...  6.12200191e-03
   2.92111712e-04 -2.75554281e-04]
 [ 3.80959973e-05  4.28682310e-04  3.04414571e-04 ... -2.86060781e-03
  -8.29847995e-04 -3.37214042e-05]
 ...
 [ 1.90617939e-05 -4.20814904e-04 -2.71981931e-04 ...  1.55872095e-03
   1.19266100e-03  1.00735771e-04]
 [ 2.77904874e-05 -9.11232564e-06 -6.33740128e-05 ... -1.19850854e-03
  -4.55408124e-04 -2.05805482e-05]
 [-3.72384122e-04  3.67187546e-04  3.59326601e-04 ... -4.19087224e-02
  -1.11771718e-04 -2.01674586e-04]]
Hidden_layer_1/bias:0
(80,)
[-6.3012186e-03  1.1977002e-03  1.8281291e-03  4.3519229e-02
  2.7940099e-03  6.9045728e-01  5.3309709e-01  4.5189798e-01
  2.2564640e-03 -3.6640828e-03  1.4256316e-04 -2.0098654e-03
 -6.7389966e-04 -1.5995000e-01 -9.6705399e-04 -4.5366706e-03
 -1.8368340e-01 -1.4456591e-03  3.3059595e-03  1.7576969e-01
  2.0659447e-03  5.1389927e-01 -2.9028472e-03 -1.9235600e-03
  5.0731742e-01 -2.2276049e-03  3.4663796e-01  1.9330636e-03
 -3.5809488e-03  3.8817132e-04  9.7158886e-02  4.9338844e-01
  1.6695878e-03 -9.4667950e-04  4.5025372e-06  6.8466482e-04
  3.1935617e-01  1.6398604e-01 -7.1916366e-01  4.8655030e-01
 -1.1082304e-03  5.0455135e-01  6.3211506e-04  4.1228207e-03
  5.3814608e-01  1.0630540e-02  6.0543329e-01  8.3158014e-04
  5.1729036e-03  5.8694994e-01  5.2408016e-01  3.6717293e-01
 -3.0211205e-04  5.8255255e-01 -4.1258591e-03  2.9598898e-01
  3.0554658e-01  8.2062267e-02  3.0978234e-04 -3.2713502e-03
  4.4257012e-01 -9.8038232e-04  1.8863440e-03  3.4168157e-01
  5.4222357e-01  2.0350611e-01 -1.0991274e-01  7.8187764e-02
  4.9173474e-01  3.9348189e-02  5.0413442e-01  4.2629299e-01
  1.4568601e-03  2.1119392e-01  2.7954879e-03  5.2362889e-01
  4.3185210e-01  6.5550584e-01 -4.0280807e-04 -8.5659337e-04]
Hidden_layer_2/kernel:0
(80, 80)
[[-8.63112509e-05 -2.93156172e-05 -1.56813599e-06 ... -8.79242143e-05
  -1.76232788e-06 -1.23546197e-05]
 [ 9.03035281e-04  4.01581310e-05  3.89435445e-05 ...  3.38972633e-04
   4.41317025e-05  4.00319987e-05]
 [ 7.57934526e-04  3.91980648e-05  3.14583231e-05 ...  2.82527297e-04
   3.61005368e-05  3.04473142e-05]
 ...
 [-4.76190411e-02  7.73811655e-04  8.29604047e-04 ...  4.78046127e-02
   8.49482603e-04  8.78664607e-04]
 [-5.70292585e-04  2.17618599e-05 -1.57841496e-05 ... -1.19104830e-03
  -2.73072783e-05 -1.06637535e-05]
 [-7.18418523e-05 -1.32373179e-06  5.76548700e-06 ...  2.37437089e-05
   2.02464798e-06  4.62103162e-06]]
Hidden_layer_2/bias:0
(80,)
[ 4.7263604e-01 -2.0585975e-03 -5.6501576e-03  3.6630240e-01
  2.8305376e-01 -4.6376642e-03  5.1274759e-01  1.6033723e-03
 -8.1852069e-03 -4.2165443e-03  1.1585581e-03 -1.9467149e-03
 -3.3941799e-01  2.1988477e-03 -2.9645497e-03  7.9395521e-01
 -4.0574861e-03  6.5835130e-01 -3.2419113e-03 -7.8654876e-03
 -5.5048317e-03 -2.5734501e-03 -6.6855284e-03  5.6778735e-01
 -2.8398135e-03 -6.6746711e-03 -7.0519024e-03 -3.5474943e-03
 -9.0966336e-03  8.9465892e-03  5.0110120e-04 -6.9742185e-01
  3.5057236e-03 -4.1354325e-02 -1.6412641e-01 -3.5417574e-03
  4.9170160e-01  7.1848822e-01  6.8925840e-01  6.7175734e-01
 -4.3191733e-03  5.7064974e-01 -1.3152874e-03  4.8817629e-01
 -1.5343525e-02  7.2039354e-01  8.2329124e-01 -4.9546803e-03
  7.2427690e-01 -3.5666423e-03  8.2488698e-01 -2.1150273e-03
 -2.8732035e-03  1.8177559e-03 -7.0173955e-03  3.3155188e-01
  6.8884802e-01 -2.5933858e-03 -7.8973472e-03  8.2060099e-01
  9.5490092e-01  5.2860314e-01  6.9634668e-03  5.6590140e-01
  1.6035357e-03  8.3467782e-01  6.5743649e-01  3.5528424e-01
  5.0738245e-01 -5.4093027e-03  2.3272458e-02  6.9849068e-01
  6.0450774e-01 -7.2207092e-03  3.2388306e-01 -2.2882870e-01
 -8.4140105e-04  7.0346016e-01 -6.9156480e-03 -4.6313959e-03]
Hidden_layer_3/kernel:0
(80, 80)
[[ 8.26980248e-02 -7.79181207e-03 -7.50739872e-02 ...  6.33537322e-02
   6.87906295e-02 -6.60448847e-03]
 [ 3.33665346e-04  1.46015343e-04 -2.49920296e-04 ... -2.77966232e-04
   3.27910639e-05  1.29401218e-04]
 [ 3.05541798e-05  2.23054201e-04 -8.50615979e-05 ... -3.76778597e-04
  -1.60140917e-04  2.20498623e-04]
 ...
 [ 1.14476025e-01 -1.22199589e-02 -1.34228384e-02 ...  1.00128338e-01
   9.51479375e-02 -1.04612503e-02]
 [ 1.95330940e-05  2.54826184e-04 -1.23833437e-04 ... -4.00485354e-04
  -1.76478818e-04  2.50771875e-04]
 [ 2.50812809e-05  2.10268772e-04 -3.81469945e-05 ... -4.02644859e-04
  -1.55882139e-04  2.09921622e-04]]
Hidden_layer_3/bias:0
(80,)
[ 0.61029804 -2.6659205  -0.15745959  0.9235175   0.68688315  0.6294547
  0.67172694  0.58501303  0.6426853   0.8437323   0.36568338 -2.7263706
  0.15499105 -2.8536448   0.40467235  0.7399064  -2.8011506   0.2684654
  0.758556   -0.41023788  0.15281698 -2.899198    0.86378896 -2.9197218
 -0.2020181   0.8296988  -2.5949883  -2.549194   -2.939859    1.0570849
  0.71267676  0.33271557  0.19297536 -2.6018772   0.47078693 -2.6729577
  1.0098902  -3.0453074  -3.0936322  -3.1002424   0.4677999   0.4947251
 -3.346299   -1.1712292   0.4210312  -2.6848116  -0.04105666  0.8962659
  0.35875127 -0.25898412  0.1858232   0.4842487  -2.6073391   0.9112327
  0.37376437  0.8988393  -1.930532    0.6474061  -2.8727505   0.8174661
 -2.4932358   0.8656997   0.3937628  -2.7112753  -3.0110502  -1.4064186
 -2.9262667  -1.5467273  -2.5626655   0.13203667 -2.250568    0.5485795
  1.0069877  -2.5641181  -2.6331177  -0.11630158  0.2482901   1.120451
  0.66583675 -2.7012398 ]
Output_layer/kernel:0
(80, 6)
[[ 8.72477651e-01  5.99204779e-01  1.30470312e+00  1.21847279e-01
   1.86512160e+00  1.12194948e-01]
 [-1.54176486e+00 -3.83601815e-01 -9.86015856e-01 -3.49905968e-01
  -3.01014692e-01 -1.08055532e+00]
 [ 4.31328869e+00 -2.01959729e+00 -4.55025625e+00  2.30843693e-01
  -1.78382266e+00  4.71576571e-01]
 [ 8.97413433e-01 -1.64380167e-02  1.04461408e+00  3.82010103e-03
   1.56896460e+00 -1.01558313e-01]
 [ 2.42312074e-01  2.17664808e-01  7.61136651e-01  4.48366813e-03
   6.01937473e-01  7.74047375e-01]
 [ 8.38369846e-01  3.63782585e-01  7.48380244e-01  5.14875129e-02
   1.33067226e+00  2.24667192e-01]
 [ 6.09339774e-01  6.25767171e-01  1.31240916e+00  1.09960198e-01
   1.76910281e+00  5.47834039e-01]
 [ 6.71214879e-01  5.80283105e-01  1.26683676e+00 -3.31049040e-02
   1.58083463e+00 -2.62813326e-02]
 [ 6.80190682e-01  5.45906067e-01  7.30967939e-01 -2.27229502e-02
   1.70389807e+00  7.74118230e-02]
 [ 7.91473508e-01  4.48452830e-01  1.10310078e+00 -4.50817570e-02
   1.21534228e+00  4.43892896e-01]
 [ 7.11166382e-01  4.73957092e-01  1.12287915e+00  1.82493880e-01
   1.75823319e+00 -1.37894467e-01]
 [-1.21161783e+00 -1.28327727e-01 -1.26900136e+00 -2.35370368e-01
  -7.13818014e-01 -1.07411766e+00]
 [-7.45285451e-01  1.13637173e+00  1.22208834e+00  3.31589669e-01
  -4.04476076e-01  8.03411543e-01]
 [-1.17180896e+00 -3.65390509e-01 -8.16091001e-01 -4.55785729e-02
  -2.56609142e-01 -9.96789753e-01]
 [-5.61294019e-01  3.98152113e-01  1.17636991e+00  4.37065251e-02
  -1.64465022e+00  1.73580229e+00]
 [ 5.64967632e-01  5.81834674e-01  1.26813245e+00 -7.35622868e-02
   1.55026579e+00  6.19348168e-01]
 [-1.45561242e+00 -5.12796283e-01 -9.35472667e-01 -1.75021261e-01
  -5.01124144e-01 -9.87490952e-01]
 [-1.59327671e-01  6.42709732e-01  9.24697161e-01  1.37573272e-01
   1.82175100e+00  2.20510244e-01]
 [ 7.47516632e-01  6.01778865e-01  1.07384789e+00  2.50928365e-02
   1.50265217e+00  1.56035960e-01]
 [-1.17037082e+00 -3.10941845e-01 -1.05223906e+00  1.36084408e-01
  -6.48437560e-01 -8.52682650e-01]
 [-1.09821033e+00  1.19281614e+00  1.69113743e+00  6.01500154e-01
   2.56942511e+00 -2.52989262e-01]
 [-1.50780404e+00 -2.93629020e-01 -1.23376715e+00 -2.25814357e-01
  -3.78868550e-01 -1.19419587e+00]
 [ 2.59217787e+00 -3.44352961e-01  1.59390867e-01 -3.11942130e-01
  -4.96010494e+00  3.00493646e+00]
 [-1.42060101e+00 -6.58396721e-01 -1.02221823e+00 -5.61548136e-02
  -5.52448750e-01 -1.01632154e+00]
 [-1.21034956e+00  6.28190115e-02 -6.67923093e-01  1.03208460e-01
  -4.24163252e-01 -7.51039326e-01]
 [ 8.65590692e-01  5.10686934e-01  9.95846093e-01  5.47892787e-02
   1.35612381e+00  5.66543758e-01]
 [-1.49582076e+00 -6.05440617e-01 -1.04561353e+00 -2.84076035e-01
  -6.10832095e-01 -1.10238969e+00]
 [-1.13899088e+00 -5.47020197e-01 -9.86640215e-01 -3.42718512e-01
  -3.05032641e-01 -1.07531989e+00]
 [-1.68783379e+00 -6.27813935e-01 -1.16333222e+00 -1.34250626e-01
  -6.38817370e-01 -1.09703422e+00]
 [ 8.41569245e-01  1.34322062e-01  8.90651643e-01 -2.71712560e-02
   1.58320260e+00  4.70231891e-01]
 [ 4.23243403e-01  5.07166922e-01  9.20006752e-01  3.62823009e-02
   1.32033682e+00  6.00364029e-01]
 [ 5.18875217e+00 -2.02732134e+00 -3.37594175e+00 -5.72708905e-01
  -4.23466825e+00  1.61804903e+00]
 [ 1.22562252e-01  5.77247918e-01  1.04670930e+00  1.31720394e-01
   2.58089995e+00 -3.22051197e-01]
 [-1.16198397e+00 -2.04330370e-01 -1.19584751e+00 -2.65254796e-01
  -7.48730838e-01 -1.12223637e+00]
 [ 4.82752025e-01  4.66424465e-01  1.15593755e+00  2.10849509e-01
   1.72045362e+00  5.04004717e-01]
 [-1.41760480e+00 -5.46664536e-01 -1.15288424e+00 -2.50564516e-01
  -6.76571965e-01 -1.12734330e+00]
 [ 9.38570559e-01  5.14632761e-01  7.71093249e-01  1.95014069e-03
   1.38409698e+00  5.09018719e-01]
 [-1.53961885e+00 -4.03092235e-01 -1.23141539e+00 -1.76882580e-01
  -3.17186028e-01 -1.13046968e+00]
 [-1.68269777e+00 -4.13561404e-01 -9.59885240e-01 -1.75447285e-01
  -5.12240291e-01 -7.09809184e-01]
 [-1.32543123e+00 -4.30137306e-01 -9.87377703e-01 -8.13717097e-02
  -5.57481229e-01 -1.05084598e+00]
 [ 4.19217914e-01  4.59281415e-01  9.33520317e-01 -5.23380563e-02
   1.84059477e+00  2.90819049e-01]
 [ 3.36208969e-01  3.64749372e-01  1.17646456e+00  1.59272403e-01
   1.02261388e+00  6.96427584e-01]
 [-1.42815602e+00 -1.30777657e-01 -1.29469633e+00 -6.66837469e-02
  -1.70769423e-01 -9.37205553e-01]
 [-7.87028670e-01 -4.59136330e-02 -4.34991866e-01 -3.02856248e-02
   6.24051476e+00 -2.97678685e+00]
 [ 2.88356781e-01  5.77957034e-01  1.36986077e+00  2.75869854e-02
   1.51099432e+00 -6.39287010e-02]
 [-1.43940806e+00 -5.05819201e-01 -8.47048402e-01 -3.06400448e-01
  -2.73187548e-01 -9.69892919e-01]
 [-1.81380200e+00  8.07689071e-01  1.20766759e+00  6.93878889e-01
   1.11293304e+00  1.19779611e+00]
 [ 7.87773848e-01  3.20656240e-01  1.13003421e+00 -4.73046899e-02
   1.51053441e+00  4.17824775e-01]
 [ 1.06935871e+00 -4.40791473e-02  5.82846403e-01 -1.23161469e-02
   1.72425246e+00 -1.62234217e-01]
 [ 2.06985444e-01 -4.18732837e-02  2.76449651e-01 -5.07092476e-03
   3.06925511e+00 -3.06579202e-01]
 [-7.59215057e-01  1.04251420e+00  1.87233472e+00  4.61336672e-01
   1.74362707e+00  6.24841787e-02]
 [ 3.32019687e-01  4.68853503e-01  1.29580188e+00  4.58958447e-02
   1.73655045e+00  4.95694689e-02]
 [-1.40766144e+00 -4.88668352e-01 -1.17320693e+00 -2.30640545e-01
  -7.50733018e-01 -1.07911420e+00]
 [ 4.73184228e-01  1.39479548e-01  1.16015840e+00  2.31554694e-02
   1.45333874e+00  5.59257984e-01]
 [ 2.91560709e-01  4.26038921e-01  1.34274197e+00  5.81492968e-02
   1.83085108e+00 -1.01682626e-01]
 [ 1.01159096e+00  5.63896656e-01  1.11848164e+00  2.23919954e-02
   1.45505798e+00  1.65258586e-01]
 [-1.53924799e+00 -2.58352190e-01 -1.16633046e+00  3.36492360e-02
  -5.89252710e-01 -1.01578629e+00]
 [ 5.03293574e-01  2.46454895e-01  1.21981394e+00  2.48019155e-02
   1.54554999e+00  8.68413001e-02]
 [-1.48779643e+00 -4.56969202e-01 -1.28267252e+00 -2.15003148e-01
  -3.85812402e-01 -1.11098409e+00]
 [ 7.76739657e-01  5.77436149e-01  8.45175266e-01 -3.91728804e-02
   1.32514501e+00  4.74182695e-01]
 [-1.20357513e+00 -6.21158302e-01 -8.02897155e-01 -2.87482709e-01
  -6.95686400e-01 -1.07272303e+00]
 [ 9.18204606e-01  7.28075877e-02  7.42118418e-01  2.82031987e-02
   1.10275316e+00  4.93751943e-01]
 [ 1.14788938e+00  5.08428633e-01  1.16561365e+00 -1.62809789e-01
   1.50531805e+00  1.75150037e-01]
 [-1.12878025e+00 -3.41069996e-01 -1.24019086e+00 -2.57976383e-01
  -4.03388292e-01 -1.10000718e+00]
 [-1.44748425e+00 -1.88792616e-01 -9.65853333e-01 -2.35048592e-01
  -1.71835124e-01 -1.11044383e+00]
 [-1.47591066e+00 -3.27796966e-01 -8.90405893e-01  4.95986678e-02
  -4.87262189e-01 -6.70965672e-01]
 [-1.41382694e+00 -4.87383157e-01 -1.03922081e+00 -1.58409446e-01
  -5.48630536e-01 -8.96967113e-01]
 [-6.78282022e-01  4.84617263e-01  4.39026982e-01 -9.18230414e-02
   6.71698999e+00 -3.12293053e+00]
 [-1.65510249e+00 -4.96549249e-01 -1.15375662e+00 -3.35481107e-01
  -7.58872628e-01 -1.02999187e+00]
 [ 6.28150105e-01  2.76990622e-01  9.13996935e-01 -1.36980973e-02
   1.99208117e+00 -3.89732450e-01]
 [-1.36308861e+00 -5.17334938e-01 -1.07171154e+00 -1.37328459e-02
  -5.76443732e-01 -6.82227373e-01]
 [ 1.03340244e+00  3.24268669e-01  9.59742367e-01  1.16418920e-01
   1.63765538e+00  5.78621179e-02]
 [ 4.87175018e-01  1.53918773e-01  1.09292996e+00 -3.31188994e-03
   4.67826396e-01  5.11493325e-01]
 [-1.38207114e+00 -1.37109175e-01 -1.04673171e+00 -3.88881564e-01
  -5.43029904e-01 -9.95076060e-01]
 [-1.37139463e+00 -1.37815624e-01 -9.56582010e-01 -2.35720202e-01
  -7.31335282e-01 -8.85703027e-01]
 [ 2.03124750e-02  2.73780763e-01  7.79390216e-01 -5.51486248e-03
   2.56976581e+00 -2.69269228e-01]
 [-3.22309792e-01  1.07498825e+00  1.73043084e+00  3.45590591e-01
   7.35254824e-01  6.36338770e-01]
 [ 1.04343951e+00  3.42858315e-01  7.68336356e-01 -2.26765964e-02
   1.63222408e+00  3.71302962e-01]
 [ 4.67442691e-01  5.62161028e-01  1.26781619e+00  5.63606955e-02
   1.28638017e+00  4.13362056e-01]
 [-1.30519831e+00 -4.03949201e-01 -1.19132829e+00 -2.15960205e-01
  -3.35495234e-01 -7.97522664e-01]]
Output_layer/bias:0
(6,)
[1.4283319  0.3842304  0.99975085 0.167537   0.42734015 0.9505821 ]
