Hidden_layer_0/kernel:0
(24, 80)
[[ 6.3267156e-02  5.5857296e-03  1.3167614e-01 ... -1.3925919e-01
   2.2231561e-01  8.8037401e-02]
 [ 7.2676182e-02  1.9025315e-02 -2.0768201e-01 ... -1.1047370e-02
   1.9814540e-01 -3.2899827e-02]
 [-1.3951929e-01 -2.7639557e-02  2.3945067e-02 ... -3.2834530e-02
  -4.7462117e-02 -5.2859079e-02]
 ...
 [-7.0075206e-02 -2.9333280e-02 -2.1166336e-02 ...  3.5546105e-02
   2.1084996e-02 -3.2179508e-02]
 [ 7.6261587e-03  6.6586928e-03 -9.4439730e-02 ...  6.4963773e-03
   1.4131482e-01  1.8462623e-02]
 [-7.7681015e-03 -2.0015061e-04  3.1037981e-02 ... -1.0870565e-02
   2.0408316e-01  1.2296531e-03]]
Hidden_layer_0/bias:0
(80,)
[ 1.88609749e-01 -7.32809165e-03  5.80011420e-02  2.83859253e-01
  1.84124860e-03  2.08961614e-03  2.13440284e-01 -4.03862417e-01
  1.19199090e-01 -4.08739448e-01 -5.39985359e-01  1.58996077e-03
 -1.66928798e-01  2.02519804e-01  2.39986077e-01  1.41546011e-01
  3.51530254e-01  3.15378457e-01 -4.57679480e-01  2.96219826e-01
  2.41761759e-01 -2.07299829e-01  1.61457255e-01  3.01929265e-01
  2.03461692e-01 -1.95890777e-02  3.44184965e-01  3.35842371e-01
  1.99555740e-01 -4.78651375e-01 -2.73083687e-01  2.94036567e-01
  3.15734416e-01 -1.40554528e-03  1.07699417e-01 -3.47985417e-01
  3.02664131e-01  1.68806836e-01  1.79316208e-03  2.38857837e-03
  1.51254964e-04  2.79659361e-01  2.60743380e-01  3.83881554e-02
  2.06624627e-01 -3.63101512e-01  3.75625581e-01  2.24987487e-03
 -4.74447787e-01  2.21987098e-01 -4.09251928e-01  2.26117596e-01
  2.94834912e-01  8.15836806e-03 -3.74683797e-01  1.18175946e-01
  3.86033565e-01  2.94950694e-01  2.98744887e-01 -6.58521545e-04
  3.22479427e-01  9.93812806e-04  2.30096400e-01  3.32579040e-03
 -4.74044114e-01  4.10148781e-03  3.43421012e-01 -9.18682723e-04
 -2.67356813e-01 -3.93729508e-01 -2.26617485e-04 -2.15515763e-01
  2.36116245e-01  6.29958138e-02  2.58340895e-01  2.49741405e-01
  2.28578731e-01  2.90863007e-01  9.16508883e-02 -3.80322397e-01]
Hidden_layer_1/kernel:0
(80, 80)
[[-0.00676799  0.04668916  0.01698947 ... -0.07544141  0.00601263
  -0.05693363]
 [-0.01067316  0.01882982  0.00493866 ... -0.02914987 -0.00374334
  -0.0238324 ]
 [ 0.06120519 -0.00773739  0.00839437 ...  0.09761935  0.02887501
   0.0649688 ]
 ...
 [ 0.01599559  0.0417519   0.02090238 ... -0.04970621  0.01958005
  -0.08380123]
 [ 0.15488124 -0.0998401   0.20224224 ...  0.1118837   0.14272593
   0.01261081]
 [-0.01928349  0.00664298 -0.03573051 ... -0.02832505 -0.02863045
   0.00722505]]
Hidden_layer_1/bias:0
(80,)
[ 4.4305021e-01  3.7096423e-01  4.0951812e-01 -3.5861786e-03
 -1.7951838e-03  3.1883624e-01 -2.1841060e-03  3.7007543e-01
  4.3859550e-01  4.1114092e-01 -2.9426971e-03  6.1944190e-02
  2.7049175e-01  5.0212044e-01  1.7380467e-01  4.6285447e-01
 -1.0630639e-03 -2.6280098e-03  4.4432518e-01  4.4429728e-01
  3.1065691e-01 -2.1643686e-01 -1.8746100e-04  3.8484055e-01
 -4.2430934e-01 -2.1775649e-03 -2.7899034e-04  2.7902278e-01
  2.8455710e-01 -6.5705944e-03  3.7191558e-01  2.0160249e-01
  4.0727744e-01 -2.6675358e-01 -3.5138137e-03 -8.6374278e-04
 -4.1122790e-03 -5.7255093e-05  2.9159495e-01 -3.2615380e-03
 -1.8996751e-03  5.8135051e-01  2.6975965e-01  2.8242213e-01
 -1.4992044e-03 -1.1316785e-03  4.2439565e-01 -1.2688585e-04
 -3.3996620e-03 -1.9280601e-03  4.3363121e-01 -1.4384368e-03
 -3.5735553e-03  3.8416275e-01 -3.2105023e-01  3.5352838e-01
 -8.6405443e-04  4.0820646e-01  2.2070026e-01 -8.1457564e-04
  3.7528506e-01  4.2631361e-01  4.0706900e-01  4.4871500e-01
  5.2396554e-01  3.7243152e-01  1.2865490e-03  4.1222066e-01
 -5.6885625e-04  3.8767287e-01  3.6793271e-01  2.0388336e-01
  1.4913994e-01  4.0362930e-01  4.2120713e-01  3.0651698e-03
  3.1028223e-01  2.7761942e-01  3.8287178e-01  1.4024496e-01]
Hidden_layer_2/kernel:0
(80, 80)
[[ 1.0581628e-04  5.0823305e-02  4.1560873e-02 ...  1.0523351e-03
  -4.9398523e-02  1.9223535e-02]
 [-5.4583169e-04 -5.5631436e-02 -4.1355532e-02 ... -1.4800484e-02
   1.8460141e-01  3.5123827e-03]
 [-3.8866106e-05 -8.2581967e-02  1.3043718e-01 ... -2.4992296e-02
   1.2842233e-02 -6.9198739e-03]
 ...
 [ 1.6248800e-04  2.3861581e-01 -3.4585204e-02 ...  2.4175618e-02
  -2.3443604e-01  4.3324377e-02]
 [-7.0512899e-05 -2.8766543e-03  9.6764378e-02 ... -1.5800510e-02
  -7.2013848e-02 -3.7355518e-03]
 [ 3.2011161e-04  1.3650870e-01  2.5538575e-02 ...  4.4590075e-02
  -1.9692463e-01 -3.1807511e-03]]
Hidden_layer_2/bias:0
(80,)
[-0.01990328  0.33894137  0.03171673  0.62172574  0.78369683 -0.03008528
  0.12852517 -0.58534515 -0.04336911 -0.6158663   0.3427179   0.54883516
 -0.02592708 -0.03695878 -1.0568813  -0.25983265  0.67545635 -0.02537825
 -0.02998399 -0.02520428  0.10054944  0.00977111 -0.02548416  0.43670085
 -0.5282006  -0.03189408  0.549738   -0.02602546  0.17982131  0.39493942
  0.45946097  0.43586332  0.55707514 -0.8834086   0.4186591  -0.03833229
 -0.03390267 -0.00654021 -0.04642851  0.4730311   0.54734993  0.17833365
  0.52142537 -0.21666266 -0.42798445 -0.03176251 -0.03192181  0.0126587
  0.5063145   0.45903632 -0.0245521  -0.0328208  -0.02614523  0.7435465
  0.44302928 -0.03477665  0.3921574  -0.03947074  0.01901414  0.54745024
 -0.03207444  0.6255825   0.37824494  0.40111917 -0.03054365  0.01520909
 -0.02067755 -0.03053532  0.5186587   0.5767195   0.06183308 -0.02590818
  0.35949877  0.6860449  -0.4469952   0.5871987   0.3489149  -0.537839
  0.1855709   0.66038644]
Hidden_layer_3/kernel:0
(80, 80)
[[ 5.7136283e-05 -2.3324341e-04 -3.6276827e-04 ...  8.2470251e-05
  -3.0318581e-05 -9.3055023e-05]
 [ 3.5156223e-03  1.6136101e-03  2.7513350e-03 ...  3.9434186e-03
   2.7705298e-03  8.4524974e-04]
 [-7.5513958e-03 -6.5033166e-03  1.5837592e-01 ... -7.0405221e-03
  -6.9918111e-03 -9.1688288e-03]
 ...
 [-3.6508677e-04  3.9206371e-03 -9.4200540e-03 ...  4.4944684e-04
  -6.7049323e-04 -1.6091048e-03]
 [-2.8398351e-03 -1.3093175e-02 -1.5496692e-01 ... -4.8025795e-03
  -2.8088107e-03  1.6396531e-04]
 [-1.9269459e-03 -7.4134413e-03 -1.0576043e-02 ... -2.1071704e-03
  -1.6385496e-03 -2.2616447e-03]]
Hidden_layer_3/bias:0
(80,)
[-2.2030158  -0.8821534   0.14071704 -1.7403754  -1.7745625  -1.8324902
  0.7841864  -2.4811218  -2.3099103   0.06483944  0.64293563 -1.9592048
 -0.00467951 -2.2027702   0.17570814 -2.2932928  -2.0095017   0.5024914
 -0.7460619  -2.0805714  -2.0232642  -1.3103842   0.3677908   0.73377866
  0.5200611   0.36617875  0.7394018  -0.8183094   0.49313056  0.8143361
 -1.9998246   0.2079438   0.7375414  -1.094791   -2.49209     0.33251745
  0.5583208   0.16848652 -1.7967261   0.6204065  -2.213423   -0.8148547
  0.6150623   0.9078281   0.32178655 -1.3581926   0.22449017  0.46138567
 -1.9603956  -1.9356681  -2.1336818  -2.0033317  -0.58361095 -2.1533413
 -1.9766973   0.18614584  0.19368953 -2.4947922   0.24692844  0.09405606
 -1.9452423  -1.445978    0.35008624 -2.7232628   0.49579462 -0.8216369
  0.3477719  -2.1001096  -2.2659435  -1.993888   -0.60413086 -0.19476315
  0.24742384  0.2560891   0.33472213 -1.1504833  -0.05386429 -2.3922622
 -2.3048618  -1.8504182 ]
output_layer/kernel:0
(80, 6)
[[-1.17729521e+00 -1.21546604e-01 -9.18427646e-01 -1.23989604e-01
  -3.38839233e-01 -7.66986191e-01]
 [-1.00683129e+00 -1.57678083e-01 -4.25052375e-01  1.54820845e-01
   1.89644337e-01 -4.91620749e-01]
 [-2.05405936e-01  5.08750916e-01  9.34937298e-01  1.84594974e-01
   1.15943587e+00  2.07340926e-01]
 [-9.48884010e-01 -2.97456712e-01 -7.38865376e-01 -2.64681518e-01
  -5.60152642e-02 -5.63328922e-01]
 [-9.19282138e-01 -1.46461710e-01 -9.48782861e-01 -2.69677103e-01
  -4.05090630e-01 -9.38459873e-01]
 [-1.06493330e+00 -8.50750208e-02 -8.61143470e-01 -2.55678356e-01
  -3.28421146e-02 -6.04719341e-01]
 [ 5.46107292e-01  3.38975430e-01  8.75164807e-01 -3.25436108e-02
   8.76839817e-01  4.19220269e-01]
 [-1.06385839e+00 -1.07479349e-01 -5.62404454e-01 -6.26487434e-02
  -4.42438811e-01 -6.68068528e-01]
 [-1.34353042e+00 -1.55913740e-01 -9.36113298e-01 -1.24084905e-01
  -1.69434279e-01 -8.60435247e-01]
 [ 1.59474332e-02  3.93965065e-01  5.25052667e-01 -2.05311067e-02
   9.29372072e-01  6.07318468e-02]
 [ 3.78426731e-01  4.93665308e-01  1.04787362e+00 -2.53044087e-02
   8.56353819e-01  4.07803655e-01]
 [-8.28996718e-01 -6.55256503e-04 -5.54179549e-01 -1.58943146e-01
   1.51998818e-01 -2.98251599e-01]
 [ 4.67841387e-01  1.66893467e-01  6.70527637e-01 -1.46648660e-01
   1.34625554e+00 -1.52943805e-01]
 [-1.00700104e+00 -1.19455680e-01 -8.83469701e-01 -1.28236398e-01
  -1.20079992e-02 -6.06279612e-01]
 [-5.28328300e-01  6.27370238e-01  9.79354978e-01  1.18497260e-01
   2.53531337e-01  7.62101948e-01]
 [-1.39489472e+00 -5.49167022e-02 -9.06342030e-01 -1.58838972e-01
  -2.67147154e-01 -7.85855472e-01]
 [-1.10961640e+00 -8.88180509e-02 -8.38699460e-01 -2.05133110e-01
  -3.41766030e-01 -8.87952566e-01]
 [ 6.03849530e-01  5.08338630e-01  6.98806226e-01  7.72663057e-02
   9.52502668e-01  4.35157597e-01]
 [-5.40885985e-01 -2.83359021e-01 -6.02211535e-01  9.75781456e-02
  -2.38855004e-01 -3.99880171e-01]
 [-1.36674643e+00 -1.48369566e-01 -6.70730889e-01 -2.14294285e-01
  -6.70414194e-02 -8.00828218e-01]
 [-1.05395901e+00 -3.42681140e-01 -8.39499652e-01 -1.68400854e-01
  -1.41883031e-01 -9.43518758e-01]
 [-9.33023810e-01 -1.04924388e-01 -7.06986010e-01  1.04436249e-01
  -1.07181296e-01 -7.13191867e-01]
 [ 5.30195296e-01  4.30517495e-01  8.95963252e-01  7.94018805e-02
   9.26868975e-01  7.05630705e-02]
 [ 6.23455346e-01  3.11151832e-01  9.98333812e-01 -4.85113449e-02
   7.59715736e-01  1.95209309e-01]
 [ 4.16767180e-01  3.10117066e-01  1.01155734e+00  6.11745566e-02
   9.05970812e-01  4.54635143e-01]
 [ 2.20209137e-01  4.78834629e-01  1.20375633e+00  1.29873127e-01
   7.07073808e-01  4.96422559e-01]
 [ 1.74988890e+00 -3.60495836e-01 -4.36017334e-01 -4.91584986e-02
  -3.45904922e+00  2.03475332e+00]
 [-4.11248326e-01 -3.14411163e-01 -5.35639167e-01  9.34780166e-02
   2.77556658e-01 -3.18578631e-01]
 [ 3.94636178e+00 -1.76855719e+00 -2.44601560e+00 -6.56545222e-01
  -5.34338951e+00  1.86468673e+00]
 [ 6.51331365e-01  6.40468821e-02  6.77931845e-01 -8.92596226e-03
   1.44913864e+00  9.00563896e-02]
 [-1.18657541e+00 -4.93291542e-02 -9.06677544e-01 -2.67667979e-01
  -1.78343937e-01 -9.50377285e-01]
 [-4.18541670e-01  4.07378107e-01  9.82894540e-01  2.75025219e-02
   3.44008118e-01  5.87719321e-01]
 [ 4.69945401e-01  3.04777175e-01  6.55735970e-01 -1.30846025e-02
   7.83432245e-01  3.74131739e-01]
 [-7.10310102e-01 -2.77178705e-01 -5.30109465e-01  3.42445374e-02
   1.28849834e-01 -5.98826148e-02]
 [-9.95641112e-01 -1.52569383e-01 -6.82054162e-01 -2.29799543e-02
  -3.66668075e-01 -8.38325799e-01]
 [ 4.54927534e-01  2.99707323e-01  8.93341839e-01  7.53524229e-02
   1.28168321e+00 -4.68887724e-02]
 [ 4.65700895e-01  4.47049826e-01  8.94590735e-01  7.19798356e-03
   1.22367537e+00  2.03424156e-01]
 [ 2.66524673e-01  5.24522543e-01  6.24203920e-01  2.01690480e-01
   1.41763091e+00 -7.62984678e-02]
 [-1.19163203e+00 -3.61595154e-01 -8.94108176e-01 -2.77912080e-01
  -1.01768784e-01 -6.42099023e-01]
 [ 7.13830888e-01 -2.78884843e-02  6.15896761e-01  2.35125814e-02
   1.23119485e+00  1.50005966e-01]
 [-9.24827397e-01 -2.19665207e-02 -8.82321715e-01 -6.18627816e-02
  -4.19878960e-01 -9.05036390e-01]
 [-1.05902970e+00 -7.03775361e-02 -3.41426194e-01  1.71568230e-01
  -1.88135758e-01 -6.55241847e-01]
 [ 4.96932536e-01  2.23612592e-01  9.32850838e-01 -7.92977214e-02
   1.29308820e+00  3.91040415e-01]
 [ 1.04738462e+00 -1.30287737e-01 -1.38178304e-01 -9.74768121e-03
   1.52175939e+00  1.38040185e-01]
 [ 1.10626332e-01  3.65557224e-01  8.35214376e-01  9.75891203e-02
   5.76684952e-01  4.64640707e-01]
 [-1.20894146e+00 -2.55612493e-01 -6.25045300e-01  9.98664722e-02
  -4.35844243e-01 -5.92062414e-01]
 [ 2.88254350e-01  3.06144029e-01  4.10168797e-01 -1.80707239e-02
   7.95558155e-01  1.04136737e-02]
 [ 1.02177870e+00 -2.09862396e-01  1.99090719e-01  1.81482006e-02
   1.34338927e+00 -1.84362367e-01]
 [-1.08607578e+00 -4.18096125e-01 -7.27954090e-01 -1.60818502e-01
  -4.02942598e-01 -9.30790782e-01]
 [-1.15289617e+00 -5.77713549e-02 -5.70865631e-01 -2.13714704e-01
  -3.37055206e-01 -5.60889482e-01]
 [-1.01669168e+00 -2.01252550e-01 -9.38440204e-01 -1.64129645e-01
  -7.34651238e-02 -9.11174655e-01]
 [-9.70869660e-01 -3.68321627e-01 -6.28771842e-01 -1.17441162e-01
  -4.43650246e-01 -7.28127360e-01]
 [-6.22928739e-01 -1.96581408e-01 -3.74944389e-01  1.23558648e-01
   3.97052728e-02 -2.27356121e-01]
 [-1.13492966e+00 -3.05753917e-01 -8.36351156e-01 -8.61430690e-02
  -4.09975886e-01 -5.43368578e-01]
 [-1.39992714e+00 -4.36102092e-01 -7.15914249e-01 -2.04742476e-01
  -6.68018758e-02 -6.36007428e-01]
 [-2.25590169e-01  5.60805261e-01  1.09164882e+00  2.08621591e-01
   4.77469027e-01  4.72745746e-01]
 [-5.26418924e-01  5.63054025e-01  1.12020218e+00  1.86387256e-01
  -7.96834379e-02  9.63747084e-01]
 [-1.26849997e+00 -2.73150563e-01 -4.38556373e-01  1.55711053e-02
  -1.27343938e-01 -8.70197594e-01]
 [ 6.10418081e-01  1.64321169e-01  3.49271357e-01  1.62036903e-02
   1.59140980e+00 -3.10796171e-01]
 [ 7.86323071e-01  3.40532750e-01  4.27127272e-01 -2.34681368e-01
   1.02844548e+00  1.55229092e-01]
 [-1.07929540e+00 -2.53479928e-01 -7.64987469e-01 -1.21385738e-01
  -4.84557629e-01 -4.24856126e-01]
 [-5.40808856e-01 -1.25702843e-01 -4.48177516e-01  1.71646718e-02
   2.88993090e-01 -2.34907463e-01]
 [ 5.60916781e-01  3.97137344e-01  8.04516137e-01  5.35313077e-02
   1.44080460e+00 -1.27940759e-01]
 [-1.32869577e+00 -4.46448952e-01 -5.98950982e-01 -5.03216200e-02
  -7.60136470e-02 -6.72135353e-01]
 [ 4.55316193e-02  1.61495715e-01  9.61544037e-01 -3.11069842e-02
   1.28788269e+00  3.34188044e-01]
 [-7.37149715e-01 -2.36648172e-01 -6.38250113e-01  1.18195906e-01
  -2.50137776e-01 -4.62967694e-01]
 [ 4.88211393e-01  5.60447514e-01  9.42625821e-01  1.51395261e-01
   9.75542247e-01  2.75328547e-01]
 [-1.19917893e+00 -4.23672616e-01 -9.37940359e-01 -1.46610290e-01
  -2.31076740e-02 -5.86417556e-01]
 [-1.19675863e+00 -2.46730804e-01 -5.67804337e-01 -9.84992161e-02
  -4.30394590e-01 -8.11096430e-01]
 [-1.00721383e+00 -3.57515335e-01 -5.14414907e-01 -1.27873614e-01
  -1.41598776e-01 -4.18919653e-01]
 [ 2.89521527e+00 -4.23697799e-01 -3.62060755e-01 -2.12140381e-01
   3.88279271e+00 -6.26568615e-01]
 [ 2.60938191e+00 -4.73612398e-01  9.80846211e-03 -3.56860340e-01
  -1.46322823e+00  1.12648702e+00]
 [ 4.61568117e-01  1.62125990e-01  8.86305809e-01 -1.77419782e-01
   1.16740501e+00  3.98833275e-01]
 [ 9.24409747e-01  2.84962561e-02  3.85065414e-02  1.20997444e-01
   1.74959683e+00 -1.83145255e-01]
 [ 4.47478056e-01  3.68939936e-01  7.26072192e-01  1.94977179e-01
   1.20700526e+00  4.57652211e-01]
 [-6.40618384e-01 -2.84466058e-01 -2.78631419e-01  2.05206182e-02
  -1.88945174e-01 -1.87134326e-01]
 [-3.92415881e-01  1.27584368e-01 -4.53317881e-01  1.84634458e-02
   1.79473364e+00 -3.91629338e-01]
 [-1.19752002e+00 -2.17612490e-01 -9.23371077e-01 -2.42907573e-02
  -4.99210924e-01 -6.53334856e-01]
 [-1.37644184e+00 -4.43836778e-01 -5.02494395e-01 -9.68941599e-02
  -2.54450470e-01 -4.72386539e-01]
 [-1.22131085e+00 -1.74015462e-01 -7.83521473e-01 -2.61880666e-01
  -4.36120659e-01 -6.77596092e-01]]
output_layer/bias:0
(6,)
[1.1354316  0.17266802 0.67512643 0.08958998 0.19389842 0.71041554]
