Hidden_layer_0/kernel:0
(24, 80)
[[-5.15332446e-02  1.43426849e-04 -4.96108532e-02 ... -1.43250378e-04
   3.12870771e-01  1.91500207e-04]
 [ 7.00770020e-02 -7.10342429e-04 -2.03561097e-01 ... -1.08454737e-03
  -1.82982162e-01  1.45723097e-04]
 [-2.95528114e-01 -2.02730973e-03  1.65659770e-01 ...  2.08739983e-03
  -9.47042927e-02 -1.95478438e-03]
 ...
 [ 6.95357146e-03  2.11151130e-03  4.24639396e-02 ...  4.83683543e-03
   7.51285180e-02  1.39605196e-04]
 [ 8.59436467e-02 -1.42722868e-03 -1.66820690e-01 ...  9.28325637e-04
  -7.41459653e-02 -2.51285848e-03]
 [-1.01146966e-01  4.86399373e-03  4.26048636e-02 ... -2.00659316e-03
  -6.90566227e-02  4.51160315e-03]]
Hidden_layer_0/bias:0
(80,)
[ 1.93535820e-01  5.15117485e-04  1.17766067e-01  5.87997602e-05
 -1.36582196e-01 -5.66051458e-04 -6.37879252e-01 -4.01482314e-01
 -4.09489759e-04  1.78282171e-01  1.25589713e-01  2.29896279e-04
 -4.80957329e-04 -3.32729978e-04  2.24103138e-01 -9.60364286e-03
 -2.78854162e-01 -6.04077995e-01 -2.09923834e-04 -3.52031901e-04
 -3.40477824e-01 -5.40122032e-01 -4.58808661e-01  1.70490190e-01
 -6.44003868e-01  1.06238589e-01  2.10764105e-04 -1.99754577e-04
  3.85351628e-01  5.05998556e-04  4.32055705e-04  1.11366950e-04
  1.45027125e-05  9.29172188e-02  1.99180454e-01  5.78829050e-02
  2.74143107e-02  3.09745337e-06  2.99934804e-01 -6.53033610e-04
  1.05519883e-01  1.52145684e-01  7.17672333e-02 -2.37044369e-04
 -2.23503797e-04 -3.24293971e-01 -9.00012441e-04  3.73763859e-01
  3.85076761e-01 -1.90212031e-05 -1.28018752e-01 -3.63076717e-01
 -4.12495703e-01  2.92802364e-01  2.42838666e-01 -4.11233678e-02
  1.11963637e-01  1.44545272e-01 -2.22145453e-01  4.68236132e-04
 -5.16038239e-01 -1.34087488e-04  5.12365818e-01 -8.15974898e-04
 -3.10071617e-01 -2.23886326e-01 -4.44982375e-04 -7.03338068e-04
 -3.57148412e-04 -4.01146390e-04 -6.11084688e-04 -1.01017490e-01
  1.17737316e-01 -3.57014447e-04  4.72676766e-05 -2.52622017e-03
 -7.56558683e-03  1.88539452e-05  3.70539427e-02  4.23797756e-04]
Hidden_layer_1/kernel:0
(80, 80)
[[ 3.14732343e-02  1.64113357e-03 -7.81764761e-02 ... -1.17143050e-01
   2.31691898e-04  1.96366222e-04]
 [ 3.29962582e-03  5.05055723e-05 -6.27654255e-04 ... -8.53973674e-04
  -1.18698008e-04  8.34191596e-05]
 [ 2.22092699e-02 -1.81351497e-05  2.38231823e-01 ...  3.97485234e-02
   1.97004891e-04  7.84457225e-05]
 ...
 [-1.13472983e-03 -7.73560678e-05  1.10673904e-03 ... -2.78478651e-03
  -1.64984245e-04  7.99432746e-05]
 [ 1.11649096e-01 -9.50443151e-04  8.37877020e-02 ... -4.83437404e-02
   1.61885509e-05  3.37782985e-04]
 [ 2.71099573e-03  2.83780264e-05 -1.71986141e-03 ... -5.57376887e-04
  -4.61239615e-05  3.52023053e-05]]
Hidden_layer_1/bias:0
(80,)
[ 5.7422864e-01 -2.1142568e-03  5.2568114e-01 -3.0025672e-03
 -1.1429345e-03 -4.4414270e-04  4.5606640e-01 -1.0061929e-03
  2.5900337e-01 -3.5734388e-01  4.2703649e-01  3.7703404e-01
  4.4830817e-01 -3.8912779e-01 -3.3923180e-04 -4.9440959e-04
  4.2957520e-01 -2.1129155e-03  5.3646976e-01  5.3415495e-01
 -4.4444301e-03  6.1272258e-01  2.3432907e-02  4.2030790e-01
  5.4416651e-01 -6.1334093e-04 -2.0139723e-03  4.4719272e-05
 -4.3118601e-03  3.5213241e-01 -1.9886482e-03  3.7262136e-05
  3.2452834e-01  5.1667875e-01  3.9014643e-01 -6.4837758e-04
  4.9396169e-01  4.1179152e-04 -1.1879287e-03  3.8185984e-01
  3.7698659e-01  5.4587024e-01 -1.6696680e-03  5.5587935e-01
 -7.3453615e-04  7.6525676e-01 -1.3243287e-03 -9.5189310e-04
 -2.4297638e-04 -3.7487859e-03 -2.0051347e-03 -9.7809829e-02
  1.5243655e-03  1.4756290e-03 -2.0862964e-03  4.0880936e-01
  3.7132883e-01  4.4199297e-01  5.1553059e-01 -4.4511747e-02
 -9.1210409e-04  1.2574819e-03 -2.2417229e-01 -2.0433445e-03
 -1.5973795e-03 -1.1593329e-03 -2.4142996e-03  2.1919454e-02
  3.7949577e-01 -9.2140137e-04  4.6019829e-04 -1.9514268e-03
 -2.1680472e-03  2.6577102e-02  4.5738509e-01 -1.1250403e-03
  4.3612635e-01 -8.2577728e-02 -3.6394394e-03 -1.0057215e-03]
Hidden_layer_2/kernel:0
(80, 80)
[[-8.48234922e-05  9.62603316e-02 -3.62274572e-02 ... -1.09085355e-04
   9.74333808e-02 -1.76422895e-04]
 [ 4.59699686e-06 -4.22912039e-04 -3.82427679e-05 ...  2.24564374e-05
  -1.49687845e-03  8.07717697e-06]
 [ 3.66184191e-04  2.10486650e-02  2.16660157e-01 ... -1.37524999e-04
   1.33229762e-01  1.24869312e-05]
 ...
 [ 7.90653285e-05 -3.50481905e-02 -1.84580877e-01 ... -2.70559940e-06
   5.30160815e-02 -2.91464792e-04]
 [ 1.06790640e-05  1.50803477e-04  8.86040725e-05 ...  3.83542010e-06
  -1.09756563e-03 -1.92512634e-05]
 [-5.07559071e-06 -1.62654091e-04 -2.71691330e-04 ... -9.36035690e-07
   1.12205662e-03  1.04671435e-05]]
Hidden_layer_2/bias:0
(80,)
[-6.3361099e-04  7.5897181e-01  3.3517033e-01  1.0268938e-03
  6.5122050e-01  7.8261917e-04 -3.7141538e-01  4.6197897e-01
  9.2265075e-01  6.0074985e-01 -1.3249201e-02  2.2022502e-01
 -2.7558547e-03 -3.4447152e-03 -2.2031369e-03  2.1371641e-03
 -4.7611254e-03  8.7876618e-01  1.5654992e-02 -2.2184633e-01
  8.7617256e-02  6.8960339e-01 -1.0967810e-03 -2.2093941e-01
  7.4305791e-01 -3.4523471e-03 -4.9986746e-03  2.7765566e-02
  6.7034084e-01  5.4250741e-01  1.8629053e-04 -5.6940089e-03
  2.6895076e-03 -1.8426521e-03 -7.3489449e-03  7.4506052e-02
 -3.6577208e-03 -7.9897484e-03  5.2942075e-02  7.9504645e-01
  6.7501688e-01 -2.1692097e-01  5.3756082e-01  9.1962677e-01
  5.3547573e-01  6.4442158e-01  8.2358277e-01  8.7029362e-01
  6.6110373e-01  8.2436711e-01  5.0056493e-01  7.6689371e-03
  3.4272066e-01  1.4385714e-01  6.6635251e-04  4.7905243e-04
  2.9284793e-01 -6.3295010e-03 -3.9381366e-03  4.0356117e-01
  4.3699783e-01 -4.9714581e-03 -9.0135941e-03 -2.0260972e-03
 -7.7852611e-03  5.9480125e-01 -4.3877093e-03  8.0727315e-01
  4.9268585e-01 -5.9583355e-03  5.0507933e-01 -1.7855879e-02
 -3.5924634e-03 -7.7244975e-03 -2.3299424e-01 -3.4281712e-03
  2.0797548e-03  2.9397986e-03  6.0247654e-01  1.6250830e-03]
Hidden_layer_3/kernel:0
(80, 80)
[[ 1.17308355e-05  1.75063997e-05  1.13859342e-05 ... -7.20176686e-05
   2.02354404e-05 -1.06480264e-04]
 [-1.02979308e-02 -8.61380436e-03 -9.33481660e-03 ...  7.66788721e-02
  -1.51456287e-02  7.67906979e-02]
 [-3.60352150e-03 -4.11124947e-03 -3.87461344e-03 ...  2.04846468e-02
  -7.14205531e-03  9.83730033e-02]
 ...
 [-4.73007203e-05 -7.57380767e-05 -3.41759805e-05 ...  9.11367242e-05
   8.81792730e-05 -1.32600529e-04]
 [-1.38545977e-02 -1.23094479e-02 -1.21690724e-02 ...  1.49826884e-01
  -1.79856122e-02  1.29872665e-01]
 [-1.21360223e-04 -1.28330284e-04 -1.25666149e-04 ...  7.42464326e-05
  -1.28326457e-04  9.70628753e-05]]
Hidden_layer_3/bias:0
(80,)
[-1.9118634  -2.8056316  -2.547476   -3.4985437  -2.7142277   0.53455245
 -2.6456304   0.65495455 -2.4403198  -2.923023   -3.8042889   0.5585333
  0.5530067  -1.938734   -2.9318614   0.8791504   1.1090492   1.1514859
  0.856286    0.7782309   0.0566234  -1.3452562   0.32437968 -0.6802033
  1.1989609   0.43598554 -3.572646   -2.7552009   0.60551196 -1.9513396
  0.6100292  -0.07836463 -2.854553    0.07533905 -1.7649072   0.5490366
  0.26006317 -0.69870275 -1.0566766  -3.9062843   0.8554897  -2.486385
 -2.9203055   0.4978527  -1.3876847   0.6975536   1.0039917  -2.8618643
  0.46020934 -0.8400209  -2.9755502  -1.3337482  -3.4384916  -3.0523746
 -1.0963099   0.34303525  0.8418334   0.30404538 -3.088891   -2.081145
  0.27522832 -3.3085065  -3.2328115  -3.0267887  -2.9758115  -3.0299451
  0.64831036  0.5371707  -0.69355035 -3.8793025  -2.56445    -3.3427622
 -2.9641027   1.1613513  -2.150834    0.7092402   0.11444013  0.62788886
 -1.1401854   1.0784525 ]
Output_layer/kernel:0
(80, 6)
[[-6.87960446e-01 -3.12928677e-01 -8.62771869e-01  1.05767874e-02
  -5.07346690e-01 -7.78515697e-01]
 [-1.19611537e+00 -4.62275833e-01 -1.18345320e+00 -1.82295755e-01
  -5.76028526e-01 -6.46579802e-01]
 [-1.35160804e+00 -5.61324060e-01 -7.33820379e-01  1.11509860e-02
  -6.72271669e-01 -9.24210966e-01]
 [-1.13429832e+00 -1.30924329e-01 -4.71666157e-01 -8.55881274e-02
  -3.79443228e-01 -8.56238723e-01]
 [-9.35760617e-01 -4.71741885e-01 -5.10600150e-01 -2.64769584e-01
  -6.75981760e-01 -1.03026986e+00]
 [ 6.02055669e-01  4.62275803e-01  1.26987040e+00  6.11139350e-02
   2.05300665e+00 -1.16071150e-01]
 [-1.16610563e+00 -5.75434923e-01 -1.11205935e+00 -3.46535325e-01
  -5.00042260e-01 -8.78944874e-01]
 [ 6.46535039e-01  4.46333587e-01  1.42281020e+00  1.19719669e-01
   1.64132488e+00  5.45346141e-01]
 [-9.91833091e-01 -4.66411084e-01 -5.41947126e-01 -3.91796976e-03
  -5.61034441e-01 -1.01285851e+00]
 [-1.40994096e+00 -2.07870379e-01 -1.26686585e+00 -3.02677989e-01
  -5.91242015e-01 -7.65136719e-01]
 [-1.59244621e+00 -4.10800099e-01 -1.19559491e+00 -1.38586536e-01
  -2.90866077e-01 -7.84413993e-01]
 [ 7.12083459e-01  4.48992670e-01  1.29686677e+00  9.42516997e-02
   1.81655431e+00 -3.40487212e-02]
 [ 2.21666321e-01  4.77617025e-01  1.00189614e+00 -1.93002392e-02
   1.29726017e+00  3.36669773e-01]
 [-1.31612849e+00 -2.93132603e-01 -9.86563325e-01  4.58875224e-02
  -1.03542330e-02 -6.00289702e-01]
 [-1.62527287e+00 -4.54199493e-01 -1.23423922e+00 -3.37708741e-01
  -2.62956798e-01 -7.82922089e-01]
 [ 8.03681016e-01  4.41027910e-01  1.29687655e+00  8.04779027e-03
   1.59786701e+00  1.81778356e-01]
 [ 9.66456950e-01  6.15530849e-01  1.29966688e+00 -4.02091071e-02
   1.48978901e+00  6.03783309e-01]
 [ 1.60035980e+00 -8.96302611e-02  5.58712363e-01 -4.39835116e-02
   1.29057717e+00  9.01443884e-03]
 [ 3.56233984e-01  2.80722082e-01  1.06165028e+00 -1.48635712e-02
   1.41811669e+00  5.27563751e-01]
 [ 7.87568092e-01  5.46099663e-01  1.14059281e+00  3.01378313e-02
   1.28693008e+00  3.90416235e-01]
 [-1.48521399e+00  8.73045087e-01  1.14946580e+00  5.90933442e-01
   1.02603757e+00  5.35871923e-01]
 [-1.12672269e+00  3.59816514e-02 -7.90668547e-01  2.84981206e-02
  -3.38370234e-01 -4.34905946e-01]
 [ 3.12243938e-01  4.68372166e-01  9.51750219e-01 -8.14053118e-02
   1.56610096e+00  4.04381394e-01]
 [ 3.18313420e-01 -7.61300847e-02 -9.79123235e-01  5.44202095e-03
   3.85945177e+00 -6.22508407e-01]
 [ 2.64730239e+00 -1.90116823e-01 -8.19541216e-02 -1.19449966e-01
  -4.16453171e+00  2.57589507e+00]
 [ 4.39141333e-01  7.02879488e-01  1.22248328e+00  1.99913934e-01
   1.39251256e+00  2.79371709e-01]
 [-1.59199059e+00 -5.77880919e-01 -1.11477399e+00 -1.25124529e-01
  -5.14395416e-01 -5.72735906e-01]
 [-1.09972703e+00 -3.27212214e-01 -3.26694459e-01 -3.68724540e-02
  -3.71849358e-01 -7.64341831e-01]
 [ 7.65796423e-01  4.78959084e-01  1.20111167e+00  7.39573687e-02
   2.07055306e+00 -6.24492951e-02]
 [-1.54054523e+00 -2.26059884e-01 -1.14852178e+00  5.48765585e-02
  -7.83900917e-01 -7.82916188e-01]
 [ 8.59569848e-01  3.99837673e-01  1.43776846e+00  1.80991620e-01
   1.75291693e+00  4.40787911e-01]
 [-2.07037592e+00  6.32925987e-01  4.84068483e-01  4.05129761e-01
   7.14560175e+00 -2.24020171e+00]
 [-1.64536166e+00 -4.41594005e-01 -1.07151008e+00 -2.96447605e-01
  -6.42565131e-01 -8.57217968e-01]
 [-7.99110055e-01  7.89820850e-01  1.09205294e+00  4.32437599e-01
   9.74112898e-02  1.23158443e+00]
 [-8.40396106e-01 -5.50771713e-01 -5.10708749e-01  6.84456527e-02
  -7.50262856e-01 -1.01498902e+00]
 [ 7.69124150e-01  4.52687919e-01  9.85232592e-01  1.45417094e-01
   1.68823063e+00  4.07206863e-01]
 [-7.48637021e-01  1.10944927e+00  1.83750188e+00  2.69989640e-01
   1.52421081e+00  6.90537393e-01]
 [ 3.46844697e+00 -2.42657825e-01  2.67591894e-01 -4.77383852e-01
   4.63373804e+00 -1.09361470e+00]
 [ 1.47486115e+00 -3.07482511e-01 -6.21585906e-01  6.87348656e-04
   2.45842981e+00 -5.53017616e-01]
 [-1.82961881e+00 -1.87568858e-01 -1.07745743e+00 -9.96513963e-02
  -7.63295412e-01 -1.03888631e+00]
 [ 9.80411172e-01  4.67169344e-01  1.00031078e+00 -1.17748298e-01
   1.26353180e+00  6.42719686e-01]
 [-1.41574752e+00 -3.27840239e-01 -1.09239924e+00  2.29794271e-02
  -3.33413064e-01 -8.19973469e-01]
 [-1.28093207e+00 -2.97172189e-01 -1.08254898e+00 -3.15402985e-01
  -3.66375297e-01 -1.02340281e+00]
 [ 5.38862824e-01  6.88747227e-01  1.16576600e+00  1.22388892e-01
   1.77474689e+00  1.44650713e-01]
 [-9.14811134e-01 -2.46457338e-01 -4.96134967e-01  8.09217244e-02
  -2.22466245e-01 -7.74420857e-01]
 [ 6.28060341e+00 -2.42246842e+00 -3.81597686e+00 -6.09707117e-01
  -5.59183645e+00  1.90541101e+00]
 [ 7.24390209e-01  3.57954025e-01  9.29525554e-01 -2.95383614e-02
   1.66240454e+00  1.65719151e-01]
 [-1.37003624e+00 -5.52959800e-01 -1.31406343e+00 -2.17419460e-01
  -7.62589335e-01 -9.80352342e-01]
 [ 6.34993255e-01  5.58880210e-01  9.31332588e-01  1.61666930e-01
   1.85991704e+00  1.89929053e-01]
 [ 2.47519970e+00 -3.63619924e-01  3.91170196e-02 -1.65805683e-01
   4.03866196e+00 -7.82141566e-01]
 [-1.42738748e+00 -2.93425262e-01 -1.38359857e+00 -2.71527797e-01
  -6.78159714e-01 -1.04642355e+00]
 [-9.74608302e-01 -3.87467444e-02 -6.32574141e-01  3.69298793e-02
  -2.90401757e-01 -5.63128114e-01]
 [-1.58586895e+00 -2.65436769e-01 -1.34048069e+00 -1.69030279e-01
  -5.54512322e-01 -6.32211268e-01]
 [-1.77821076e+00 -2.24779502e-01 -1.23856997e+00 -3.03290337e-01
  -4.30607826e-01 -8.67969573e-01]
 [ 2.00293565e+00 -3.89693797e-01 -9.02862847e-01  3.79617475e-02
   3.36508346e+00 -7.82122374e-01]
 [ 6.36436582e-01  2.74207413e-01  1.00495255e+00 -1.18418932e-01
   1.23782146e+00  5.02826273e-01]
 [ 8.73493135e-01  1.91090360e-01  7.92887747e-01 -5.77788288e-03
   1.31980801e+00  5.59478462e-01]
 [-3.17501202e-02  8.26772630e-01  1.42656279e+00  2.05803230e-01
   1.83497226e+00  1.03863046e-01]
 [-1.74519289e+00 -2.87635684e-01 -1.34882987e+00 -2.75439769e-01
  -6.41678274e-01 -8.37574184e-01]
 [-8.87426436e-01 -1.84969395e-01 -6.92467332e-01  2.69438094e-03
  -5.82314491e-01 -8.95098627e-01]
 [ 9.15524065e-01  4.37295258e-01  8.95018518e-01 -2.06971049e-01
   9.92566407e-01  5.36360025e-01]
 [-1.72684872e+00 -2.31052563e-01 -1.33707690e+00 -2.39190459e-01
  -2.88490832e-01 -1.09727645e+00]
 [-1.35534203e+00 -1.47491828e-01 -1.26134300e+00 -2.22547680e-01
  -3.14392477e-01 -9.69291389e-01]
 [-1.45584333e+00 -4.13596034e-01 -1.30397820e+00 -2.48795405e-01
  -4.66114998e-01 -1.06802320e+00]
 [-1.54811144e+00 -3.56726110e-01 -1.05136931e+00 -2.60438979e-01
  -7.63916135e-01 -1.04731321e+00]
 [-1.47989142e+00 -6.20907605e-01 -1.44337010e+00 -1.91555992e-01
  -5.45183003e-01 -9.42494869e-01]
 [ 3.67736042e-01  2.16967180e-01  1.31372523e+00 -5.51180169e-02
   1.61699188e+00  4.41798776e-01]
 [ 6.51047885e-01  1.92592189e-01  1.29574347e+00  1.06279291e-01
   1.82649720e+00  4.18628268e-02]
 [ 1.03393972e+00 -3.11227441e-01 -9.05646622e-01  5.64517044e-02
   2.65707278e+00 -9.73595619e-01]
 [-1.76405776e+00 -5.03473163e-01 -1.02275443e+00 -6.75480515e-02
  -5.50268888e-01 -9.94575441e-01]
 [-7.65951812e-01 -3.40292126e-01 -4.10648704e-01 -1.81462377e-01
  -4.12063837e-01 -7.50077188e-01]
 [-1.47737527e+00 -3.30810457e-01 -1.19411957e+00 -4.29215468e-02
  -6.83253109e-01 -9.20226872e-01]
 [-1.16449606e+00 -4.56134558e-01 -9.92269814e-01 -2.79803555e-02
  -3.30815166e-01 -1.01819313e+00]
 [ 8.85952950e-01  2.60048538e-01  1.29554689e+00 -6.45218492e-02
   1.33547318e+00  4.29950148e-01]
 [-4.94243979e-01 -4.54021960e-01 -2.00550735e-01 -4.90567088e-02
  -3.84966016e-01 -6.96841061e-01]
 [ 6.46740735e-01  6.05316937e-01  1.27171636e+00  8.94421153e-03
   1.55405664e+00  3.92313190e-02]
 [-9.33703899e-01  7.88225412e-01  1.20295644e+00  3.26294094e-01
   2.41498560e-01  1.30949783e+00]
 [ 6.69258296e-01  6.65419400e-01  8.81234109e-01  6.20771088e-02
   2.00392842e+00  2.47128189e-01]
 [-1.34964979e+00 -4.83293720e-02 -9.90561962e-01  1.16508067e-01
  -4.83351082e-01 -6.87649667e-01]
 [ 1.20613527e+00  1.54541895e-01  4.22124743e-01 -2.96612065e-02
   2.07183290e+00  1.71693057e-01]]
Output_layer/bias:0
(6,)
[1.5574615  0.41085306 1.1387286  0.14159307 0.44958812 0.84546006]
