Hidden_layer_0/kernel:0
(24, 80)
[[-3.71587694e-01  2.76765466e-01 -3.67399858e-04 ...  1.32366598e-01
  -1.21347584e-01  2.43845599e-04]
 [ 2.35662773e-01 -2.39448056e-01 -1.49436621e-03 ... -3.95711064e-01
  -3.02553293e-03 -3.80756275e-04]
 [-1.73609108e-01 -3.66939574e-01 -4.32241533e-04 ...  1.76424101e-01
   1.20303825e-01  2.49956222e-03]
 ...
 [ 1.92926869e-01  3.48853916e-02  1.02145656e-03 ... -5.03063083e-01
  -3.98965746e-01 -2.71664211e-03]
 [-3.14926282e-02 -1.85177550e-01 -3.80176655e-03 ... -2.99685240e-01
  -6.81648999e-02 -2.12800875e-03]
 [ 3.27242874e-02 -3.05040628e-01  5.44085214e-03 ... -2.05603525e-01
  -1.17663935e-01 -1.14047993e-02]]
Hidden_layer_0/bias:0
(80,)
[ 3.38547051e-01 -4.00987491e-02  1.00805843e-03  4.15788963e-04
  1.34085342e-01 -9.20273829e-04  3.00310203e-04  7.45949292e-05
  5.49413147e-04 -8.52195022e-04 -1.24135544e-03  6.72223396e-04
  1.29368216e-01 -5.11201918e-01 -2.38078166e-04  1.97206587e-01
 -3.04967254e-01  2.97841746e-02 -8.02083057e-04  1.16494754e-02
 -2.15033129e-01  1.05082807e-04 -7.85904471e-04 -6.58092201e-02
  8.38677865e-04 -5.51473422e-05 -1.33923706e-04 -7.49970600e-02
  2.32062861e-01 -1.92109421e-01  1.19227436e-04 -1.20281912e-01
 -7.47004747e-01 -1.11722876e-03  1.30911547e-04 -1.36684638e-03
 -7.64419907e-04 -1.42673714e-04  2.78825074e-01 -5.42048693e-01
  2.48182507e-04  1.56365277e-03 -5.63619426e-04 -2.69817114e-01
  5.05911303e-04 -3.24894905e-01 -1.61875287e-05  1.35474112e-02
  1.77959830e-01  9.82053112e-04 -4.68743470e-04 -4.32749897e-01
  3.23142916e-01  4.72764194e-04  8.43406960e-05  1.12627656e-03
  1.64901197e-01  1.81304608e-02  1.95957661e-01  2.29085088e-01
  2.33964063e-04 -7.69378094e-05  2.78320700e-01  8.45934823e-03
  2.49098695e-04  4.73140011e-04 -8.46412927e-02 -4.51048851e-01
  7.80328922e-03  8.78539940e-05  3.02030265e-01  2.79093772e-01
  2.31833398e-01  1.72097556e-04 -6.41227841e-01  3.96616399e-01
  1.36396952e-03 -2.89513320e-01 -4.98600811e-01  2.15647696e-03]
Hidden_layer_1/kernel:0
(80, 80)
[[ 1.4135119e-01  3.4332930e-03  5.8299392e-03 ...  1.9765298e-01
   2.6005062e-01  1.8761598e-01]
 [ 6.1523389e-02  2.4209947e-03  1.9380918e-03 ...  1.9727337e-01
   2.7077150e-01  2.3328564e-01]
 [ 4.8991514e-04 -4.7811648e-04 -1.0375778e-04 ...  1.8517446e-03
   4.2027133e-03  2.2648948e-03]
 ...
 [-8.4500320e-02 -1.0368940e-03  6.6952332e-04 ... -1.7874464e-01
   1.2088161e-01 -1.6078193e-01]
 [-4.8755705e-02  1.1662863e-03  3.3408664e-03 ... -1.2686630e-01
  -6.6568226e-02 -1.3258642e-01]
 [-7.4981456e-04 -1.9666326e-04 -2.3175924e-05 ...  4.6931268e-03
  -7.6620970e-03  5.7537970e-03]]
Hidden_layer_1/bias:0
(80,)
[ 5.4511392e-01 -3.6485360e-03 -5.0945920e-03  4.1982147e-01
  2.7175856e-01 -3.1277880e-03  4.7636682e-01  5.9564930e-01
 -9.7300642e-04  4.1459170e-01 -8.2544393e-05  5.4956299e-01
  4.2307514e-01  4.8503271e-01 -1.2700186e-03 -1.8898392e-04
 -3.1306136e-03  2.8661525e-01  7.3667115e-04  4.9773464e-01
 -9.3820848e-02 -6.6543551e-04  4.2409125e-01 -1.8548460e-03
 -1.3054435e-03  2.3872619e-03 -3.7363204e-03 -1.5791509e-03
  1.9200590e-03  4.3835512e-01  8.9483376e-04  1.1282864e-03
 -2.1781414e-04  4.0127385e-01  6.6909778e-01  9.4372913e-04
 -2.7395865e-01  4.1311592e-01 -1.2540946e-03  7.6378763e-02
  6.4492369e-01 -2.2905429e-03  3.8422576e-01 -4.4235452e-03
  2.1738512e-03 -4.1444190e-03  9.5127028e-04 -7.4522384e-04
  1.1835779e-04  1.6976926e-03  1.5720980e-03  5.9666830e-01
  5.0333840e-01  1.9134359e-03 -2.9176891e-01  1.6640431e-03
  5.7555693e-01  3.8256830e-01 -1.5387288e-03  1.7648730e-03
  4.6795490e-01  5.4530269e-01  3.3116668e-02  8.4014802e-04
 -5.2082195e-04  1.9559779e-03  4.8249790e-01  9.8922104e-04
  4.6101716e-01  1.1246412e-03  4.0394196e-01 -2.7066502e-01
 -3.5580480e-01  9.8763697e-04 -1.1604759e-03  5.0452715e-01
  2.8339231e-01  5.1715112e-01  5.5159796e-02  4.1875148e-01]
Hidden_layer_2/kernel:0
(80, 80)
[[-6.96416013e-04  6.13867678e-02  2.16629542e-02 ... -1.81574418e-04
  -2.82277906e-04  1.05088033e-01]
 [-3.37665551e-04  3.82746657e-05  6.53429830e-04 ...  3.37844140e-05
   2.47046191e-05  3.56572127e-06]
 [ 3.13605124e-04 -4.87360463e-04  2.79227843e-05 ... -5.55380393e-06
   7.42508855e-05  1.70091877e-03]
 ...
 [-1.19016762e-03  1.16332516e-01  1.27410501e-01 ...  3.69902293e-04
  -6.59407015e-05  1.91929583e-02]
 [-9.00417008e-03  9.40714478e-02  1.13619559e-01 ...  5.43448422e-03
  -2.27753073e-04  1.17429286e-01]
 [-2.22016429e-03  1.12929769e-01  1.65395260e-01 ...  1.48994173e-03
   3.28420356e-05 -3.96136083e-02]]
Hidden_layer_2/bias:0
(80,)
[-8.2746362e-03  6.1878085e-01  3.6507523e-01  8.2515711e-01
  7.1487075e-01 -8.9694629e-05  8.0233097e-01  2.0392168e-04
  1.2833899e-04  2.8920565e-02 -5.0941271e-01 -6.2304595e-03
  5.4896593e-01 -3.2904670e-01 -2.7820496e-03 -4.0887864e-03
 -2.2871366e-03  3.2665601e-01  2.3037661e-03  7.3514604e-03
  4.6686676e-01  3.9144138e-01  7.7099210e-01 -6.8303132e-03
  3.9639105e-03  4.1585998e-03 -3.4285260e-03 -7.6444000e-01
 -8.4560318e-03 -1.3259340e-03  6.7335469e-01  4.1044790e-01
 -6.5240830e-01  4.6869397e-01  9.4992828e-01  6.4344317e-01
 -5.2222167e-03 -7.0402296e-03 -2.0355307e-03  1.5733054e-02
 -6.8105965e-07  8.8112754e-01 -8.0927042e-03  6.4679806e-04
 -2.8719134e-03  8.1854182e-01  7.1444321e-01 -3.2990738e-03
 -7.6578567e-03 -9.6932715e-03 -5.0470373e-03 -1.1310437e-04
  5.7749420e-01 -9.6581475e-04 -4.9792742e-03 -1.4722236e-03
  2.6269913e-01  5.3540170e-01 -6.6749454e-01  3.8363850e-01
  5.0215983e-01 -9.3797827e-03  5.1783013e-01  6.7663640e-01
  1.1377307e-03  7.0759493e-01 -5.4488426e-01 -1.7727269e-03
 -4.7393927e-01 -7.4488320e-03  1.1183925e-03 -2.4992351e-03
 -6.2619951e-03  5.2974379e-01 -3.7180579e-03  8.0468989e-04
  7.7294242e-01 -7.4007032e-03  2.8349822e-03  4.0313897e-01]
Hidden_layer_3/kernel:0
(80, 80)
[[ 2.6607802e-05 -6.9755870e-03  7.1614338e-03 ...  1.3310593e-04
  -4.3765008e-03  4.1623582e-04]
 [-8.3821882e-03  8.8583134e-02  2.5594689e-02 ... -1.6824178e-02
   1.0046843e-01 -1.3144302e-02]
 [-8.9373710e-03  1.3319397e-01  1.7592309e-01 ... -1.4457873e-02
   2.0258516e-02 -1.5395004e-02]
 ...
 [-1.3592107e-04  9.2962175e-04 -5.8666510e-03 ... -1.4582663e-04
  -6.7522342e-04  6.4222026e-05]
 [ 1.5874076e-04  4.4154440e-04 -1.2533208e-03 ...  8.1125276e-05
  -7.5626135e-04  1.6146933e-04]
 [-3.2937676e-03 -4.2764479e-03 -3.1461534e-01 ... -1.0659794e-02
   1.7509772e-01 -1.8350447e-03]]
Hidden_layer_3/bias:0
(80,)
[-3.201563    0.12217311  0.1633594   0.89609665 -2.3027136  -3.8448768
 -3.8918345  -3.1015143   0.90781796 -3.583326   -2.6747825  -0.44366944
 -3.1533613   0.60246736 -2.9196572   1.0455165   0.5727725  -2.1173677
  1.0135254   0.50998044 -2.7832212   0.35068014 -3.6331506  -2.766915
 -3.0304418  -2.631903    0.5248585  -2.8783104  -1.6921057   0.91587013
 -3.0186431   1.2100515  -2.4928324  -3.5717475  -2.8091557   0.8469982
  1.2347201   0.7904056  -1.495007   -2.7407403   0.3334426  -2.6695912
 -4.039414   -2.3050017  -3.097744   -2.2717605   0.30148456  0.79479486
 -2.3393254  -3.1873262   0.16661403  0.28867963 -2.7077541   1.0890855
 -2.21124    -2.6421971   0.17755897  0.7991056   0.5932253  -3.234613
  1.0144618   0.9317572   0.89878434  0.89466035  0.42450333  0.18650678
 -2.7760813   0.44377202 -3.5867007  -2.6952076  -1.9619068  -3.5939
  0.528823    0.37995493 -2.0029366   0.05693541 -2.1733546  -1.872603
  0.00956759 -2.321887  ]
Output_layer/kernel:0
(80, 6)
[[-1.44555807e+00 -2.61525899e-01 -9.70843196e-01 -1.99414358e-01
   4.95638311e-01 -1.01461077e+00]
 [ 4.09054577e-01  3.18392456e-01  6.35949433e-01  3.70279662e-02
   2.46506238e+00 -1.55435532e-01]
 [-1.55776322e+00  1.25677598e+00  1.74897075e+00  3.28034103e-01
   7.93103337e-01  5.05491078e-01]
 [ 8.57776940e-01  4.25438404e-01  6.74096525e-01 -7.06714159e-03
   1.65938628e+00  3.18868428e-01]
 [-1.24119318e+00 -8.88884589e-02 -1.07427621e+00 -2.32982963e-01
   4.31677878e-01 -4.54356492e-01]
 [-1.41157854e+00 -5.19323885e-01 -1.01153302e+00 -1.89605765e-02
  -1.19877972e-01 -1.44696295e+00]
 [-1.49358070e+00 -3.44831556e-01 -9.86732662e-01 -1.22002270e-02
  -5.79458892e-01 -1.54119027e+00]
 [-1.36390424e+00 -4.30295467e-01 -1.06587720e+00 -4.88656871e-02
   4.25641626e-01 -5.92101991e-01]
 [ 8.52741003e-01  1.96758345e-01  1.22626054e+00  3.53056565e-02
   7.16077566e-01  6.55656457e-01]
 [-1.15453553e+00 -5.90976357e-01 -7.52338469e-01 -7.05792382e-02
  -5.31011522e-01 -1.23151886e+00]
 [-1.34788477e+00 -2.73024887e-01 -1.10237253e+00 -1.64559886e-01
   3.75928491e-01 -5.97153068e-01]
 [-1.47081816e+00  2.89542139e-01 -8.99579823e-02  2.42612958e-01
   7.72378874e+00 -2.84886074e+00]
 [-1.14832520e+00 -2.04099402e-01 -1.04575169e+00  4.49383184e-02
   3.19790334e-01 -1.04527068e+00]
 [-9.07363772e-01  6.35048211e-01  1.43244362e+00  8.85117278e-02
   1.84348083e+00  4.85878468e-01]
 [-1.28716755e+00 -2.28632078e-01 -1.05950761e+00 -1.81836441e-01
   3.93749297e-01 -7.65828192e-01]
 [ 6.23938024e-01  4.04246747e-01  1.16146994e+00 -2.32277978e-02
   1.46697879e+00  4.03936863e-01]
 [ 1.07674909e+00  9.22732949e-02  7.99535096e-01 -7.38039166e-02
   1.66275322e+00  1.89693093e-01]
 [-1.15625620e+00 -2.28596419e-01 -1.02285755e+00  9.39595699e-02
   4.75725323e-01 -8.14061344e-01]
 [ 7.18017519e-01  5.67942441e-01  9.84698594e-01  6.22518128e-03
  -1.03219128e+00  1.52400482e+00]
 [ 1.15837348e+00  4.42824483e-01  1.13986683e+00 -1.41001925e-01
   1.71380103e+00  1.28541142e-01]
 [-1.18978250e+00 -3.95811021e-01 -7.28850782e-01 -2.04348832e-01
   3.82385492e-01 -8.00899267e-01]
 [-5.47816694e-01  9.89498556e-01  1.46107805e+00  3.91819090e-01
   5.87133348e-01  1.02903402e+00]
 [-1.22826481e+00 -4.85610306e-01 -7.48694718e-01  1.45222573e-02
  -3.69318873e-01 -1.19545305e+00]
 [-1.01012695e+00 -5.68267763e-01 -9.81909573e-01 -3.09390813e-01
  -3.46251309e-01 -1.27405500e+00]
 [-9.61314678e-01 -6.52608573e-02 -7.68558741e-01 -1.34572268e-01
   5.19725144e-01 -6.32539868e-01]
 [-9.74618316e-01 -4.18247402e-01 -9.14749384e-01 -2.20115691e-01
   6.07508421e-01 -6.74717784e-01]
 [ 8.74193013e-01  2.77504653e-01  8.90738606e-01  1.16607651e-01
   1.49204195e+00  4.13435936e-01]
 [-1.22125411e+00 -3.99042740e-02 -8.02449703e-01 -2.76388109e-01
   3.26122999e-01 -9.13313091e-01]
 [-9.87322509e-01 -2.91889280e-01 -9.22965884e-01  1.40309334e-01
   4.21414703e-01 -7.74587750e-01]
 [ 9.47635412e-01  1.97467923e-01  1.20803070e+00  4.94040810e-02
   1.29030836e+00  5.67117274e-01]
 [-1.17790020e+00 -5.77784739e-02 -9.63061750e-01 -2.36746863e-01
   3.99693072e-01 -9.96528029e-01]
 [ 1.19249773e+00  2.98649907e-01  8.57100308e-01 -2.73256861e-02
   3.37116241e-01  6.95599079e-01]
 [-9.59289372e-01 -1.54770613e-01 -1.24293029e+00 -2.98433602e-01
  -1.63384721e-01 -9.13628578e-01]
 [-1.15958405e+00 -3.68182361e-01 -9.63560164e-01 -6.23477697e-02
   5.69990456e-01 -6.78085327e-01]
 [-1.24218190e+00 -2.05503047e-01 -6.30890131e-01 -2.17848092e-01
   5.03820539e-01 -7.28557169e-01]
 [ 4.92354035e-01  4.50471222e-01  1.14186013e+00  3.46444994e-02
   1.06616795e+00  6.26256824e-01]
 [ 1.13833046e+00  1.62004456e-01  1.03203297e+00 -5.12342192e-02
   1.07057869e+00  5.13680160e-01]
 [ 1.15527801e-01  4.45998490e-01  1.34655905e+00  3.71580757e-02
  -5.27490973e-02  9.83660996e-01]
 [-1.00308490e+00 -4.20784503e-01 -1.01691711e+00  1.95948884e-01
  -5.10177553e-01 -9.13350582e-01]
 [-1.28399706e+00 -3.30654800e-01 -8.77569020e-01 -1.61020145e-01
   4.39837337e-01 -6.13348663e-01]
 [ 7.41841614e-01  4.30920482e-01  1.17736244e+00  7.73058236e-02
   1.99590158e+00 -1.01531282e-01]
 [-1.16093290e+00 -1.49020562e-02 -7.83667028e-01  1.16752505e-01
  -1.31562978e-01 -1.35833287e+00]
 [-1.34086013e+00 -1.73421577e-01 -1.13237751e+00 -6.58531338e-02
  -3.75619531e-01 -1.37940025e+00]
 [-1.12535655e+00 -2.78111130e-01 -8.50245297e-01 -1.71651542e-01
   5.64121246e-01 -4.12014931e-01]
 [-1.06254911e+00 -1.87924117e-01 -8.21901500e-01 -2.88294196e-01
  -4.73663509e-01 -1.52998435e+00]
 [-1.10140169e+00 -6.33130148e-02 -9.72647488e-01 -1.48520619e-01
   1.50199294e-01 -4.63860393e-01]
 [ 5.12511194e-01  4.61534679e-01  1.18805218e+00  1.31339476e-01
   2.08595562e+00 -1.43743632e-02]
 [ 5.32606721e-01  5.00884712e-01  1.09142625e+00  2.51204632e-02
   1.77074540e+00  4.22521830e-01]
 [-1.28855801e+00 -3.59369457e-01 -7.80961633e-01 -2.26788893e-01
   3.57103974e-01 -4.99607354e-01]
 [-9.97224033e-01 -2.94750214e-01 -8.79643977e-01 -6.38532788e-02
   6.25774041e-02 -7.05334127e-01]
 [-2.49367967e-01  6.70645833e-01  1.05960345e+00  2.12951750e-01
   2.15201569e+00 -3.07229329e-02]
 [ 4.03850108e-01  5.33979952e-01  9.81180191e-01  5.20557202e-02
   2.00038958e+00 -1.22100515e-02]
 [-1.09484875e+00 -4.21229988e-01 -1.07533824e+00 -5.29921129e-02
   6.24074750e-02 -6.08486712e-01]
 [ 6.77193165e-01  6.17263615e-01  9.62999880e-01 -3.08019072e-02
   6.93141282e-01  6.80693030e-01]
 [-1.45476258e+00 -5.16294122e-01 -1.10171628e+00 -2.43073046e-01
   1.30562559e-01 -5.18335938e-01]
 [-1.23168349e+00 -2.72768199e-01 -7.27778614e-01 -2.53089130e-01
   5.42373955e-01 -6.89419568e-01]
 [-9.54133928e-01  8.48606229e-01  1.00832188e+00  6.97475195e-01
   7.22932577e-01  8.56676996e-01]
 [-4.29459661e-01  7.13974893e-01  1.37909365e+00  5.63456342e-02
   8.33153784e-01  7.08624482e-01]
 [ 9.64840055e-01  3.23660821e-01  7.39051461e-01  9.21320319e-02
   1.41652477e+00  4.54215914e-01]
 [-1.34726059e+00 -2.24203974e-01 -6.18636429e-01 -1.81149393e-01
   5.24570525e-01 -8.93875122e-01]
 [ 9.15811896e-01  5.79175830e-01  1.20215702e+00 -2.29168944e-02
   1.47104716e+00  4.28977996e-01]
 [ 8.81678283e-01  2.14148089e-01  1.13684130e+00  3.05725764e-02
   1.15057242e+00  4.96591836e-01]
 [ 6.15464735e+00 -2.60729432e+00 -4.98341465e+00 -5.79457760e-01
  -5.87013531e+00  1.75647330e+00]
 [ 8.53769243e-01  1.60992250e-01  9.29469824e-01 -1.94510538e-02
   1.84340334e+00  7.72190616e-02]
 [ 8.76500249e-01  2.65176505e-01  1.11612225e+00  1.17086291e-01
   1.71845782e+00  1.27210915e-01]
 [ 2.76753873e-01  4.08334374e-01  1.07842600e+00  5.11866547e-02
   1.94470441e+00 -9.05616283e-02]
 [-1.09378409e+00 -3.45926136e-02 -7.31900454e-01  9.32777822e-02
  -4.93291587e-01 -1.35955596e+00]
 [ 5.22303283e-01  5.89121401e-01  1.03320658e+00  1.63238660e-01
   1.79744041e+00  3.79122287e-01]
 [-1.13094580e+00 -6.18051410e-01 -9.58142579e-01 -7.73480758e-02
  -4.71292496e-01 -1.34098113e+00]
 [-1.24951673e+00 -3.43075842e-01 -9.01558459e-01 -2.85096020e-01
  -4.29667890e-01 -1.08831525e+00]
 [-9.27576900e-01 -4.15523320e-01 -7.96835303e-01  1.81291983e-01
  -9.44080576e-02 -1.07253885e+00]
 [-1.44322515e+00 -6.45461440e-01 -1.11874807e+00 -4.57943566e-02
  -4.90478069e-01 -1.31307292e+00]
 [ 8.76162946e-01  5.88546574e-01  9.75653470e-01  1.98669583e-02
   1.68649578e+00  2.25151144e-02]
 [ 6.17471874e-01  5.44290185e-01  9.28550780e-01  1.67713799e-02
   1.73894691e+00 -3.24518494e-02]
 [-9.76632535e-01 -2.34269604e-01 -9.64314580e-01  6.07608631e-02
   3.11006010e-01 -6.86302900e-01]
 [ 5.54082543e-02  5.22340417e-01  1.21549475e+00  8.24647099e-02
   2.05074453e+00 -2.08714411e-01]
 [-1.03387547e+00 -9.85598937e-03 -9.70760286e-01 -1.80117130e-01
   1.75171886e-02 -5.12050629e-01]
 [-1.20295250e+00 -1.73406959e-01 -6.16696417e-01  2.26852447e-01
  -3.41562748e-01 -1.29506385e+00]
 [ 1.43916667e+00  1.80745468e-01  4.63596165e-01 -2.31882229e-01
   1.52932882e+00 -9.42335799e-02]
 [-9.81720984e-01 -5.17284453e-01 -1.08024240e+00 -2.65622884e-01
   1.26946732e-01 -7.04024315e-01]]
Output_layer/bias:0
(6,)
[1.1965053  0.38280722 0.9850674  0.08608817 0.29353496 1.3227396 ]
