Hidden_layer_0/kernel:0
(24, 80)
[[-0.00107755  0.10476583 -0.08050323 ...  0.30846712 -0.01035448
   0.07742149]
 [-0.00274044 -0.1916156  -0.10017689 ... -0.31393984 -0.1215246
   0.13131736]
 [ 0.00396284  0.1283839   0.24940288 ...  0.02942444  0.19558892
   0.07301853]
 ...
 [ 0.00876381  0.22159246  0.10639134 ...  0.07503041  0.13688484
  -0.01866164]
 [-0.01088492 -0.04877622 -0.11379991 ... -0.07368962 -0.11780217
   0.0058933 ]
 [-0.00761716  0.12360549 -0.02929861 ...  0.02940666 -0.02432241
   0.04831763]]
Hidden_layer_0/bias:0
(80,)
[ 3.6865647e-03 -1.5583192e-01  2.9662958e-01  2.8663653e-01
  3.9950910e-04 -4.1238207e-01  4.3439746e-01  3.5894606e-01
  3.7864521e-01  2.2351867e-01 -1.9474149e-01  2.3279841e-01
  4.5952648e-01  2.3929152e-01  2.1529528e-01  2.3401508e-01
  3.9766294e-01  3.2715786e-01 -4.4943479e-01  9.8348781e-02
  2.6464367e-01  2.0718816e-01  4.3303043e-02  1.8520041e-01
  3.1965098e-01  3.0843258e-01  3.2000047e-01  1.3981266e-01
  1.6725890e-01 -3.4613082e-01  2.6865098e-01  3.4947345e-01
  3.5128608e-01  6.4806357e-02 -7.7946164e-04  1.1398502e-01
  1.9819008e-01  1.6145778e-01  2.4536993e-01  3.9859304e-01
 -1.1585427e-01 -5.1540565e-01  3.3609873e-01  2.6105851e-01
 -2.5685045e-01  7.6596614e-04  1.3881940e-01  2.4626206e-01
 -6.1854202e-04  2.9205677e-01 -3.6648557e-01  1.0808506e-01
 -3.0997476e-01 -1.8896686e-01 -4.2363510e-01 -3.9476585e-01
  2.0563400e-01  1.6308433e-01  2.5078392e-01  1.4899874e-01
  3.7028912e-01 -3.7657946e-01  2.3089868e-01  2.4909692e-01
  3.0256972e-01  2.0429184e-01 -6.5888390e-02  2.9038668e-01
  3.6824241e-01  2.8122732e-01  1.9248313e-01  2.5720455e-02
 -1.8433949e-01  3.3703789e-01  1.9354124e-01 -3.8035911e-01
 -2.8150177e-01 -3.0572437e-02  3.1829038e-01  1.7181024e-01]
Hidden_layer_1/kernel:0
(80, 80)
[[-2.5658117e-04 -3.2891749e-04 -6.0758906e-05 ...  3.1123491e-04
  -4.9601222e-04 -7.0305768e-04]
 [ 2.5595605e-01  5.5242549e-03  9.8432461e-04 ... -5.5330666e-03
   6.3188612e-03 -1.8686183e-02]
 [-1.9827539e-02  2.0480661e-03 -2.5472431e-03 ...  2.4345927e-03
   1.5516485e-03 -1.2104356e-02]
 ...
 [ 2.7830517e-01  2.9480371e-03  4.2988174e-03 ... -7.4135540e-03
   2.2914042e-03  8.3228126e-03]
 [ 3.4879707e-02  1.4326403e-04 -4.1283867e-03 ...  7.0294640e-03
  -2.6528825e-04 -1.3967463e-02]
 [-3.9465302e-03  6.9004466e-04 -1.3280520e-03 ... -3.7718818e-03
  -8.6666225e-04  1.9772129e-02]]
Hidden_layer_1/bias:0
(80,)
[ 0.01559915 -0.01258463  0.07504141  0.30709028  0.43683195  0.39883563
 -0.5467184  -0.58111495  0.3830639  -0.00228522  0.5612544  -0.45608237
  0.38148624  0.01156194  0.13205247  0.40034118  0.47896898 -0.00204677
  0.00425947  0.41500577  0.00401096  0.22191478 -0.00656559 -0.00217869
  0.3346838   0.40159172  0.45611843 -0.20730983  0.3600511  -0.01021374
 -0.00727002  0.43254006  0.24880251 -0.42622697  0.38520652 -0.41791588
  0.19764365  0.4010627  -0.00611245  0.2574438   0.3400829   0.4047748
  0.00447189  0.37434143 -0.01344897 -0.00973275  0.35958976  0.439386
  0.37365317  0.00520315 -0.01320828  0.36150894  0.00722861  0.27891308
  0.00248392 -0.00340611  0.33285996  0.34146598 -0.00841559 -0.15780021
  0.08568683 -0.00313974  0.39381889 -0.00762242  0.3451549   0.5281258
 -0.48146716 -0.00424255 -0.5487045   0.22768915 -0.50415885  0.22675472
  0.32187167  0.35018897 -0.00662552  0.4994008   0.00644805  0.0065903
 -0.00817247 -0.48723814]
Hidden_layer_2/kernel:0
(80, 80)
[[-5.2890554e-03  1.2484670e-02 -5.7327662e-02 ...  1.3449349e-01
   2.1011217e-02 -4.7454555e-03]
 [ 1.5320201e-04 -1.9010851e-03 -3.1886046e-04 ... -4.7525929e-04
  -2.0441657e-03  1.9358593e-04]
 [ 4.9092731e-04 -1.9621598e-03 -2.2082173e-03 ... -1.5560696e-03
  -3.0764416e-04  7.8119081e-04]
 ...
 [ 2.3908946e-03 -5.5694411e-04  3.0865881e-04 ... -6.6105829e-04
   1.1012210e-03  1.9519373e-03]
 [ 4.8204849e-05 -1.8136220e-03 -5.5221620e-04 ... -6.7391963e-04
  -8.0943893e-04 -7.7896111e-04]
 [ 5.9739212e-03 -4.5842674e-02 -9.1697555e-03 ... -2.4664594e-02
   5.6747359e-04  5.5244421e-03]]
Hidden_layer_2/bias:0
(80,)
[-0.00948139  0.49695432  0.30330464  0.42860577  0.3943088  -0.0282281
 -0.03237466  0.17154326  0.26722693  0.5449604   0.5326581   0.40763164
  0.4266833   0.35756937  0.06237217 -0.03225247 -0.03104026  0.52660066
  0.36798626 -0.01302551 -0.03287666  0.42337787 -0.03319325  0.29212156
  0.5157681   0.14240414 -0.00965259  0.0738416   0.13459437 -0.06410976
  0.37150842  0.29410532  0.5008703   0.02179117  0.4684863  -0.00781312
  0.4525226   0.16486202  0.01207495  0.38826016  0.41380706  0.078991
  0.02194393  0.17455463  0.5360433  -0.03371161 -0.03201131  0.5274618
 -0.02013332  0.18579607 -0.0345695   0.29054895  0.52774805 -0.0321891
  0.40899518  0.52517736  0.3731569   0.69175184 -0.03230675  0.41204965
  0.37217134  0.31894642  0.38460708  0.58781374  0.57643455  0.5775192
  0.3402475   0.45423064  0.46548837 -0.01923715  0.56867754  0.05142548
  0.28192276 -0.01138575 -0.03758642  0.48852968 -0.00937463  0.63109094
  0.09730162 -0.03267218]
Hidden_layer_3/kernel:0
(80, 80)
[[ 0.00167226  0.00022197  0.001507   ...  0.00061116  0.00167236
   0.00162572]
 [-0.01496104  0.18043031  0.13188297 ...  0.11375021  0.19307685
  -0.01853346]
 [-0.0030048   0.03597181  0.03238598 ...  0.02196936  0.06758972
  -0.00391438]
 ...
 [-0.01450749  0.16941309  0.13990311 ...  0.10592122  0.15061074
  -0.01783089]
 [-0.00098123  0.01201393  0.01081635 ...  0.00607874  0.01991819
  -0.00157316]
 [ 0.00116748  0.00028168  0.00113056 ...  0.00063144  0.0015064
   0.00049162]]
Hidden_layer_3/bias:0
(80,)
[-2.5768025   0.8333518   0.91710263  0.35223994  0.8601772   0.4025048
 -1.0765864  -2.2107794  -2.3534014   0.33865923  0.81741583  0.3647199
 -1.1152304  -2.4742353   0.639459   -0.06103452 -1.9152037   0.0096656
  0.42323068 -0.51233554 -2.5037327   0.60082424 -2.411588   -1.1261996
  0.53975534  0.4734536   0.77934885 -0.49711967 -0.22852595 -0.09868863
  0.9717628   0.43074095  0.2747103  -1.6135937  -2.57009    -2.055419
  0.26075482  0.834617    0.05176456 -1.3184731  -2.8839374  -0.9808585
  0.3994415  -2.0155919  -2.1977787   0.34532347  0.01344363  0.15416248
  0.40895763 -0.07670543 -0.03900947  0.24710855 -0.41272804 -2.3970914
 -1.4289637  -1.2762777   0.3529512  -2.0721679  -0.12881139 -2.1130598
 -1.8905075   0.5042776   0.6224051  -0.04471126  0.28489038 -1.9934527
 -0.01524537 -2.1168888   0.13043025 -2.128195    0.18413426  0.09790914
  0.02527249  0.55217236  0.3212263  -1.8306592   0.44591257  0.72196287
  0.5557762  -2.175173  ]
output_layer/kernel:0
(80, 6)
[[-1.00501847e+00 -1.14415117e-01  1.08916340e-02 -3.12885866e-02
   1.11548990e-01 -8.48824978e-01]
 [ 5.61894000e-01  4.56272542e-01  8.79142284e-01 -5.33433221e-02
   1.03906929e+00  4.82268661e-01]
 [ 6.77971005e-01  1.40322596e-01  1.09544456e+00 -3.32280695e-02
   6.71912849e-01  3.51624459e-01]
 [ 6.35195911e-01  2.19599307e-01  8.54019284e-01  2.07420483e-01
   5.02292752e-01  5.66014230e-01]
 [ 8.83567035e-01  2.62396753e-01  6.16629183e-01 -7.70580862e-03
   9.62448776e-01  2.03307658e-01]
 [ 4.83995855e-01  3.42650414e-01  7.82348692e-01 -6.43879757e-04
   1.47783208e+00 -8.29434209e-03]
 [-9.37054694e-01  2.37565830e-01 -1.14893034e-01  1.20693214e-01
  -1.97880771e-02 -8.66303921e-01]
 [-1.23466623e+00 -2.01381922e-01 -6.85895562e-01 -2.53963679e-01
  -1.31921962e-01 -9.25546587e-01]
 [-1.17884278e+00 -2.05860749e-01 -4.82201129e-01 -1.65727913e-01
  -5.81703335e-03 -6.63081467e-01]
 [ 5.51843904e-02  2.05575526e-01  9.33495045e-01  1.03946857e-01
   1.16494167e+00  3.85467559e-01]
 [ 5.75092733e-01  2.44992331e-01  6.35629416e-01 -2.86747571e-02
   1.12617254e+00  1.90924406e-01]
 [ 5.16683161e-01  3.06520194e-01  1.07208061e+00  1.44043192e-01
   1.31583786e+00  9.80357751e-02]
 [-1.12822342e+00 -4.45064753e-01 -5.77534497e-01  8.67112726e-02
  -3.46817583e-01 -5.48444748e-01]
 [-1.44639039e+00 -1.62192881e-01 -8.92436028e-01 -1.04322046e-01
  -4.44883227e-01 -7.16475487e-01]
 [ 9.90173817e-01  1.04880027e-01  3.83589238e-01 -1.15940729e-02
   1.00340855e+00 -1.41840518e-01]
 [ 4.88366425e-01  2.58217394e-01  5.03179789e-01 -3.62157911e-01
   2.07070291e-01  2.48873830e-01]
 [-1.38980961e+00 -1.35387927e-01 -8.23850393e-01 -3.40242267e-01
  -5.31028092e-01 -8.04862499e-01]
 [ 4.41995144e-01 -1.95648506e-01  3.23987186e-01 -7.72656733e-03
   1.28549314e+00 -1.10075988e-01]
 [ 1.10561289e-01  5.82516015e-01  1.01500702e+00  4.12183702e-02
   5.23884714e-01  5.27505875e-01]
 [ 2.65910697e+00 -5.79609215e-01 -1.31219840e+00 -1.17991641e-02
   2.41114426e+00 -5.59092760e-01]
 [-1.31186938e+00 -2.70020336e-01 -6.89937234e-01 -1.52994454e-01
  -3.53582084e-01 -1.15181696e+00]
 [ 4.16606694e-01  4.67138678e-01  9.88814592e-01 -2.64800731e-02
   1.04295480e+00  1.84084713e-01]
 [-1.54939103e+00 -9.25700180e-03 -6.36124611e-01 -2.21868291e-01
  -2.81484723e-01 -1.01730704e+00]
 [-9.73925889e-01  1.86519369e-01 -4.92405504e-01  1.01954445e-01
  -4.97014401e-03 -6.97672665e-01]
 [ 5.71686089e-01  1.15332261e-01  9.96190727e-01  7.49204531e-02
   1.40659964e+00  2.88805485e-01]
 [ 2.32278660e-01  1.63684577e-01  6.93051159e-01  6.05631359e-02
   1.08186495e+00  4.54735160e-01]
 [ 5.36578119e-01  3.17169577e-01  6.43829942e-01 -5.69048617e-03
   1.19677079e+00  5.08911371e-01]
 [ 2.27545667e+00 -6.23443723e-01 -5.42229056e-01 -2.06587940e-01
   2.37736893e+00 -7.25809634e-01]
 [ 8.64551842e-01 -1.50942832e-01 -3.88577193e-01 -1.71126261e-01
   2.66613984e+00 -6.13858163e-01]
 [-3.50767821e-01  4.21489030e-01  9.50151622e-01  1.20785192e-01
   1.80121195e+00 -2.80459106e-01]
 [ 1.25615835e+00 -4.73747194e-01  1.01449214e-01 -1.62662104e-01
  -4.37393159e-01  6.68334544e-01]
 [ 1.02739036e+00 -7.35497996e-02  4.33192760e-01 -1.26931012e-01
   8.85531828e-02  6.12474084e-01]
 [ 5.82171202e-01  4.33057211e-02  5.05295277e-01 -5.65835275e-02
   1.04466462e+00  1.17681764e-01]
 [-1.04938030e+00 -1.07770720e-02 -2.00877041e-01  2.15826277e-02
   1.92657501e-01 -4.85009521e-01]
 [-1.49921679e+00 -3.85153621e-01 -8.74288619e-01 -6.62766472e-02
  -2.59312779e-01 -5.93527853e-01]
 [-1.46971810e+00 -3.07842046e-01 -5.09404182e-01 -2.35430911e-01
  -3.53920251e-01 -6.78300023e-01]
 [ 5.73425472e-01  4.76379037e-01  6.40219152e-01  7.56852776e-02
   1.14360106e+00 -1.36303917e-01]
 [ 4.41393328e+00 -1.49371183e+00 -2.62047553e+00 -1.52539849e-01
  -3.21342826e+00  1.64514136e+00]
 [ 5.10216236e-01  2.02651098e-01  2.62865305e-01 -4.81711626e-02
   1.52068460e+00 -9.13061276e-02]
 [-1.12831569e+00 -4.57938880e-01 -5.67861319e-01  4.96924371e-02
  -1.89871982e-01 -4.99651253e-01]
 [-1.48007023e+00  2.77967807e-02 -8.48072052e-01 -1.05179414e-01
  -3.76149893e-01 -1.08585024e+00]
 [-9.68282104e-01 -1.62658006e-01 -4.60579693e-01  1.70144305e-01
  -3.42902511e-01 -8.44938755e-01]
 [ 1.73107296e-01  2.83457696e-01  7.58764267e-01  1.14651471e-01
   1.13191676e+00  5.19549310e-01]
 [-1.15461016e+00 -2.41264567e-01 -8.08557987e-01 -3.18016917e-01
  -5.77834308e-01 -1.18618071e+00]
 [-1.24000001e+00 -3.55999649e-01 -6.08846426e-01 -2.51988769e-01
  -2.15462804e-01 -1.16259146e+00]
 [ 3.75318646e-01  5.67710221e-01  7.34193921e-01  5.81394210e-02
   6.30153179e-01  3.51087779e-01]
 [-3.02257478e-01  5.18191814e-01  9.45444822e-01  1.05167143e-01
   2.28506327e+00 -6.33129358e-01]
 [-3.14886868e-01  4.87596959e-01  5.61990798e-01  1.00031823e-01
  -1.93960083e+00  1.06549096e+00]
 [ 4.41290498e-01  5.33987343e-01  1.02808452e+00  3.92651893e-02
   1.19201875e+00  7.21202716e-02]
 [-2.29728460e-01  3.43772888e-01  5.19943237e-01  2.18970060e-01
   2.14892125e+00 -8.16269279e-01]
 [ 7.99614668e-01  2.14036316e-01  5.08294821e-01 -1.72363997e-01
   7.68306911e-01  1.32225052e-01]
 [ 1.54292062e-01  6.59825861e-01  9.32559311e-01  1.60345420e-01
   1.08764338e+00  1.91458076e-01]
 [ 2.13895965e+00 -2.23345697e-01  3.60596590e-02 -3.17818075e-01
   1.41406584e+00  8.00042897e-02]
 [-1.37718594e+00  4.19850200e-02 -7.96296954e-01 -2.13711247e-01
  -1.95663616e-01 -1.01857412e+00]
 [-8.46773744e-01 -6.75604641e-02 -2.53689200e-01  3.38233858e-02
  -1.12502292e-01 -5.49256563e-01]
 [-8.35431397e-01 -3.13077629e-01 -6.14075959e-01  5.22234999e-02
  -5.58554173e-01 -6.04106605e-01]
 [ 2.75232583e-01  4.15419906e-01  9.19861495e-01  1.38936698e-01
   1.40369856e+00 -1.79907819e-03]
 [-1.19059026e+00 -6.79254085e-02 -4.79202360e-01 -2.18410775e-01
   1.62829518e-01 -3.73623967e-01]
 [ 1.11024415e+00 -5.92174521e-03  9.56206471e-02 -2.27404341e-01
  -4.22684878e-01  8.73135388e-01]
 [-1.31228828e+00 -5.09602856e-03 -5.15500605e-01 -2.80316204e-01
  -4.03236985e-01 -9.75311935e-01]
 [-1.48264396e+00 -3.42811823e-01 -8.90883207e-01 -3.09706479e-01
  -3.06728125e-01 -7.21134245e-01]
 [ 7.24135697e-01  2.48418838e-01  8.26235831e-01  1.03838421e-01
   9.73128080e-01  4.88693595e-01]
 [ 7.72759259e-01  5.04625797e-01  9.94114339e-01  3.33005935e-02
   1.05134702e+00  2.17164516e-01]
 [-8.77661347e-01  5.99978626e-01  1.15405297e+00  1.89801335e-01
   2.59748268e+00 -3.75074804e-01]
 [-7.57827163e-02  4.27797645e-01  1.22616351e+00  1.11650251e-01
   1.46286476e+00  3.63835722e-01]
 [-1.24479270e+00 -1.61979482e-01 -7.71430194e-01 -3.41028124e-01
  -5.20195901e-01 -1.11220503e+00]
 [ 8.37920249e-01  3.37830573e-01  5.87790251e-01 -9.75180119e-02
   1.30056608e+00  1.27637163e-02]
 [-1.13292634e+00 -2.65047491e-01 -6.92206562e-01 -1.89265266e-01
  -2.58108228e-01 -8.00134659e-01]
 [ 9.61516947e-02  6.70339346e-01  7.38367021e-01  1.35477707e-01
   9.93908644e-01  1.25288934e-01]
 [-1.11231852e+00 -1.56339049e-01 -6.33604705e-01 -3.26078326e-01
  -1.20482214e-01 -1.08393931e+00]
 [ 5.81554532e-01  2.61801332e-01  8.19741309e-01 -2.04794362e-01
   4.07508940e-01  5.58737516e-01]
 [-3.60518843e-01  4.92465794e-01  5.60472012e-01  4.46831554e-01
   4.96504784e-01  1.15454888e+00]
 [ 5.68061359e-02  5.88688672e-01  8.49789917e-01  2.93624047e-02
   1.75718760e+00 -1.80621594e-01]
 [ 3.65218729e-01  3.43562126e-01  9.06969249e-01 -4.37399419e-03
   9.52891409e-01  1.54397845e-01]
 [ 7.91324735e-01  1.31837443e-01  4.50544715e-01  1.03824232e-02
   7.90006340e-01  1.20707683e-01]
 [-1.23910403e+00 -3.45384032e-01 -4.30899113e-01 -3.62087309e-01
  -2.25645363e-01 -7.07732677e-01]
 [ 5.35642385e-01  3.10674459e-01  1.05760992e+00  1.38167605e-01
   1.39717329e+00  4.03049499e-01]
 [ 3.96837384e-01  2.16903016e-01  9.83032048e-01 -9.75467544e-03
   6.38697624e-01  3.31710756e-01]
 [ 7.08896756e-01  4.67365175e-01  6.67575717e-01  6.87798336e-02
   1.13579595e+00  3.13495278e-01]
 [-1.24394119e+00 -2.62216479e-01 -7.12843418e-01 -7.36803701e-03
  -5.92408657e-01 -7.48950303e-01]]
output_layer/bias:0
(6,)
[1.2555195  0.14176571 0.6207714  0.13651925 0.28099403 0.9268842 ]
