Hidden_layer_0/kernel:0
(24, 80)
[[ 3.0390456e-04  4.7643486e-04 -9.2767936e-05 ...  2.6918316e-04
   1.0576407e-01 -1.2044299e-01]
 [-3.4941500e-04 -4.5308334e-05 -1.6887940e-03 ... -5.4430442e-05
   3.0205572e-01 -7.2292462e-02]
 [-1.9590498e-03 -1.6657565e-03  1.6529229e-05 ...  2.4348558e-03
  -5.6340075e-01  3.9780760e-01]
 ...
 [ 1.5886700e-02  5.7713967e-03 -4.4724010e-03 ... -8.2147215e-03
   2.1192786e-01 -2.6554728e-01]
 [-8.0489460e-03 -8.6101219e-03  1.2519988e-03 ... -2.4164172e-03
   7.0644394e-02 -8.6947873e-02]
 [-1.3690368e-02 -5.8224495e-03  3.0036431e-03 ...  1.8691228e-03
  -5.8138911e-02 -5.3163259e-03]]
Hidden_layer_0/bias:0
(80,)
[-1.7361077e-03 -7.4932724e-04  3.8547459e-04 -4.7997066e-01
  6.1049254e-04 -3.4900698e-01  1.5270101e-03 -4.0828282e-01
 -1.5869910e-01  6.8541995e-06 -1.3173238e-03  2.1426862e-01
 -1.2514719e-03  2.3616532e-02 -6.4597203e-04 -8.2331873e-04
  8.8083465e-04 -4.3095800e-04  5.4685015e-04  2.6070121e-01
 -4.9787667e-01 -8.7280571e-04 -1.5461643e-03  4.5155420e-04
 -4.4276702e-01  1.1925864e-01  2.4771383e-01  6.6662283e-04
  1.9972108e-01 -3.9941056e-05  2.7944931e-01 -5.0606227e-01
  1.6900561e-03  1.4846290e-03 -9.1046456e-04  2.7492514e-01
  2.4994813e-01  2.2422081e-02  3.8877915e-04  9.2204724e-04
  2.7186000e-01 -4.1405098e-03 -1.0837177e-04 -1.3093426e-04
  5.2924559e-04  1.4877801e-01  2.5642568e-02 -6.4419559e-04
 -1.0314378e-03 -9.3447696e-04 -9.5220748e-04  1.1844868e-03
  2.5512040e-01  1.2566082e-04 -1.1806182e-01 -5.9622957e-04
  1.2882560e-03  6.5718457e-04  3.4107462e-02  2.1295938e-01
  3.5278953e-04  3.2768757e-04  1.6017348e-01  1.5135959e-01
 -1.7345713e-02 -1.6393290e-03  1.6670752e-01 -2.4101017e-01
 -5.1038852e-03  4.2557660e-02  2.3506518e-01  5.6161336e-04
  1.4332713e-01 -2.0697886e-01  3.0125332e-01  1.3392826e-02
 -8.0151290e-01 -5.3943071e-04 -3.3073497e-01 -4.2565650e-01]
Hidden_layer_1/kernel:0
(80, 80)
[[-4.90862294e-05  6.06698683e-04  7.78178277e-04 ... -9.61225131e-04
  -9.67935426e-04  3.26394889e-04]
 [-5.15775813e-04  1.25389930e-03  2.83672195e-03 ... -3.26058967e-03
   2.58989329e-03 -2.29893893e-04]
 [ 5.37210726e-04 -4.77674621e-04 -1.57234934e-03 ...  1.34434376e-03
   6.86656684e-04 -5.67919924e-04]
 ...
 [-1.32187328e-04 -5.05306001e-04 -2.49935023e-04 ...  7.85825076e-04
   2.94326898e-03 -6.93831011e-04]
 [-1.05486531e-03 -9.29207914e-03 -1.00611113e-02 ...  7.33429054e-03
  -1.13765895e-01  7.93482270e-03]
 [ 4.54460795e-04 -1.78676797e-03  1.46642625e-02 ... -8.34260322e-03
  -1.35110453e-01  3.60547006e-03]]
Hidden_layer_1/bias:0
(80,)
[ 2.09383620e-03  3.24168173e-03  1.14958710e-03 -1.66977197e-03
  4.12622035e-01 -2.16265187e-01 -4.55143396e-03 -1.66933134e-01
  5.10540903e-01  5.05342789e-04 -1.27571437e-03  5.00028491e-01
  2.87439278e-03  4.51115906e-01  1.86567143e-01  7.26801110e-04
  2.96771876e-04 -8.55497420e-02  2.01884029e-03  3.89963090e-01
  1.10297371e-03 -5.95729426e-03  6.60262653e-04  1.75206480e-03
 -5.52535756e-04 -4.11031349e-03  2.81478882e-01  2.12609628e-03
  3.37646455e-01  2.21509347e-03  1.58290111e-03 -5.88745461e-04
  2.59549171e-01  2.33218609e-03 -2.43842825e-01  8.61623208e-04
  5.24115086e-01  2.40288069e-03  2.29477033e-01  5.35128295e-01
 -2.36628531e-03 -3.97516459e-01  9.90125583e-04 -1.73236206e-01
  3.18318337e-01  1.93923968e-03  1.47244660e-04  5.33301175e-01
  2.45892815e-03  1.23488088e-03 -1.07915886e-03 -3.68973576e-02
  2.96146154e-01  2.16953107e-03 -2.28515617e-03  1.94182441e-01
  4.90319014e-01 -4.30535059e-03  7.77537227e-02 -1.04657505e-04
  4.42039847e-01  3.01716384e-03 -3.71309998e-03  1.41104974e-05
  8.93785909e-04  2.93701747e-03  1.28132343e-01  4.14755464e-01
  1.39958680e-01  5.66296279e-01  4.70440924e-01  2.66026240e-04
 -1.24145462e-03  4.60559785e-01  2.91361287e-03  1.08171825e-03
  7.22120935e-03 -4.80268570e-03  3.64405066e-01 -1.58879277e-03]
Hidden_layer_2/kernel:0
(80, 80)
[[-1.3519218e-03 -3.0763904e-03 -5.7942956e-04 ...  6.0923332e-05
  -4.4956469e-05 -9.0473291e-04]
 [ 6.1557360e-04 -9.3709404e-04 -2.3289135e-04 ... -6.4842927e-05
  -4.5671398e-04  3.2609657e-03]
 [ 3.4589358e-03  8.6154666e-04  3.5541963e-03 ...  2.6295701e-04
  -1.9623016e-03  4.1591073e-03]
 ...
 [-1.6966432e-03  5.9950782e-04 -5.4126577e-03 ... -7.1125876e-05
  -4.0478131e-05 -3.4290061e-03]
 [ 4.7287013e-02  8.2122318e-02 -2.9229312e-03 ... -4.2640077e-04
  -4.8050084e-03 -1.2199803e-03]
 [ 3.2025257e-03 -5.6701741e-04 -2.7224133e-03 ...  5.8116289e-05
  -2.5577825e-03  2.6832736e-04]]
Hidden_layer_2/bias:0
(80,)
[ 5.5927140e-01  1.0001338e+00 -5.7691368e-03  2.7337712e-03
  4.4096623e-02 -6.6452213e-03  6.8236410e-04  5.8911395e-01
  2.5589731e-01  1.4378619e-03  6.7918506e-03  7.5654978e-01
  5.6095684e-01  9.9734329e-03  4.9741250e-03  8.4889323e-01
  7.4258469e-02  7.0540071e-01  5.0967336e-01  5.7768410e-01
 -1.7857600e-04 -1.1997489e-02  6.6380626e-01  1.8082091e-03
  5.6991190e-01 -8.7808973e-01  5.6074554e-01  6.0898644e-01
  6.7023630e-03  4.2347938e-01  3.2300905e-03  1.1118088e-03
  9.1505520e-02  4.8820215e-01  7.1279454e-01 -1.6475935e-03
  1.5688727e-03  9.1381490e-01  8.9688718e-01  4.1105774e-01
 -8.6093765e-01  5.1811612e-03  2.1492867e-03  5.0098556e-03
 -1.9257684e-04  6.2386221e-01  7.9855891e-03 -1.4428548e-03
 -3.0509131e-03  6.2158263e-01  8.6542714e-01  8.4127150e-02
  9.8129019e-02 -3.9383573e-03  1.1121441e-03  9.3765646e-01
 -2.0791236e-01  6.3154453e-01  4.6662660e-03 -3.1843223e-03
  1.9919786e-03  3.6702687e-01  5.7970303e-01  1.4728191e-03
  2.7781227e-03  5.6275421e-01  6.3844651e-01 -7.8982273e-03
  6.7657973e-03  7.4201035e-01 -5.5854367e-03  3.5570151e-01
 -3.9824327e-03 -6.7561748e-03  6.5170806e-03 -1.4485858e-02
  6.0124350e-01  1.3303516e-03  1.0482752e-01 -4.7961334e-03]
Hidden_layer_3/kernel:0
(80, 80)
[[-5.87034831e-03 -1.05769690e-02  7.63458684e-02 ... -1.23916548e-02
  -1.08189844e-02 -1.17060719e-02]
 [-4.54350282e-03 -8.75448715e-03  5.06280065e-02 ... -8.54870304e-03
  -7.51162041e-03 -8.20283499e-03]
 [-3.03860800e-03 -1.15079917e-02 -2.57012481e-03 ... -1.08386008e-02
  -1.09602865e-02 -1.11083435e-02]
 ...
 [-2.61925568e-04 -4.06358333e-04  9.85120569e-05 ... -4.90417762e-04
  -5.28358272e-04 -5.19667636e-04]
 [-2.15738267e-03  1.54856220e-03 -1.16880133e-03 ...  1.86400779e-04
  -4.62913769e-04 -1.75202382e-04]
 [ 2.13770615e-03  1.18911453e-03 -7.68378470e-03 ... -1.14662584e-03
   4.70973609e-05 -7.58164038e-04]]
Hidden_layer_3/bias:0
(80,)
[-3.737356   -2.0925465   0.78071404  0.65400666  0.34088114  0.07488812
  0.8115492  -3.1026177   0.6933626   0.3380769  -2.655593    0.5844452
 -3.8605351  -3.1044686   0.19695635  0.3413606  -2.9138017   1.1822603
 -0.6463677  -2.1811926   0.724164   -3.339366    0.35885242 -2.7714257
  0.4367388  -2.64243     0.83693284 -3.7534573   0.5581095   0.461566
 -2.6302476   0.6274246  -2.5645883  -3.7907445   0.7467676   0.9354907
 -0.5544533   0.6357005   0.7434125  -2.1595402   1.064487    0.49500147
 -4.257568    0.5981255   0.60678375  0.57415104 -2.9256864  -2.779967
 -4.004293    0.4151618   0.5373223  -2.4702964  -0.5817803   0.6935783
 -3.8192549  -2.7684345  -2.749863    0.52439475 -4.3451324  -3.8908763
 -3.505269    0.30654472 -1.6157728  -4.268693    0.61845684  0.13088194
 -1.7837162  -3.5750835   0.6382924  -2.6960666   1.0934432   1.0965065
 -2.6960764   0.8411229  -2.8781042   1.007891    0.16327119 -2.568725
 -2.5998542  -2.741606  ]
Output_layer/kernel:0
(80, 6)
[[-1.48532248e+00 -4.87612188e-01 -1.26897156e+00  3.76761123e-03
  -1.74909234e-01 -1.14281785e+00]
 [-1.47795153e+00 -2.96292543e-01 -1.02440047e+00  1.07339777e-01
  -1.92802176e-01 -6.35837436e-01]
 [ 4.77242649e-01  4.45353895e-01  8.90100360e-01 -4.34784479e-02
   1.49414885e+00  4.61719096e-01]
 [ 7.58196115e-01  4.44015741e-01  9.15172517e-01  2.45142840e-02
   1.54781377e+00  1.18899301e-01]
 [ 1.91066399e-01  2.86064982e-01  1.12929571e+00 -6.42183330e-03
   1.28642893e+00  1.35244176e-01]
 [-8.69259357e-01 -2.22336605e-01 -1.44840729e+00  2.25245789e-01
   4.65911961e+00 -1.98270559e+00]
 [ 4.65421736e-01  5.41325927e-01  1.01504183e+00 -3.20539847e-02
   1.18233490e+00  4.37007934e-01]
 [-1.50652325e+00 -2.38345683e-01 -1.01065171e+00 -1.87202305e-01
  -5.22568524e-01 -1.15934837e+00]
 [ 7.27749407e-01  5.35331309e-01  1.01811147e+00 -2.68792138e-02
   1.36024272e+00  9.59265791e-03]
 [ 5.41097879e-01  3.18734497e-01  1.02144206e+00 -7.15756938e-02
   1.63711834e+00  7.97322616e-02]
 [-1.30988240e+00 -5.35972476e-01 -9.68813598e-01 -2.53345370e-01
  -3.56591463e-01 -1.03286552e+00]
 [ 5.99014044e-01  6.74515665e-01  1.29586732e+00  8.88790265e-02
   1.36972868e+00  3.01571906e-01]
 [-1.62264037e+00 -1.97919533e-01 -1.10709524e+00  4.04528435e-03
  -3.20935607e-01 -9.15261567e-01]
 [-1.69422460e+00 -4.44320977e-01 -1.10584283e+00 -1.56842530e-01
  -4.72540200e-01 -1.09624743e+00]
 [-4.28792596e-01  7.59538770e-01  1.37789738e+00  5.04570544e-01
   5.14359951e-01  1.07144678e+00]
 [ 4.11060363e-01  4.58682269e-01  1.14317560e+00  1.61279157e-01
   1.55390382e+00  1.70807496e-01]
 [-1.65127397e+00 -5.56521416e-01 -8.63514543e-01 -2.17168689e-01
  -4.65347201e-01 -1.18993199e+00]
 [ 7.65771568e-01  9.94608626e-02  1.04272079e+00 -1.63139123e-02
   1.43638206e+00  3.08725327e-01]
 [ 1.93591213e+00 -5.81696928e-01 -7.66589344e-01 -1.02236018e-01
   3.21175218e+00 -1.25531006e+00]
 [-1.29402697e+00  1.58485770e-02 -7.83528447e-01  5.30127324e-02
  -2.64336497e-01 -5.75926006e-01]
 [ 1.71253014e+00  8.63812789e-02 -1.60421669e-01  2.16703981e-01
  -1.92155278e+00  1.84058285e+00]
 [-1.55170453e+00 -1.62838906e-01 -1.02937043e+00  3.33431810e-02
  -3.36547494e-01 -9.26163197e-01]
 [ 3.73843044e-01  4.20558393e-01  1.06595063e+00  1.72018215e-01
   1.72472680e+00  2.81280279e-01]
 [-1.27043641e+00 -4.20118958e-01 -9.28207517e-01  5.59812374e-02
  -1.11445017e-01 -7.33558834e-01]
 [ 6.63102448e-01  4.55321789e-01  1.05620742e+00  1.38131544e-01
   1.58209133e+00  1.54234722e-01]
 [-1.39406574e+00 -4.41790402e-01 -9.63972211e-01 -3.11640620e-01
  -4.29200828e-01 -1.11181688e+00]
 [ 7.99493790e-01  5.60061157e-01  9.14697349e-01  3.97762470e-02
   1.59059739e+00  5.40026486e-01]
 [-1.61724150e+00 -2.83127278e-01 -9.75236893e-01 -1.03261106e-01
  -2.57578075e-01 -8.12417805e-01]
 [ 8.13106716e-01  3.52817804e-01  1.11534822e+00  1.77125096e-01
   1.62506723e+00  5.51682293e-01]
 [-1.23487853e-01 -4.96463589e-02  4.51713353e-01 -4.83534392e-03
  -1.19505443e-01  5.89088723e-03]
 [-1.33894217e+00 -6.38831377e-01 -1.18351877e+00 -2.14864761e-01
  -4.13062125e-01 -9.96334553e-01]
 [ 3.18927765e-01  4.80796903e-01  1.16269135e+00  4.34723906e-02
   1.70917976e+00  4.46260035e-01]
 [-1.49262106e+00 -6.38584852e-01 -8.67225409e-01 -2.57694125e-01
  -4.88338172e-01 -9.01567817e-01]
 [-1.33642149e+00 -2.47415587e-01 -1.30715036e+00 -5.27883023e-02
  -3.44433367e-01 -9.22468960e-01]
 [ 6.51219606e-01  1.41533256e-01  1.01911378e+00 -4.08513518e-03
   1.39012086e+00  9.91757661e-02]
 [ 8.52144182e-01  4.13361818e-01  1.09990716e+00  4.03959081e-02
   1.50078082e+00  6.16587520e-01]
 [-1.10896754e+00  5.46431184e-01  4.37206298e-01  3.55263323e-01
   9.05887604e+00 -3.29296374e+00]
 [ 6.34180665e-01  2.53908247e-01  1.25577462e+00  6.84403703e-02
   1.82319784e+00  2.68715769e-01]
 [ 7.79213846e-01  2.09985122e-01  1.28895831e+00  5.79203665e-02
   1.48026097e+00  3.09728235e-01]
 [-1.16005433e+00 -1.34323478e-01 -9.27690625e-01  8.69415551e-02
  -1.21268202e-02 -7.33374953e-01]
 [ 9.09566045e-01  6.12240016e-01  1.33908534e+00 -3.71245518e-02
   1.47299886e+00  4.66847092e-01]
 [ 4.31241006e-01  6.33234859e-01  1.23457336e+00  1.22672096e-01
   1.32672644e+00  3.79689723e-01]
 [-1.41123772e+00 -2.18991518e-01 -1.07690978e+00 -5.44862077e-02
  -1.32302165e-01 -1.04957724e+00]
 [ 7.46506631e-01  6.23193085e-01  1.01805329e+00  5.36522754e-02
   1.79585493e+00  1.57262146e-01]
 [ 3.74325228e+00 -6.62371933e-01 -2.11033866e-01 -3.89605016e-01
  -2.78119951e-01  3.57933342e-01]
 [ 5.37941754e-01  6.88013196e-01  1.23204064e+00  1.05450816e-01
   1.67000186e+00  4.03007329e-01]
 [-1.55700660e+00 -6.53330922e-01 -1.19642448e+00 -1.08407497e-01
  -5.13204694e-01 -8.27731729e-01]
 [-1.23147976e+00 -2.19774455e-01 -1.18064916e+00 -2.20027238e-01
  -5.95017195e-01 -1.14180744e+00]
 [-1.50677359e+00 -1.51947886e-01 -1.24374938e+00 -3.97512689e-02
  -5.51267087e-01 -1.08300304e+00]
 [ 5.03076017e-01  3.48353714e-01  1.05866802e+00  1.16303235e-01
   1.73958528e+00  1.96122304e-01]
 [ 5.73623943e+00 -3.33572936e+00 -6.26368046e+00 -6.28596306e-01
  -6.87773228e+00  1.19348824e+00]
 [-1.22476494e+00 -2.32559398e-01 -1.06569183e+00 -2.80421674e-01
  -3.11270237e-01 -7.15749085e-01]
 [ 8.53954911e-01 -1.05747655e-01  2.61631787e-01 -1.97162330e-01
   4.76481819e+00 -1.45811868e+00]
 [ 2.99055427e-01  7.22881675e-01  1.27628803e+00  1.77594759e-02
   1.66339529e+00  5.34989893e-01]
 [-1.01491821e+00 -5.03722951e-02 -8.62469673e-01 -5.72922826e-02
   8.25571013e-04 -6.11761093e-01]
 [-1.43889022e+00 -3.13069016e-01 -8.41156065e-01 -2.22015366e-01
  -5.17307758e-01 -9.64225352e-01]
 [-1.61900675e+00 -5.95871687e-01 -1.26163542e+00 -2.57233769e-01
  -2.82351941e-01 -1.10552537e+00]
 [ 3.68819296e-01  6.05436325e-01  1.31943846e+00  1.19322635e-01
   1.58965886e+00  4.63162303e-01]
 [-1.56408954e+00 -2.56632149e-01 -1.09786093e+00 -5.21064177e-02
  -1.79348499e-01 -1.02005076e+00]
 [-1.60417807e+00 -5.27271569e-01 -1.24410141e+00 -4.55748327e-02
  -1.06832333e-01 -1.02565217e+00]
 [-1.46748614e+00 -2.65534729e-01 -1.12473166e+00 -1.06914110e-01
  -5.04051268e-01 -1.07681358e+00]
 [-3.03674638e-01  6.83854103e-01  1.06574821e+00  1.28561944e-01
   5.02857864e-01  6.63879156e-01]
 [-1.23414147e+00 -2.32880443e-01 -1.07297671e+00  1.02886491e-01
  -1.48217827e-01 -5.06130695e-01]
 [-1.34222364e+00 -1.82536781e-01 -1.04633927e+00 -7.55586401e-02
  -1.96510509e-01 -1.12172341e+00]
 [ 8.63744736e-01  4.75870848e-01  1.20505083e+00  6.16207644e-02
   1.81847358e+00  6.16359636e-02]
 [ 4.65964317e+00 -1.54822719e+00 -2.29839206e+00 -8.04712474e-01
  -3.44647551e+00  8.04098487e-01]
 [-1.19023585e+00 -3.14771593e-01 -7.53121912e-01  1.22402892e-01
   1.33957183e-02 -6.19544625e-01]
 [-1.59344745e+00 -4.40911829e-01 -1.14163721e+00 -9.16950628e-02
  -2.51709223e-01 -1.03712535e+00]
 [ 2.69164473e-01  6.24153972e-01  1.02082336e+00  1.92115754e-02
   1.14638531e+00  4.37488943e-01]
 [-1.38567019e+00 -4.85063255e-01 -1.01104486e+00 -2.37723589e-01
  -6.17563725e-01 -1.12294841e+00]
 [ 6.77306414e-01  2.82690257e-01  1.27306628e+00 -1.72865484e-02
   1.10304701e+00  3.29690218e-01]
 [ 9.61756527e-01  3.60026807e-01  1.14316595e+00 -4.05857600e-02
   1.67010248e+00  3.18956316e-01]
 [-1.27839363e+00 -1.73073083e-01 -1.22850347e+00 -2.77817130e-01
  -3.99202645e-01 -1.14181077e+00]
 [ 5.30918121e-01  6.45703793e-01  1.00213122e+00 -4.74861525e-02
   1.52600205e+00  5.36132753e-01]
 [-1.29189277e+00 -4.50996876e-01 -8.72080505e-01 -1.92599311e-01
  -3.64926815e-01 -1.06449640e+00]
 [ 7.20913649e-01  3.92294556e-01  1.26782870e+00  1.85864558e-03
   1.49397552e+00  4.91559774e-01]
 [-8.54161680e-02  5.45491815e-01  1.02942801e+00  1.27713054e-01
   1.81558418e+00  1.56360909e-01]
 [-1.22826338e+00 -5.34807026e-01 -8.87414753e-01 -2.98177481e-01
  -4.87427741e-01 -1.14183819e+00]
 [-1.20916533e+00 -2.60997117e-01 -1.23176146e+00 -1.80511728e-01
  -5.67146122e-01 -7.09945261e-01]
 [-1.63713431e+00 -2.90144891e-01 -1.10993028e+00 -3.01747799e-01
  -4.46653664e-01 -1.11276555e+00]]
Output_layer/bias:0
(6,)
[1.4278283  0.40944436 1.061255   0.09871696 0.28469107 0.94714624]
