Hidden_layer_0/kernel:0
(24, 80)
[[ 2.2456983e-01 -4.0598260e-03  1.3608322e-01 ...  9.0687729e-02
  -4.2208022e-04 -2.6389090e-02]
 [-1.0793896e-01  7.1368665e-02 -1.6943444e-01 ... -5.4166269e-02
  -8.6801097e-04 -1.1913700e-02]
 [ 5.1270866e-01 -4.3517794e-02 -1.7560223e-02 ... -3.4116533e-02
   3.2595287e-03  4.1356932e-02]
 ...
 [-4.5219404e-01 -6.2182121e-02  2.7323388e-02 ... -8.5619830e-02
   2.8212422e-03  6.3537471e-02]
 [-2.9346842e-01  3.2562912e-02 -4.0503856e-02 ... -5.4515745e-03
  -1.0251985e-03  9.7307991e-03]
 [ 7.2379201e-03  6.8158709e-02 -4.5096334e-02 ...  1.5314129e-01
   8.8885231e-03 -5.9888076e-02]]
Hidden_layer_0/bias:0
(80,)
[-3.42768371e-01  1.67642027e-01  3.28206062e-01  1.96371168e-01
  2.47224614e-01  1.23491891e-01 -7.29746360e-04  1.41597749e-03
  9.09854621e-02 -1.28640106e-03  2.62818038e-01 -6.24182105e-01
 -6.36740762e-04 -2.63281493e-03  1.30821958e-01  2.57441052e-03
  1.33205086e-01  1.32882046e-02  2.45147213e-01  3.92862290e-01
  3.65528077e-01  3.30675721e-01  1.49401709e-01  2.93261498e-01
 -5.92217505e-01  2.15376824e-01 -6.01678602e-02  1.00420393e-01
  3.30056578e-01  1.37804225e-01  1.76991656e-01 -4.13171679e-01
  1.47590280e-01  1.44758422e-04  1.44148484e-01  1.15961407e-03
 -5.51067758e-03  1.60234014e-03  9.21921048e-04  8.82396698e-02
 -2.73394445e-03 -1.28405774e-03  1.36258341e-02  4.84573422e-04
  1.80682604e-04 -9.38477889e-02  1.53439306e-03  2.48775538e-03
  2.24147797e-01 -2.01109768e-04  5.66937029e-02  1.13233668e-03
  1.80469442e-03  2.28118867e-01  3.16989511e-01  2.64960200e-01
 -3.60922841e-03  2.24120985e-03 -1.88660204e-01 -5.00035822e-01
 -8.52404609e-02  1.06142946e-01  2.50862986e-01  5.22137503e-04
  2.50766631e-02 -5.41114062e-02  2.42478098e-03  1.38365671e-01
  1.17329769e-01  2.96716869e-01  2.22685158e-01  1.79694623e-01
  2.76998758e-01 -3.19322884e-01  7.57714063e-02  8.43077749e-02
 -6.72680268e-04 -6.18901430e-03  7.55596382e-04  2.62855981e-02]
Hidden_layer_1/kernel:0
(80, 80)
[[-7.2140098e-03  4.3897098e-03  1.2001073e-02 ...  1.1305447e-02
  -7.7565201e-03 -2.9866651e-01]
 [ 1.0329353e-03 -6.3669584e-03 -7.8756473e-04 ... -4.1663540e-03
   3.0320245e-03  1.6404743e-01]
 [-3.6771160e-03  3.4010573e-04  3.3008214e-03 ...  4.2312061e-03
  -3.8194589e-03 -3.2906139e-01]
 ...
 [ 1.2003798e-03 -9.9701327e-05  4.0163598e-03 ... -2.5322984e-03
   5.7237591e-03  9.1382176e-02]
 [ 2.0131476e-03  8.7511697e-04 -8.3698670e-04 ... -1.9804058e-03
   1.4295743e-03  3.8508149e-03]
 [-5.6803641e-03 -2.3109328e-03  3.5359641e-04 ...  5.7777250e-03
  -4.2152582e-03 -7.3867224e-02]]
Hidden_layer_1/bias:0
(80,)
[-8.32951628e-03 -1.14749912e-02  4.39224677e-04 -4.17216718e-01
 -1.04383354e-04  4.76160586e-01  8.25742085e-04  3.35937063e-03
 -2.15933099e-03  1.30740434e-01 -1.56445068e-03 -3.56195401e-03
 -6.53684093e-03 -3.79988909e-01  1.97534844e-01  2.58249938e-01
 -3.20462763e-01  3.53768840e-03  4.90089089e-01  3.30510503e-03
  5.87567747e-01  4.65261817e-01 -2.06790515e-03  4.91711427e-04
 -2.50464329e-03 -1.23061892e-03 -7.83950929e-03 -5.06711423e-01
  4.37196344e-01 -3.93172260e-04  3.87594360e-03 -2.01753597e-03
  1.90618634e-01 -7.54447887e-04 -1.59791927e-03 -1.22935802e-03
 -4.72213507e-01  1.46461488e-03  1.69709756e-03  3.81796211e-01
  5.62959790e-01  1.38914818e-02  3.59250188e-01 -1.57418626e-03
 -1.30790100e-03 -1.58524867e-02  1.26328820e-03  4.39306861e-03
  2.30595767e-01 -5.22560207e-04  3.64005655e-01 -3.10077216e-04
  3.58725458e-01  6.83789025e-04  1.16162479e-03  2.38191686e-03
 -7.53738452e-03  1.12088094e-03  3.74217480e-01  5.00586390e-01
  3.76163095e-01  4.54713311e-03 -2.99152173e-02 -5.64525789e-03
 -4.55376878e-03  3.30296694e-03  4.72476929e-01  6.42075717e-01
  6.36725545e-01  1.54189405e-03 -1.38615968e-03  7.20389653e-04
  6.05897725e-01 -5.34395128e-03  5.42932928e-01  5.50684333e-01
  4.52701896e-01 -1.05165222e-04 -1.95824122e-03 -3.55470359e-01]
Hidden_layer_2/kernel:0
(80, 80)
[[-2.0569244e-03 -9.4052521e-05 -1.1023757e-04 ...  5.2491119e-03
  -2.7559577e-03 -1.0102751e-03]
 [-1.8903943e-03 -1.1471148e-05  6.0261930e-03 ...  6.6104960e-03
  -1.2580179e-04  9.5817028e-04]
 [-1.2230866e-03  6.7107896e-05  6.8695964e-03 ...  2.0659096e-03
   1.4852989e-03  1.0167627e-03]
 ...
 [ 4.1806151e-04  1.0735047e-04  3.3930240e-03 ... -3.2264618e-03
   2.8025538e-03  1.2402541e-03]
 [-7.0321234e-04 -9.7351280e-05 -2.7901628e-03 ...  2.7258815e-03
  -2.5712026e-03 -1.3696031e-03]
 [ 3.3207578e-03  1.5243598e-04  8.9275721e-04 ...  1.2886627e-01
   7.7524562e-03  1.8531248e-03]]
Hidden_layer_2/bias:0
(80,)
[ 7.5198346e-01 -4.6568387e-04  2.6235252e-03  4.6594515e-01
  9.2655224e-01  5.6845474e-01  2.3870339e-04  5.2539450e-01
 -7.6114070e-03 -3.5164983e-03 -5.0320651e-04 -9.7684916e-03
  3.0223392e-03 -4.1080842e-04 -4.2757420e-03  5.3737861e-01
 -3.0630005e-03  1.9403544e-01  3.8489246e-01  4.9374043e-04
  6.2100184e-01  5.9283328e-01 -6.5516904e-03  6.7838532e-01
  1.2627521e-01  5.5752641e-01  1.5921095e-01 -2.6352094e-03
 -4.0992377e-03  2.0165860e-03 -8.5913861e-04  5.9758306e-01
  3.3912724e-01  8.4299743e-01  8.9880735e-01  4.5313632e-01
 -1.3758629e-03 -4.9281595e-03  8.9558762e-01 -2.1306749e-03
  6.6380620e-01 -3.6325898e-02  9.6247894e-01 -1.5375125e-03
  7.1424377e-01 -7.6774163e-03  5.4504618e-04  1.3830632e-02
 -6.7101573e-03  1.6008252e-03 -4.2806668e-03 -3.1421832e-03
  1.9656315e-01  6.0931480e-01 -2.4741553e-03  6.0870886e-01
 -4.3044516e-04  8.7985659e-01 -2.2340454e-03 -2.4539754e-03
 -4.6827927e-01  5.1841152e-01 -1.1989869e-03 -6.0160889e-04
 -4.0467736e-01  6.9184357e-01  4.2729703e-01  7.1000230e-01
  6.8938267e-01  8.0720764e-01  9.9212003e-01 -2.9760227e-03
  2.5695130e-01  6.4183170e-01  7.1965808e-01  1.1854123e-03
 -1.9876517e-01 -1.6129808e+00  4.4058323e-02  2.9561665e-02]
Hidden_layer_3/kernel:0
(80, 80)
[[ 6.3082710e-02  8.2963087e-02 -1.0289415e-02 ... -9.3764178e-03
   1.0015616e-01 -7.3839445e-03]
 [ 1.9876506e-05  2.2614536e-06  1.6361379e-05 ... -8.2231447e-05
   9.6372642e-06 -5.1345287e-05]
 [ 3.5786021e-03  4.0681115e-03 -1.8615430e-03 ... -3.3473675e-03
  -2.7058562e-03 -1.7062627e-03]
 ...
 [ 6.2234271e-02  2.9702598e-02 -3.9016252e-04 ...  1.3712910e-03
  -4.8956443e-02  8.3074835e-04]
 [ 3.3558987e-04 -3.4234897e-04 -3.7992478e-04 ... -1.7317219e-03
   9.6954353e-04 -1.4446524e-03]
 [ 6.8165414e-04  5.1522168e-04  8.7140048e-05 ... -1.2494003e-03
   7.0084067e-04 -5.1979825e-04]]
Hidden_layer_3/bias:0
(80,)
[ 0.90980196  1.0897983  -2.017076    0.2603443   0.20746788 -3.4736667
  0.71641153  0.52999926 -2.8493996  -0.71089023 -3.7037752   0.14926463
  0.8674556   0.6072843  -2.245736   -3.3006382  -4.035289   -3.2029757
 -0.30390102 -3.517234   -2.9560678  -3.2085993   0.61824274 -3.324827
  0.14246346  0.42478478  0.6164942   0.99974364 -3.1834207  -2.8943477
  0.23369344 -2.995321    0.7491213  -3.717224    0.6369116  -3.1267633
 -3.524626    0.48883018 -3.2514467  -3.2385736  -3.2201958  -2.63706
 -3.4720216   1.0116158  -3.6087344  -2.8198771  -2.9169393  -3.1215618
 -2.3211043   0.7761367  -3.0560024  -3.1796308  -3.155206    0.8358493
 -3.0005322  -3.2182863   0.91634136  0.637603    0.44404748 -3.0291197
  0.84110343 -2.950326    0.6672637   1.1794723   0.59793097  0.10449388
  0.6164325  -3.8320255   0.7237022   0.6659859   0.4088294  -2.8678942
 -3.1795554  -3.366539    0.879099    0.5103292   0.04870139 -3.0070596
  0.5193965  -3.3796608 ]
Output_layer/kernel:0
(80, 6)
[[ 5.50137579e-01  4.47716601e-02  1.05436754e+00  9.28301248e-04
   1.67364132e+00  9.18675736e-02]
 [ 1.03148794e+00  2.36199081e-01  1.18731964e+00 -3.93417291e-02
   1.16806400e+00  3.90093178e-01]
 [-1.14786494e+00 -4.00217175e-01 -9.05912519e-01  9.06731263e-02
  -3.64847481e-01 -7.80235708e-01]
 [ 1.06955731e+00  1.83654875e-01  9.94252086e-01 -1.23031639e-01
   1.76882041e+00 -2.90893577e-02]
 [-8.98110151e-01  7.11642742e-01  1.32377613e+00  2.71746844e-01
   9.69757140e-01  7.06359506e-01]
 [-1.05218649e+00 -4.10894394e-01 -1.33809531e+00  8.93288292e-03
  -2.17738315e-01 -1.11804807e+00]
 [ 6.38723671e-01  5.17454863e-01  1.23589063e+00 -6.79776147e-02
   1.25238597e+00  4.15491074e-01]
 [ 3.42776030e-01  5.98559439e-01  1.13617122e+00  6.50804713e-02
   2.03904843e+00  1.69120848e-01]
 [-1.10547972e+00 -4.40901458e-01 -1.33384943e+00 -2.95806974e-01
  -6.15008771e-01 -9.27428126e-01]
 [ 1.95670807e+00 -5.00886261e-01 -7.94428825e-01 -2.00321153e-01
   5.04915905e+00 -1.79493344e+00]
 [-1.10067809e+00 -3.23509991e-01 -1.21723962e+00 -2.58626472e-02
  -1.44480348e-01 -9.95695829e-01]
 [-1.07358253e+00  7.99068034e-01  1.47411370e+00  4.74856794e-01
   1.02331889e+00  8.51090610e-01]
 [ 7.86559165e-01  5.90374291e-01  1.31849933e+00  5.21746278e-02
   1.63398242e+00  4.53565478e-01]
 [ 5.62123954e-01  1.61331728e-01  9.51463282e-01  6.06558397e-02
   1.86403084e+00  3.24284583e-01]
 [-1.16212380e+00 -1.82191581e-01 -1.17290926e+00  7.30909184e-02
  -2.91145116e-01 -8.63748789e-01]
 [-1.44734049e+00 -7.14691222e-01 -1.48098814e+00 -2.11916640e-01
  -1.73592851e-01 -1.20516670e+00]
 [-1.47702122e+00 -3.28318685e-01 -1.37484360e+00 -1.07040770e-01
  -2.63050467e-01 -1.08810687e+00]
 [-1.25405729e+00 -3.98003131e-01 -1.35346913e+00  2.76064649e-02
  -1.08096965e-01 -9.96520698e-01]
 [ 4.89428425e+00 -2.70158792e+00 -5.61198092e+00 -4.38724309e-01
  -3.24862075e+00 -8.27348053e-01]
 [-1.26310766e+00 -7.15871513e-01 -1.55305588e+00 -7.33663291e-02
  -6.63776278e-01 -1.01081026e+00]
 [-1.28109264e+00 -7.86596239e-01 -1.23260880e+00 -2.35499412e-01
  -2.25786731e-01 -7.57859290e-01]
 [-1.47701097e+00 -3.94600660e-01 -1.45767963e+00 -2.76151419e-01
  -2.23922834e-01 -1.18186891e+00]
 [ 8.94294083e-01  6.34425998e-01  9.54205334e-01  1.46352440e-01
   1.40834868e+00  6.10585153e-01]
 [-1.00142872e+00 -4.45879728e-01 -1.15255094e+00 -1.93841886e-02
  -5.36880374e-01 -9.50899482e-01]
 [ 7.26898491e-01 -3.34816098e-01 -4.49774921e-01 -2.16511279e-01
  -4.66793203e+00  2.33480692e+00]
 [-5.10365404e-02  4.64355677e-01  1.41590369e+00  1.10826224e-01
   1.81389272e+00  3.15377474e-01]
 [ 9.32067811e-01  3.32128078e-01  1.11466479e+00  6.81579933e-02
   1.65845096e+00  5.16015217e-02]
 [ 8.55318666e-01  5.39229214e-01  9.01410282e-01 -1.10344300e-02
   1.87852931e+00  2.80013442e-01]
 [-9.27119493e-01 -2.45069459e-01 -1.14819133e+00 -6.21647350e-02
  -4.93157536e-01 -6.50327921e-01]
 [-1.11010730e+00 -3.32280278e-01 -1.38590932e+00 -2.40313217e-01
  -6.28326714e-01 -8.64622295e-01]
 [ 2.48459980e-01  4.55100954e-01  1.04249370e+00  1.48919448e-01
   2.39609218e+00 -2.76485592e-01]
 [-1.21600986e+00 -4.44052964e-01 -1.50695884e+00 -3.05011272e-01
  -6.40220523e-01 -1.16268003e+00]
 [ 4.35172826e-01  4.52045143e-01  1.12752581e+00 -5.00815548e-03
   2.00568366e+00  1.31465524e-01]
 [-1.13928938e+00 -2.48318434e-01 -1.49230576e+00 -6.97350055e-02
  -4.90968317e-01 -1.15299833e+00]
 [ 8.05400491e-01  3.48464578e-01  1.24870765e+00  1.10325947e-01
   1.06211209e+00  5.44095695e-01]
 [-1.13440168e+00 -4.60629910e-01 -1.14734793e+00 -2.07096383e-01
  -6.83975697e-01 -1.08282137e+00]
 [-1.32057476e+00 -6.94193721e-01 -1.40085268e+00 -1.39587715e-01
  -1.51552781e-01 -1.05344152e+00]
 [ 3.09715915e+00 -2.41641617e+00 -3.56435180e+00 -9.29347336e-01
  -1.06361027e+01  2.95944762e+00]
 [-1.36929595e+00 -5.24722993e-01 -1.45527089e+00 -2.34124228e-01
  -3.24625492e-01 -1.19983745e+00]
 [-1.21647847e+00 -4.17950422e-01 -1.04518533e+00 -1.88566387e-01
  -2.05692410e-01 -8.25286984e-01]
 [-1.20759583e+00 -5.86738050e-01 -1.25345695e+00 -2.05790564e-01
  -2.58520961e-01 -1.08904660e+00]
 [-1.00851834e+00 -1.93889022e-01 -9.87353921e-01  3.41640599e-02
  -2.97331482e-01 -9.47978139e-01]
 [-1.04189980e+00 -3.53711784e-01 -1.03334546e+00 -1.95819378e-01
  -1.99334115e-01 -1.21967769e+00]
 [ 9.62453961e-01  4.72238868e-01  1.03986466e+00 -8.32184276e-04
   1.89914227e+00  2.01239988e-01]
 [-1.29812741e+00 -3.24702233e-01 -1.43648112e+00 -1.42395556e-01
  -5.07128179e-01 -1.09200954e+00]
 [-1.02597344e+00 -4.60653603e-01 -1.04781866e+00 -3.31375599e-01
  -6.45504475e-01 -1.06441402e+00]
 [-1.26591134e+00 -6.94743693e-01 -1.53966141e+00 -2.57205516e-01
  -5.95779121e-01 -1.00598180e+00]
 [-1.01826310e+00 -7.27837384e-01 -1.51948464e+00 -1.94129348e-01
  -5.96147716e-01 -1.24124575e+00]
 [-1.09960449e+00 -3.96460325e-01 -1.32030940e+00  8.65443051e-02
  -4.64843690e-01 -9.84217644e-01]
 [ 4.93099362e-01  4.41185176e-01  9.49010134e-01  2.10441910e-02
   1.77301145e+00  3.45092714e-01]
 [-1.06056225e+00 -5.97798109e-01 -1.19121480e+00 -2.23848775e-01
  -5.25773108e-01 -1.05960000e+00]
 [-1.18862176e+00 -7.16782093e-01 -1.53329682e+00 -2.28205845e-01
  -4.25940037e-01 -1.24527216e+00]
 [-1.40210271e+00 -6.67231560e-01 -1.38992417e+00 -2.27325141e-01
  -4.52048630e-01 -1.11767972e+00]
 [ 8.04797053e-01  3.91303301e-01  9.51377392e-01  3.01006231e-02
   2.02818680e+00  2.32862547e-01]
 [-1.45276952e+00 -5.76734483e-01 -1.39356911e+00 -2.88205594e-01
  -3.66666079e-01 -9.98417377e-01]
 [-1.24138331e+00 -5.30436754e-01 -1.11918521e+00 -2.05912352e-01
  -6.62273586e-01 -1.24019337e+00]
 [ 6.12119377e-01  5.94383895e-01  1.39988482e+00  2.94239074e-02
   1.76817989e+00  4.55327123e-01]
 [ 4.11146075e-01  5.15754938e-01  1.01817465e+00  9.39686000e-02
   1.55166078e+00  6.30158663e-01]
 [ 3.97177599e-02  3.76120955e-01  1.12896407e+00  4.22407016e-02
   1.83367634e+00  2.15113655e-01]
 [-1.47061265e+00 -7.84302235e-01 -1.18567145e+00 -3.44485909e-01
  -3.32758337e-01 -1.24174976e+00]
 [ 3.00871754e+00 -9.19473022e-02  4.01380658e-01 -1.42294675e-01
  -4.00930691e+00  2.14895558e+00]
 [-1.04645109e+00 -4.09899741e-01 -1.07828355e+00 -3.14665377e-01
  -4.49581087e-01 -1.11428416e+00]
 [ 5.37845314e-01  6.76214397e-01  1.34280884e+00  1.06314838e-01
   1.04907405e+00  6.41137540e-01]
 [ 8.84703755e-01  3.08360517e-01  9.78984773e-01 -1.92781743e-02
   1.45559800e+00  5.28625965e-01]
 [ 1.05981255e+00  4.19075936e-01  1.17200983e+00 -9.31285098e-02
   9.51498330e-01  3.21700096e-01]
 [-8.79501700e-01  1.12184024e+00  1.36275673e+00  3.78432840e-01
   1.98546040e+00 -5.08703552e-02]
 [ 7.95645654e-01  5.05254090e-01  8.91396344e-01  1.01850089e-02
   1.90138471e+00 -1.22708365e-01]
 [-1.29702592e+00 -3.18900436e-01 -1.38610494e+00 -1.27201676e-01
  -3.01096886e-01 -1.08970356e+00]
 [ 1.20233804e-01  5.42459965e-01  9.77797031e-01  1.81607797e-03
   7.39227116e-01  4.75280762e-01]
 [ 5.95686197e-01  2.96738684e-01  1.27889252e+00  6.90650791e-02
   1.42571282e+00  3.42119217e-01]
 [-6.60589561e-02  6.26919508e-01  8.24298084e-01  3.04471981e-02
   1.80049801e+00  1.63902342e-01]
 [-9.70512331e-01 -2.88843930e-01 -1.03261065e+00 -2.65102953e-01
  -2.62487888e-01 -9.57009137e-01]
 [-1.19850039e+00 -6.25249207e-01 -1.15873885e+00 -2.46114343e-01
  -4.53278214e-01 -1.26436400e+00]
 [-1.22496295e+00 -6.80065513e-01 -1.13974166e+00 -1.97112963e-01
  -2.05270424e-01 -1.20680642e+00]
 [ 6.92754328e-01  4.85741585e-01  9.45958197e-01 -3.72152627e-02
   1.66112936e+00  4.16480601e-01]
 [ 6.87243581e-01  2.53330469e-01  1.11475289e+00  4.04720195e-02
   1.84757030e+00 -7.40626156e-02]
 [-1.14530635e+00  1.08150673e+00  1.55669010e+00  4.98765349e-01
   2.14988089e+00 -1.43719226e-01]
 [-9.83134985e-01 -4.72903550e-01 -1.22097135e+00 -2.58516610e-01
  -2.46587232e-01 -9.01469946e-01]
 [ 6.50381923e-01  7.12354064e-01  1.28164113e+00  1.92846566e-01
   1.12957132e+00  5.31894743e-01]
 [-1.45415938e+00 -4.92089242e-01 -1.22350240e+00 -1.79642990e-01
  -2.47220337e-01 -1.03925455e+00]]
Output_layer/bias:0
(6,)
[1.2276257  0.5438405  1.2829463  0.12782083 0.36146492 1.0353258 ]
