Hidden_layer_0/kernel:0
(24, 80)
[[-5.26107615e-03  1.19500393e-04  2.30144869e-04 ... -8.46795142e-02
   1.74326390e-01  4.46614249e-05]
 [ 6.70064613e-02 -4.73724824e-04  3.72147275e-04 ...  6.42548800e-02
  -2.55237132e-01  6.52214279e-04]
 [ 1.27526345e-02 -4.09122440e-04  7.23915058e-04 ... -3.81235063e-01
   2.49576960e-02  4.18345939e-04]
 ...
 [-3.97905596e-02 -2.23620306e-03 -5.77702885e-03 ...  1.72511384e-01
   6.33074343e-02 -5.82959550e-03]
 [-2.37531848e-02 -7.53308937e-04 -6.83373190e-04 ...  7.60627463e-02
  -1.11330479e-01  1.63154432e-03]
 [ 8.32197536e-03  1.73228758e-03  1.37850468e-03 ...  8.26880150e-03
  -4.19017747e-02 -3.20280815e-04]]
Hidden_layer_0/bias:0
(80,)
[ 2.7710414e-01 -1.5353729e-05 -2.2312110e-04  3.6315304e-01
  1.7387815e-01  1.5580106e-01  5.4969091e-04  2.3319302e-01
 -3.4615210e-01 -3.9244574e-01  3.0453485e-01  3.0579388e-01
  2.7029839e-01  3.2549596e-01  3.0166358e-01 -4.4185811e-01
  4.2008802e-01  2.1916707e-01 -1.3187084e-01  2.2314557e-01
  1.0712747e-01  3.8426745e-01  2.8908077e-01  2.9245088e-01
  2.7538648e-01 -4.0521801e-01 -4.4743550e-01 -4.0799463e-01
  2.0828904e-01 -2.4811584e-01  2.4161947e-01 -1.8436295e-01
  1.6447033e-01 -4.5665172e-01 -1.9905756e-01  1.0471866e-01
  7.3400639e-02  3.8170353e-01  2.1878266e-01 -1.4781512e-01
  3.1460211e-01  1.9298282e-01  3.0619875e-01  9.0055458e-02
 -2.1375200e-01  2.3142120e-01  2.0181690e-01  8.5474528e-02
  2.6931393e-01 -3.9696195e-03  2.1567865e-01  2.6147467e-01
  2.8887588e-01  2.4074940e-01  7.9257198e-02  3.1632036e-01
  3.3147308e-01 -4.0533966e-01  1.9546035e-01 -3.2399979e-01
 -2.0194404e-01 -2.7593139e-01  3.0551022e-01 -2.2585352e-01
 -3.2419324e-04  3.6798171e-03  2.7159601e-01  2.7243978e-01
 -3.3192948e-01  2.4162270e-01  1.7679577e-01  3.7925761e-02
 -1.2818918e-03  2.0409192e-01  3.5031119e-01  1.0330682e-01
  2.2582157e-01 -4.0623739e-01  1.7413133e-01  3.1115400e-04]
Hidden_layer_1/kernel:0
(80, 80)
[[ 4.2453423e-04  4.1603222e-02  1.3210429e-02 ...  4.1789137e-04
   1.6148198e-04 -2.0624406e-03]
 [-1.9559075e-06  4.9657761e-03 -6.1408174e-04 ... -1.1995904e-05
  -1.4780985e-06 -5.6680397e-05]
 [ 4.7565820e-05  1.2234054e-04 -3.5326742e-04 ...  1.5284166e-04
   1.2963527e-04 -6.5878330e-04]
 ...
 [-2.7551895e-04 -1.2144253e-01 -1.5611750e-01 ...  7.2409085e-04
   1.0927984e-03  2.1307373e-02]
 [-6.7368656e-04 -8.0268793e-02  5.7421751e-02 ... -6.4121268e-06
   3.4362078e-05 -2.8503681e-02]
 [-1.3052213e-06  2.8809572e-03 -4.5993921e-04 ...  3.6396650e-05
   2.9261679e-05  1.2352265e-04]]
Hidden_layer_1/bias:0
(80,)
[-2.2760583e-03  2.5370139e-01  4.6438503e-01  3.6575073e-01
  4.6137583e-01  3.5711864e-01  4.6582125e-02  2.8748730e-01
 -4.3420047e-03 -5.7500713e-03 -2.6860654e-01  3.8677090e-01
  2.6530069e-03 -7.4488814e-03  3.6973023e-01 -3.3289561e-01
  3.6038610e-01  3.4008044e-01 -2.6710285e-02 -2.1888495e-03
 -2.2465890e-04  3.0594346e-01 -3.1228986e-01  5.7117647e-01
 -1.4302308e-03  2.9794237e-01  3.6699495e-01 -3.7493974e-01
 -6.6588488e-03  2.5597122e-02 -1.5509980e-03  3.5652292e-01
 -3.0257911e-03  2.8660297e-01 -1.8190079e-03 -2.0103122e-03
  2.2745322e-01 -2.4482696e-03  4.9722266e-01  3.6882615e-01
  3.2177489e-02  4.4080657e-01 -2.9197788e-01  4.1836031e-02
 -1.6600059e-03  1.7553963e-01 -1.2340322e-03 -9.2164322e-04
  4.7136632e-01 -3.5998409e-03 -3.2450762e-03  4.4663945e-01
  9.2176586e-02 -1.8477587e-03 -2.5464804e-03  4.4859898e-01
  3.7057486e-01 -2.4160044e-03  3.6256325e-01 -3.4237340e-02
  3.1214470e-01  5.1599884e-01  5.9066468e-01 -2.8858773e-04
  4.7851148e-01  2.3598519e-01 -5.8801747e-03  1.7258251e-03
 -2.8415930e-01 -5.7006138e-03 -3.5525272e-03 -1.6865381e-03
 -5.0086887e-03  3.1701386e-01 -5.3823506e-03 -2.8914215e-02
  2.4680945e-01 -1.7740646e-03 -1.0991397e-03  4.4796020e-01]
Hidden_layer_2/kernel:0
(80, 80)
[[-5.61761517e-05 -7.31589462e-05  5.75325685e-04 ... -8.85937552e-05
   1.22040758e-04  1.01187534e-03]
 [ 3.80662503e-04  3.98012518e-04 -1.44137010e-01 ...  4.68625629e-04
   1.19907267e-01  1.28237084e-02]
 [ 8.87978997e-04  1.14938547e-03  2.58455947e-02 ...  1.90805364e-03
   7.94777274e-02  2.96394415e-02]
 ...
 [-5.97331455e-05 -1.17442731e-04 -1.42348127e-03 ... -2.69080105e-04
  -6.16796548e-04 -9.60730831e-04]
 [-8.28305128e-05 -1.29751090e-04 -1.55731582e-03 ... -3.60527367e-04
  -7.77376234e-04 -1.57183991e-03]
 [ 6.45125518e-04  5.26373216e-04  1.10372685e-01 ...  7.04846811e-04
   3.62856388e-02 -1.94852538e-02]]
Hidden_layer_2/bias:0
(80,)
[-0.01952151 -0.02213428  0.08996351  0.41882443  0.41825795 -0.25866544
  0.66719806  0.11850332 -0.02663929  0.13305889 -0.04610829 -0.3591069
 -0.02381879  0.3057729   0.32472068  0.6129036   0.51991117 -1.0359923
  0.4799087  -0.01896248 -0.02656282 -0.58798945  0.5433306   0.3312459
 -0.01938073  0.45045567  0.18078384  0.43522826  0.40681878  0.31896657
  0.04384254 -0.0192355   0.1389228  -0.02408781  0.19113392  0.675869
 -0.01825991 -0.00816369  0.46375027  0.56763405 -0.02082665 -0.08650696
  0.62373066 -0.0241657  -0.0195867   0.2359241   0.4626918  -0.02213427
  0.14030372 -0.67507744 -0.0192105  -0.14269134 -0.01865601  0.3336553
  0.3710873  -0.04107775  0.52620965 -0.0110353  -0.00611903  0.48153374
  0.65518457  0.42576167 -0.01298779  0.3633841  -0.8789483   0.49069053
  0.635937   -0.02501866 -0.0252135  -0.02577809 -0.01857537  0.47361943
 -0.02143268  0.42376456  0.6965634   0.5775983  -0.01938248 -0.02611561
  0.55791515  0.5135821 ]
Hidden_layer_3/kernel:0
(80, 80)
[[-5.6783837e-04  6.1798701e-04 -3.5030892e-04 ... -1.2015892e-04
  -3.8717821e-04  5.2650628e-04]
 [-4.0696198e-04  5.9090747e-04 -6.7382230e-04 ... -2.3547205e-04
  -2.5002132e-04 -6.5167987e-06]
 [-5.3882759e-02 -2.5531452e-03  2.7233679e-02 ...  1.9063223e-02
  -7.0709516e-03  1.4060690e-01]
 ...
 [-1.0027868e-03  1.9333099e-03 -1.3343411e-03 ... -1.2052073e-03
  -6.5805978e-04 -1.0679528e-04]
 [ 1.7542316e-02 -1.1943702e-02  8.8582546e-02 ...  1.3578349e-01
  -1.5711963e-02  2.8642645e-02]
 [ 8.4623091e-02 -6.0382984e-03  4.3927994e-02 ...  4.3755013e-02
  -5.2512488e-03  5.8083259e-02]]
Hidden_layer_3/bias:0
(80,)
[ 0.06229669 -2.3292098   0.51601654  0.5487146   0.1761333  -2.1411524
 -0.06997903  0.11465829  0.8387332  -1.9532554  -2.0616865  -0.9503894
 -2.231905   -2.1394265  -1.6726791  -0.61366516 -2.6923609   0.74363005
 -1.0112171   0.40249795 -2.0988073   0.2026019  -2.0056841   0.21712586
  0.35524416 -2.075515   -2.9110126  -2.8517947   0.87255317 -0.68924755
 -2.0364141  -0.66304564 -2.3793857  -0.10177653  0.24503969 -1.4830881
  0.30124325 -0.1613205  -2.1219585   0.5415375  -1.9828908  -2.6290147
  0.2051587  -2.2388678  -1.848764    0.45386076 -0.46644378  0.2398741
  0.73159236 -2.0829263  -1.7371308  -2.6137767   0.58457917 -1.2014145
  0.43394816  0.2888747   0.44363025  0.12666202 -1.9931011   0.5712451
 -1.9555835   0.62320286 -2.207957   -2.388566    0.8965026  -2.2498481
 -1.3835108  -0.7692941  -0.88931495 -2.112303    0.3384671  -1.9436755
 -2.0552287   0.3399165  -0.00331276  0.4469435  -2.514848    0.6553923
 -0.79207325 -0.0775729 ]
output_layer/kernel:0
(80, 6)
[[ 9.1238335e-02  2.4408682e-01  7.4441075e-01  1.2790097e-01
   1.9318156e+00 -3.4590936e-01]
 [-8.5814452e-01 -4.2024869e-04 -7.5053084e-01 -2.1874569e-01
   3.2918948e-01 -1.0172815e+00]
 [ 2.1164973e-01  2.9852292e-01  9.6164119e-01 -5.0156835e-02
   9.9554598e-01  2.3539849e-01]
 [ 6.3571924e-01  5.2801365e-01  7.3728925e-01 -1.0034992e-02
   1.0969434e+00  9.3289383e-02]
 [ 3.8783368e-01  3.6981162e-01  9.1653275e-01  1.1447527e-01
   1.1478848e+00 -2.2393027e-01]
 [-1.3241872e+00 -3.9452142e-01 -6.7836362e-01 -2.4154124e-01
  -6.8138659e-02 -1.0288255e+00]
 [ 1.0056641e+00 -1.4887061e-03 -2.0710388e-01 -1.4825017e-02
   1.7460234e+00 -6.4143431e-01]
 [-4.2567843e-01  8.0277407e-01  1.1090775e+00  4.8965377e-01
   7.9358125e-01  3.8004467e-01]
 [ 5.6521100e-01 -3.5096858e-02  7.1668535e-01 -2.4014369e-02
   1.2383002e+00  2.9445818e-01]
 [-1.1620915e+00 -5.1602483e-01 -8.9838141e-01 -2.8637496e-01
  -5.1709790e-02 -8.0974954e-01]
 [-1.1522554e+00 -3.6790034e-01 -6.3574725e-01 -2.8785095e-01
   4.8631452e-02 -8.6418790e-01]
 [-1.9591112e-02 -9.5462985e-02 -6.6717899e-01  6.2958159e-02
   5.1287556e+00 -1.9030364e+00]
 [-1.1203022e+00 -2.1755186e-01 -9.0028733e-01 -1.6279908e-01
   1.2145265e-01 -8.6849153e-01]
 [-1.1802816e+00 -2.0352809e-01 -5.9913594e-01 -2.6147011e-01
  -1.6620769e-01 -1.0437539e+00]
 [-1.1426197e+00 -2.0141099e-01 -6.8412495e-01  8.8061385e-02
   1.4010917e-01 -1.0027424e+00]
 [-1.1261833e+00 -3.4552395e-01 -5.5349660e-01  1.7636581e-01
  -1.6692187e-01 -7.3875767e-01]
 [-1.2871048e+00 -3.7921932e-01 -8.3564943e-01 -3.1208621e-02
  -1.5391479e-01 -1.0916611e+00]
 [ 7.0702052e-01  4.8136744e-01  8.0848372e-01 -3.1846431e-03
   8.3285427e-01  4.9815843e-01]
 [-1.0664139e+00 -2.7705464e-01 -4.7245556e-01  7.7479742e-02
  -8.6152814e-02 -5.6454688e-01]
 [ 4.9661425e-01  4.2462832e-01  5.8000028e-01  1.3165317e-01
   4.3935689e-01  6.9278169e-01]
 [-1.3803160e+00 -5.2433252e-01 -9.8112166e-01 -2.0555092e-01
   7.4329853e-02 -7.0468342e-01]
 [-1.1646316e-01  5.3109813e-01  7.9253787e-01  1.7072350e-01
   1.4913199e+00  2.6406994e-01]
 [-1.1490477e+00 -1.5407936e-01 -7.5520116e-01 -2.9936028e-01
   1.0315477e-01 -6.3317543e-01]
 [ 3.6710563e-01  9.3370341e-02  9.1476882e-01  5.4091666e-02
   1.2241131e+00 -1.2430174e-01]
 [ 5.0612760e-01  3.9744973e-01  6.3742703e-01  1.1990806e-03
   1.2520339e+00 -6.3279882e-02]
 [-1.1728359e+00 -3.2521835e-01 -8.1460971e-01 -2.6444250e-01
  -9.8530054e-02 -1.0029111e+00]
 [-1.1006849e+00 -2.2190903e-01 -8.2713479e-01 -3.7990268e-02
   9.9977791e-02 -7.6664275e-01]
 [-1.0583708e+00 -3.4317955e-01 -6.8259370e-01 -7.1332693e-02
   1.0587783e-01 -7.1203458e-01]
 [ 5.9854728e-01  7.5659074e-02  9.7197759e-01 -4.1825261e-02
   8.3746767e-01  3.1676027e-01]
 [-7.6112562e-01  2.2797177e-02 -8.8090253e-01  1.1560735e-01
   1.1037491e-01 -6.0875523e-01]
 [-1.2688745e+00 -5.0836545e-01 -6.9196582e-01 -2.1685600e-01
   6.4312242e-02 -6.6752958e-01]
 [-6.0446143e-01  3.6211930e-02  9.4286397e-02  5.5391684e-02
   3.8268504e+00 -1.4696442e+00]
 [-1.0583177e+00 -2.7659249e-01 -5.8809549e-01 -1.6857848e-01
   8.1784181e-02 -1.0025600e+00]
 [-8.2367927e-01  2.2174364e-01 -5.5360526e-01  1.2482521e-01
   1.7338826e-01 -2.2347857e-01]
 [ 9.1078185e-02  2.7302685e-01  8.3937740e-01  1.4093472e-01
   1.0090811e+00  3.0769709e-01]
 [-6.4588892e-01  1.1943222e-01 -7.9504448e-01  4.9567483e-02
   5.7663512e-01 -7.0962048e-01]
 [ 4.4901019e-01  1.9993480e-01  8.0623478e-01 -1.1557379e-01
   9.7502571e-01  3.4837031e-01]
 [ 2.5768945e-01  1.4481202e-01  3.5931760e-01 -9.9685274e-02
   1.6362247e+00 -2.4839345e-01]
 [-1.2417397e+00 -1.0767069e-01 -6.9679087e-01 -2.7539587e-01
  -2.1069311e-01 -1.0171602e+00]
 [ 3.6430055e-01  1.5429097e-01  1.0135338e+00  4.3262836e-02
   1.1041349e+00  3.5894299e-01]
 [-1.2771764e+00 -6.6283822e-02 -5.3951949e-01 -2.6313317e-01
  -1.9074762e-01 -7.3699588e-01]
 [-1.0829569e+00 -4.0663034e-01 -5.1949024e-01 -1.0202304e-01
   1.4759253e-01 -8.6364925e-01]
 [ 3.7974408e-01  3.9899811e-01  7.1796942e-01  1.2087247e-01
   1.5569866e+00 -3.8233977e-02]
 [-1.1087204e+00 -3.3246908e-01 -5.5107224e-01 -2.5727314e-01
   2.4336432e-01 -9.7158206e-01]
 [-8.8344842e-01 -3.8355863e-01 -5.8759826e-01 -2.6103109e-01
  -4.9693968e-02 -6.5687388e-01]
 [ 5.5014634e-01  4.5335847e-01  6.4821523e-01  8.9137647e-03
   6.9263673e-01  1.8696752e-01]
 [-7.4096131e-01  2.1837717e-02 -4.2698339e-01  9.8541014e-02
   1.3511448e-01 -4.3745056e-01]
 [-8.2972161e-02  5.5562204e-01  6.8751466e-01  7.5858131e-02
   1.4552324e+00  2.8985620e-01]
 [ 6.4718157e-01  5.0277042e-01  9.7573793e-01 -1.6167356e-02
   9.4372582e-01  4.4262314e-01]
 [-1.1361996e+00 -1.3847446e-01 -8.3245468e-01 -3.0791086e-01
  -1.6897928e-02 -9.8151892e-01]
 [-8.8416046e-01  8.8416561e-02 -8.2473940e-01  3.0992161e-02
   2.9921308e-01 -7.0783061e-01]
 [-1.1980749e+00 -3.6612815e-01 -5.9646630e-01 -3.9524514e-02
   1.2114522e-01 -7.5829905e-01]
 [ 4.7471803e-01  5.1774806e-01  6.1184883e-01 -6.7646272e-02
   7.4295580e-01  4.4133395e-01]
 [-7.3581290e-01 -3.0504456e-01 -7.1450359e-01  4.4084314e-02
  -3.2841653e-02 -5.1846927e-01]
 [ 6.2729156e-01  9.7599991e-02  7.4903870e-01  7.2662987e-02
  -2.0102094e-01  8.5732466e-01]
 [ 5.1583034e-01  3.5150316e-01  7.6499909e-01  8.9546904e-02
   1.4821703e+00  2.0822082e-02]
 [ 1.8482040e-01  3.2623717e-01  9.6367985e-01  2.9923981e-03
   6.5846747e-01  2.4344778e-01]
 [-1.2468941e-01  6.4309311e-01  8.2970059e-01  2.0671381e-01
   1.6966166e+00 -4.1264769e-02]
 [-1.3112556e+00 -5.6673568e-01 -5.2493155e-01 -2.9000738e-01
  -1.3760812e-02 -8.3253872e-01]
 [ 6.9225591e-01  4.2351371e-01  7.3125917e-01  4.3764703e-02
   5.2457422e-01  4.9589139e-01]
 [-7.9915798e-01  2.8905666e-02 -7.7741867e-01  1.7075397e-02
   1.2061409e-01 -7.4628538e-01]
 [ 4.2701688e+00 -8.9648372e-01 -1.2712953e+00 -4.0900803e-01
  -2.6114323e+00  9.7680336e-01]
 [-9.6459323e-01 -4.4919763e-02 -6.4266205e-01 -1.6792485e-01
   9.7293258e-02 -6.7473000e-01]
 [-1.1505264e+00 -5.2620280e-01 -7.0133686e-01 -5.5240378e-02
  -2.1963793e-01 -8.5705435e-01]
 [ 6.6218460e-01  2.2913097e-01  8.8407212e-01 -3.7756048e-02
   8.3338004e-01  4.3765265e-01]
 [-9.4287950e-01  4.8220828e-02 -9.6430004e-01  2.3271093e-02
   2.5012144e-01 -9.7917789e-01]
 [-1.0342402e+00 -1.9245426e-01 -8.9844751e-01  1.1609530e-01
   1.6395588e-01 -9.8899251e-01]
 [-8.0019760e-01  1.9395338e-01 -4.5651737e-01  8.4115393e-02
   3.8504446e-01 -5.9499711e-01]
 [-6.5358609e-01  2.7526230e-01 -8.0041420e-01  1.2448813e-01
   3.5577041e-01 -8.7691116e-01]
 [-1.0263113e+00 -1.8253662e-01 -5.4798990e-01 -2.4386741e-01
  -1.6272375e-01 -1.0306922e+00]
 [ 2.8651839e-01  5.4814863e-01  8.4839725e-01  1.4316235e-01
   1.0640467e+00  4.5925984e-01]
 [-1.3305628e+00 -3.0924150e-01 -6.4867884e-01 -2.9514223e-01
  -1.1996212e-01 -6.6973704e-01]
 [-8.4054404e-01 -5.4435557e-01 -9.7974730e-01 -1.8136011e-01
  -1.1784281e-03 -9.0321743e-01]
 [ 4.0057266e-01 -8.1713751e-02  5.5233234e-01  1.2077878e-03
   1.0657040e+00  1.2610836e-01]
 [ 3.4946165e+00 -1.5708535e+00 -2.7326596e+00 -2.5734612e-01
  -2.0916333e+00  2.5509846e-01]
 [ 3.0078462e-01  2.1793611e-01  9.1202825e-01 -2.2490904e-02
   1.4292908e+00  7.8714587e-02]
 [-1.1635227e+00 -3.9217424e-01 -8.9855337e-01 -9.7073145e-02
  -5.5071071e-02 -9.8187250e-01]
 [ 6.7147470e-01  1.3167317e-01  9.6505666e-01  4.4978939e-02
   8.1417847e-01  5.3136081e-01]
 [-7.8417253e-01 -3.0921525e-01 -4.6766993e-01  1.2841226e-01
   3.6447939e-02 -6.8650442e-01]
 [ 8.6300308e-01 -2.3904656e-01  3.0016127e-01 -2.2192968e-01
   9.9467117e-01  1.8145727e-02]]
output_layer/bias:0
(6,)
[ 1.1023757   0.298676    0.73609054  0.09161957 -0.0628254   0.83611536]
