Hidden_layer_0/kernel:0
(4, 80)
[[-1.20965502e-04  8.66999384e-04  6.69847825e-04  4.02805854e-05
   2.27055389e-05 -7.61215750e-04 -6.32107316e-04 -4.20451775e-04
  -3.15835860e-05  6.12258213e-04  1.17932133e-04 -7.22112774e-04
  -3.69500602e-03  2.72415986e-04 -8.63624155e-05  2.19463633e-04
   5.75852988e-04  1.14343036e-03 -4.74847293e-05 -1.87767902e-04
  -5.89995470e-04  1.21736026e-04  1.08241080e-03 -2.56403140e-03
  -2.61288276e-03 -4.60210955e-03 -5.50969737e-04 -1.21355748e-04
  -1.19577024e-04  8.01758142e-04 -3.62684974e-03  9.13069816e-05
   4.37130184e-05 -5.20909810e-03 -4.75242472e-04 -5.53159371e-05
   1.42447650e-03  1.15379447e-03 -1.13497052e-04  1.72700617e-04
   2.72335659e-04  1.47354149e-03  8.48452444e-04 -2.17355136e-03
  -2.11229362e-03  1.01573777e-03 -6.36865245e-03  8.48097043e-05
  -1.28248287e-03 -4.77568217e-04  9.55737662e-04  1.05824228e-03
   6.65032712e-04 -3.64404332e-05  4.95475903e-03  1.13752118e-04
   4.28046566e-04  8.24777380e-05 -1.90630206e-03  6.49278460e-04
   4.67174832e-04  6.04670320e-04 -3.14533900e-05  5.20927133e-04
   3.98675504e-04 -4.57755756e-04 -1.39995757e-03 -1.05211150e-03
  -2.01601983e-06  1.80848365e-05 -7.07768486e-04  1.20761353e-04
   7.37867551e-04 -5.33408718e-04 -3.17416131e-03  9.02177359e-04
  -3.49831535e-03  3.57284269e-04 -9.93372232e-05  9.42945306e-04]
 [-8.40942957e-05  6.09755341e-04  4.88120713e-04  2.42832739e-05
   1.62847118e-05 -5.46436408e-04 -4.94327862e-04 -3.07191949e-04
  -2.04024982e-05  4.13915433e-04  8.48521013e-05 -5.17769018e-04
  -2.65467097e-03  5.48286116e-05 -5.78021572e-05  1.51673914e-04
   4.27569787e-04  7.79238821e-04 -3.55207594e-05 -1.25360108e-04
  -3.42478248e-04  7.94104417e-05  7.41334690e-04 -1.83643063e-03
  -1.90925121e-03 -3.14716762e-03 -4.23478545e-04 -4.34206822e-06
  -9.43516861e-05  5.57381078e-04 -2.60683778e-03  6.05901914e-05
   3.24307184e-05 -3.68580618e-03 -6.70163077e-04 -5.70937045e-05
   9.75876523e-04  6.13029115e-04 -7.31409891e-05  1.27038802e-04
   1.96536203e-04  1.05042371e-03  6.45510270e-04 -1.57844927e-03
  -1.41726842e-03  6.76603755e-04 -4.44691582e-03  5.09864876e-05
  -9.16733115e-04 -3.40220169e-04  6.69948407e-04  7.38461385e-04
   4.79860872e-04 -2.15593827e-05  9.30107955e-04  8.58050116e-05
   2.72056204e-04  5.76838902e-05 -1.25365134e-03  3.29919043e-04
   6.69014698e-05  4.15488670e-04 -1.84662840e-05  3.64371954e-04
   2.51476798e-04 -3.10372212e-04 -9.72538430e-04 -7.94587773e-04
   1.06493417e-06  1.09734247e-05 -5.03601506e-04  7.93143772e-05
   5.06253797e-04 -3.97914118e-04 -2.32064608e-03  6.30923838e-04
  -2.54408969e-03  2.57809355e-04 -6.52043673e-05  6.43520500e-04]
 [-1.55133210e-04  1.13355916e-03  9.55790340e-04  4.34121648e-05
   2.91782071e-05 -1.08909491e-03 -8.34977254e-04 -5.67938667e-04
  -3.72328323e-05  7.65691570e-04  1.50594016e-04 -9.44683503e-04
  -4.90829255e-03  1.18763724e-04 -9.99958356e-05  2.76494975e-04
   7.25134450e-04  1.51174527e-03 -5.78341824e-05 -2.24782008e-04
  -6.21606770e-04  1.53242494e-04  1.33461272e-03 -3.31105618e-03
  -3.42603098e-03 -5.79069275e-03 -7.70500978e-04  3.28500232e-06
  -1.55413029e-04  1.00377714e-03 -4.81715752e-03  1.21903155e-04
   5.57319581e-05 -6.70982804e-03 -1.23101927e-03 -9.95193623e-05
   1.76955340e-03  1.12631125e-03 -1.38121031e-04  2.32169288e-04
   3.51391354e-04  1.85746979e-03  1.19425147e-03 -3.00900871e-03
  -2.65143020e-03  1.24389108e-03 -8.47312156e-03  9.60591933e-05
  -1.76073704e-03 -6.58051868e-04  1.31794275e-03  1.35259016e-03
   9.07872571e-04 -3.75924174e-05  1.86391792e-03  1.54829148e-04
   4.91577084e-04  1.10230634e-04 -2.29825336e-03  6.19128812e-04
   1.21108213e-04  7.46845268e-04 -3.11745243e-05  6.52829360e-04
   4.58816969e-04 -5.71191427e-04 -1.75462896e-03 -1.39399758e-03
   2.14633951e-06  2.05475335e-05 -8.44039430e-04  1.60457799e-04
   9.05609340e-04 -7.30324537e-04 -4.23615333e-03  1.16947736e-03
  -4.60890774e-03  4.67524049e-04 -1.20777200e-04  9.96358111e-04]
 [ 7.83043448e-03 -2.31704470e-02 -6.25422271e-03 -2.41852226e-03
  -7.12775439e-03  7.02034906e-02  1.54670747e-02  5.34948409e-02
   1.34193152e-03 -3.22561711e-02 -4.31113429e-02  8.45189951e-03
   8.90861452e-02  5.61179779e-02  4.80369618e-03 -1.63208246e-02
   3.82796838e-03 -3.33903991e-02  1.26311192e-02  1.08172884e-02
  -1.12460285e-01 -6.91316510e-03 -4.28873785e-02  8.10647905e-02
   5.39382286e-02  1.11341029e-01  1.15625607e-02 -4.04963978e-02
   5.69907425e-04 -5.40714450e-02  9.36156064e-02 -2.93726269e-02
  -3.15323323e-02  1.62661076e-01  1.11837365e-01  6.81895912e-02
  -7.14902729e-02 -6.45608753e-02  6.43176911e-03 -3.91828977e-02
  -1.12225078e-02 -7.02305585e-02 -1.68453716e-02  7.06182867e-02
   9.01657492e-02 -3.73373479e-02  1.68899864e-01 -4.74524358e-03
   4.09153514e-02  3.77828330e-02 -2.08094791e-02 -9.63369384e-03
  -6.63534913e-04  2.03668512e-03  1.85650289e-01 -7.06406636e-03
   6.52043745e-02 -2.79602781e-02  6.28958717e-02  7.09118322e-02
   1.39854252e-01 -3.23055722e-02  1.45097135e-03 -3.22107747e-02
  -2.43568122e-02  2.40528807e-02 -8.36931095e-02  4.01388630e-02
  -2.11567298e-04 -8.94871366e-04  1.33660315e-02 -7.14975083e-03
  -6.28613159e-02  2.24880781e-02  7.89650530e-02 -3.15049551e-02
   1.51073799e-01 -3.04474458e-02  5.87859936e-03 -1.26437461e-02]]
Hidden_layer_0/bias:0
(80,)
[-0.01005161 -0.01071217 -0.00139875 -0.02103909 -0.00021868 -0.00615084
 -0.00858261 -0.008919    0.00757137  0.01789471  0.0265693  -0.05010565
 -0.03488075  0.00647217 -0.00326237 -0.00348335 -0.00510199  0.01947051
 -0.02306717 -0.0061653  -0.02017663 -0.00086488  0.05365633 -0.02523592
 -0.03201966 -0.01775775 -0.02460727 -0.01581613  0.00204285  0.02086015
 -0.01438449  0.03485901 -0.00902051 -0.01698764  0.00855087  0.00650559
  0.03973996  0.01879372  0.00215678 -0.00984195  0.00161448  0.02432537
  0.04921236 -0.01721738 -0.01363926  0.02157232 -0.02093973  0.0017328
 -0.03010868 -0.00814411 -0.01556042  0.02842864  0.00559898 -0.00572732
  0.01162462  0.02512146  0.00680816 -0.00750633 -0.01265314  0.00886742
  0.00535711 -0.00489692  0.00338615  0.01215139  0.01303526 -0.00616671
 -0.04008969  0.00517702  0.00339713 -0.00086216 -0.01562771  0.01052903
  0.02327495 -0.02408196 -0.02402275  0.04063709 -0.01634163 -0.00360871
 -0.00841187  0.0128499 ]
Hidden_layer_1/kernel:0
(80, 80)
[[-3.14391858e-04  9.22009804e-06  2.70079217e-05 ...  9.17037469e-05
   1.00976737e-04  1.63277451e-04]
 [ 6.71812380e-03  1.03649501e-04  1.05280205e-05 ...  1.90263963e-03
  -3.44173837e-04 -6.54453936e-04]
 [-1.12932082e-03 -1.18805066e-04  1.01642683e-03 ... -7.73752108e-04
  -9.26081630e-05 -1.60212614e-04]
 ...
 [ 1.05184235e-03 -3.32380841e-05 -1.90750521e-04 ... -3.09544441e-04
  -3.49819311e-04 -6.02939224e-04]
 [-1.92708962e-04  5.15319789e-06  8.42058853e-06 ...  5.55609840e-05
   1.84747023e-05  9.18613368e-05]
 [ 2.75373459e-03  8.27907788e-05 -2.49198801e-03 ...  6.83366321e-04
  -1.92390391e-04 -3.35143093e-04]]
Hidden_layer_1/bias:0
(80,)
[ 2.06072368e-02 -3.01342458e-03 -2.02965308e-02  1.58260670e-02
 -2.61455830e-02 -4.40475810e-03  1.53320096e-03 -1.68915633e-02
 -4.58089029e-03  9.24339797e-03 -2.73210485e-03 -1.33092282e-02
 -2.94708498e-02  1.12228012e-02 -3.65354605e-02  1.86038867e-03
 -1.25479943e-03 -1.30090024e-02 -4.96175606e-03 -7.99786765e-03
  3.51456460e-03 -1.25359301e-03 -9.13990836e-04 -1.61030050e-03
  2.30526496e-02  1.42717312e-04  2.12007631e-02 -1.35064498e-02
  2.62919371e-03  1.82602927e-02  3.63193601e-02 -1.59289353e-02
  5.02719823e-03  5.85104898e-03 -1.88296642e-02  4.28398838e-03
  1.64650809e-02  5.87250479e-03 -4.44004238e-02  1.18265375e-02
  9.32556391e-03 -6.42958476e-05 -1.57912634e-02 -2.62167212e-02
  2.22814027e-02  4.53649461e-03 -2.76017177e-04 -4.76925820e-03
 -2.03512562e-03 -7.64857745e-03 -1.96124278e-02  6.94970600e-04
 -1.08360695e-02 -1.27251232e-02  1.16092968e-03 -1.69673003e-02
 -7.13225454e-03 -2.27688272e-02 -9.79350787e-03  3.41740507e-03
 -2.44981386e-02 -1.59767102e-02 -1.97420344e-02  2.27177273e-02
 -2.63703032e-03 -9.62998811e-03 -7.55101675e-03 -8.18271283e-03
  5.82158985e-03 -9.37470701e-03  3.75736058e-02 -2.05298103e-02
  1.37397379e-03  1.36233168e-03 -1.38972960e-02  9.01011564e-03
 -6.59625372e-03 -1.12241283e-02 -1.03210593e-02 -2.49408651e-02]
Hidden_layer_2/kernel:0
(80, 80)
[[-5.24556672e-04 -2.34937035e-11  1.16889125e-04 ...  7.55905494e-05
  -3.92700285e-02 -1.27286185e-04]
 [ 4.54685724e-05  8.60576421e-13 -5.15259944e-06 ... -3.83846697e-07
   2.43215915e-03  3.09656855e-07]
 [-7.31440168e-03 -3.89129354e-11  8.63770401e-05 ...  1.08541812e-04
   1.00025181e-02 -1.73964552e-04]
 ...
 [ 6.07310911e-04  9.46085484e-12 -5.13746527e-05 ... -2.93612011e-05
   9.34569445e-03  5.02963412e-05]
 [-8.79388652e-04  1.64033002e-12 -1.02977656e-05 ... -4.54064048e-06
   1.86817497e-02  2.20723614e-05]
 [-2.08965343e-04  2.31549935e-11 -6.37780540e-05 ... -3.74627343e-05
   1.49948606e-02  4.78054826e-05]]
Hidden_layer_2/bias:0
(80,)
[-1.7017109e-02 -2.8063436e-08 -5.2196002e-03 -6.1789323e-03
  4.0825764e-03 -1.7895991e-02 -4.0839803e-03 -6.7208973e-03
 -1.5552536e-02  1.6028291e-02  2.6829049e-03 -1.6462939e-02
 -2.4879347e-07  1.5464680e-02 -9.3101421e-03  2.6901855e-04
  1.2875305e-02  1.1675498e-08  1.6400870e-02 -2.0721441e-02
 -1.3278247e-03  9.5723558e-04 -2.4147688e-04  8.5227089e-03
  3.8468917e-03 -2.0767987e-02 -9.9988261e-05 -1.2137361e-02
  7.5856666e-03 -1.2873219e-02 -1.2024361e-02 -3.2964864e-04
 -1.7542066e-02 -1.1180128e-04 -1.5119244e-02 -4.4611562e-03
  1.8570893e-02 -1.2626445e-02 -1.3122478e-02 -1.6278306e-02
  2.9555251e-04 -1.7460307e-02 -3.5791479e-03 -1.7646953e-02
 -1.2809738e-02 -6.6770031e-03  2.6104849e-02 -2.2278099e-04
  9.6219154e-03 -2.6443901e-03 -1.9824753e-02  3.7355635e-03
 -1.7138806e-03  1.9993221e-03 -5.0750398e-03 -1.2195352e-03
 -3.1268664e-03  2.6597990e-02  1.7865606e-02  4.7888595e-04
 -1.9018082e-02 -1.5261611e-02 -2.5684054e-03 -1.1611966e-08
  2.3513164e-03  1.1597463e-03  1.8573502e-02  6.1402898e-03
 -7.3556602e-03  4.7736708e-04 -3.5081370e-04 -6.0993452e-03
 -6.8099814e-04 -1.0369018e-03 -1.4004734e-08 -5.0649242e-03
  6.8101874e-03  2.2141570e-03 -1.6111486e-02 -5.2556568e-03]
Hidden_layer_3/kernel:0
(80, 80)
[[ 6.58905541e-04 -3.73252697e-04  2.85487704e-06 ...  1.15180912e-03
  -3.10747582e-03  4.09797038e-04]
 [ 4.08232177e-13  1.85895868e-13  4.41426223e-15 ...  1.42550576e-13
   1.01229897e-12 -6.95064145e-12]
 [ 1.25996048e-05  2.70469427e-05 -1.28749633e-07 ... -1.92321104e-03
  -2.42372300e-03 -1.91163458e-02]
 ...
 [-2.21214777e-05  1.21572957e-05 -2.13461036e-08 ... -3.07491355e-05
   5.01041541e-05  3.73781659e-05]
 [ 3.98956100e-03 -2.35288055e-03  2.02237916e-05 ...  7.55102094e-03
  -5.46954991e-03 -7.50465505e-03]
 [ 2.24664182e-05 -1.28546399e-05  2.76181851e-08 ...  3.02141307e-05
  -1.15069284e-04  2.91683362e-04]]
Hidden_layer_3/bias:0
(80,)
[-1.89434271e-02  1.27099939e-02 -1.48994173e-03 -1.23378336e-02
  1.35411005e-02  2.03769412e-02  1.52327856e-02 -1.27683636e-02
  1.52825182e-02  1.28194476e-02 -1.73554402e-02 -1.45027153e-02
  6.47290217e-05  1.69312172e-02  1.33725805e-02 -1.47360628e-02
 -1.45546775e-02 -1.40176583e-02  1.61908865e-02  1.43984687e-02
  1.43620167e-02 -1.35765150e-02 -1.43696656e-02 -1.76844578e-02
 -1.78291425e-02  1.43641150e-02  1.76900625e-02 -1.47560081e-02
  1.39844911e-02  1.52179040e-02 -1.71142723e-02 -1.43538294e-02
 -1.87291354e-02  1.60197578e-02 -1.77589394e-02  1.51703581e-02
  1.42177949e-02 -1.54162757e-02  1.42607866e-02  2.02262681e-02
  1.36034116e-02  1.38178272e-02  1.37075800e-02 -2.14270223e-02
  1.45220123e-02  1.35238385e-02  1.51501102e-02 -1.65389962e-02
  1.44612258e-02 -1.48387067e-02  1.36953322e-02  1.41178891e-02
 -1.90343242e-02  1.32805416e-02 -1.56879351e-02  1.57628953e-02
 -1.76638607e-02  1.46142542e-02 -1.46849500e-02  1.75006296e-02
 -1.48611702e-02 -2.01676674e-02 -1.44374678e-02 -1.72537547e-02
  1.73803326e-02 -2.58197496e-03  1.44009003e-02 -1.45322271e-02
 -1.45758754e-02 -1.49695845e-02  1.73521582e-02 -1.19696623e-02
  8.54993053e-03 -2.29116157e-02  1.38053503e-02  1.37279965e-02
 -1.64229423e-02 -1.51278805e-02  1.62092913e-02  1.34818200e-02]
output_layer/kernel:0
(80, 1)
[[-6.76704571e-02]
 [ 3.80332358e-02]
 [-3.85074818e-04]
 [-6.79718032e-02]
 [ 5.39437346e-02]
 [ 8.18701759e-02]
 [ 2.44740069e-01]
 [-2.59714704e-02]
 [ 1.15840189e-01]
 [ 2.18342707e-01]
 [-6.01708777e-02]
 [-2.01424256e-01]
 [-7.60704370e-06]
 [ 1.01971559e-01]
 [ 2.16600254e-01]
 [-1.82873532e-02]
 [-3.38149257e-02]
 [-5.55646755e-02]
 [ 1.56665459e-01]
 [ 1.92338616e-01]
 [ 1.98738471e-01]
 [-9.95744541e-02]
 [-2.58699208e-01]
 [-1.80196345e-01]
 [-2.28987277e-01]
 [ 1.35070622e-01]
 [ 9.12396163e-02]
 [-1.99183449e-01]
 [ 1.80347040e-01]
 [ 1.63251474e-01]
 [-5.62537462e-02]
 [-1.36404932e-01]
 [-1.20340005e-01]
 [ 1.08482406e-01]
 [-1.27396762e-01]
 [ 2.50663519e-01]
 [ 1.42229483e-01]
 [-1.41944587e-01]
 [ 2.20287189e-01]
 [ 1.11037634e-01]
 [ 1.46119595e-01]
 [ 1.96786612e-01]
 [ 2.35888064e-01]
 [-2.57936627e-01]
 [ 9.94110927e-02]
 [ 1.53359488e-01]
 [ 1.24758117e-01]
 [-2.16988429e-01]
 [ 2.22065851e-01]
 [-5.18342815e-02]
 [ 5.93165569e-02]
 [ 8.56230929e-02]
 [-1.20165229e-01]
 [ 3.92726101e-02]
 [-2.87795383e-02]
 [ 1.66796580e-01]
 [-1.68533817e-01]
 [ 9.90237594e-02]
 [-2.54756838e-01]
 [ 1.90779701e-01]
 [-1.44311577e-01]
 [-1.50635079e-01]
 [-8.38732719e-02]
 [-4.78353836e-02]
 [ 1.06358103e-01]
 [-9.40581551e-04]
 [ 2.55955607e-01]
 [-2.24343240e-01]
 [-2.51292646e-01]
 [-1.58601984e-01]
 [ 2.23750412e-01]
 [-1.34372562e-02]
 [ 4.64669056e-03]
 [-2.56885439e-01]
 [ 7.01317564e-02]
 [ 5.96025959e-02]
 [-1.09165095e-01]
 [-1.01181753e-01]
 [ 1.59375876e-01]
 [ 1.50561124e-01]]
output_layer/bias:0
(1,)
[0.01470228]
