Hidden_layer_0/kernel:0
(4, 80)
[[-8.59411259e-04  3.87164903e-07  1.02562492e-03 -4.81301307e-04
   1.99031993e-03 -7.10028631e-04  5.36283405e-05 -6.36952277e-03
   6.55988115e-04  1.08172081e-03 -3.42301413e-04 -9.87870991e-03
  -7.73215797e-05 -3.30596464e-04  1.11928012e-03  2.44773505e-03
   1.94076134e-03  2.74020596e-03 -4.42467071e-03  1.29177154e-03
   4.14932671e-04 -1.79922121e-04  5.15682797e-04  1.32474583e-04
  -1.14352314e-03 -4.08258988e-03 -4.31325519e-04  9.41882783e-04
   1.18570635e-04 -2.77792889e-04  2.76688719e-04 -1.28736941e-03
   1.89995090e-03  1.78650778e-03 -3.22020217e-03  2.30017220e-04
   1.35375559e-03  2.19392852e-04 -5.21163165e-04 -5.10542281e-03
  -3.31514224e-04 -4.25132131e-03  1.76641578e-03  1.88218488e-03
  -4.17060032e-03 -5.61471470e-03 -2.51498015e-04 -4.32268437e-03
   1.14444341e-03 -6.09830546e-04 -1.68636150e-04 -5.83433197e-04
  -1.82284287e-03  1.49529427e-04 -2.28529025e-04  5.36001171e-04
  -6.20323699e-03 -8.95035279e-04 -4.68435173e-04 -1.78887160e-03
  -5.15084714e-03  1.61294010e-03  7.97610614e-04 -1.30156777e-05
  -3.07370443e-03 -1.81821862e-03  6.90244313e-04  5.00257418e-04
   3.77475662e-04 -2.48286844e-04  1.84175966e-03  2.58521002e-04
  -1.44372310e-03  1.29498803e-04  1.07146252e-03 -3.12370597e-03
  -5.95419109e-03 -3.80719226e-04 -9.96234477e-04  2.69619306e-03]
 [-8.60785600e-04 -4.38783900e-06  1.00339472e-03 -5.49656281e-04
   1.84607203e-03 -6.78897661e-04  4.40865952e-05 -5.20045171e-03
   6.45599212e-04  9.05745255e-04 -3.04437155e-04 -8.40424839e-03
  -8.69336291e-05 -2.86208437e-04  9.73935879e-04  2.26446474e-03
   1.76525512e-03  2.47003022e-03 -4.23241360e-03  1.12509471e-03
   3.83233768e-04 -1.69870051e-04  4.95829037e-04  1.30472996e-04
  -1.05066772e-03 -3.84451984e-03 -4.27561463e-04  7.87986792e-04
   1.08533852e-04 -2.40702124e-04  2.16161992e-04 -1.04813254e-03
   1.79441483e-03  1.67833711e-03 -3.11509287e-03  1.97264948e-04
   1.17358682e-03  2.04792756e-04 -4.36990958e-04 -4.34126519e-03
  -3.28283582e-04 -4.01166873e-03  1.61517039e-03  1.71288033e-03
  -3.85733554e-03 -5.22780279e-03 -2.30532271e-04 -4.13878448e-03
   1.03178341e-03 -5.74148027e-04 -1.53607049e-04 -5.38727501e-04
  -1.75330229e-03  1.18093987e-04 -2.15136271e-04  5.19875961e-04
  -5.75979147e-03 -8.42886104e-04 -3.85740772e-04 -1.69895531e-03
  -4.65362053e-03  1.39789179e-03  7.01869139e-04 -1.46540060e-05
  -2.90894508e-03 -1.74312340e-03  6.39993756e-04  4.34999936e-04
   3.49889509e-04 -1.23217746e-04  1.67975028e-03  2.50059122e-04
  -1.29223056e-03  1.25991734e-04  9.18224861e-04 -2.83422600e-03
  -5.41051524e-03 -3.57599434e-04 -9.27710382e-04  2.44260486e-03]
 [-1.49114977e-03 -7.78802223e-06  1.69536553e-03 -8.37112078e-04
   3.21238814e-03 -1.18716131e-03  7.35040448e-05 -9.04134009e-03
   1.13400258e-03  1.58105697e-03 -5.31240716e-04 -1.45933898e-02
  -1.32325789e-04 -5.01356903e-04  1.70642731e-03  3.89266596e-03
   3.04926350e-03  4.32300521e-03 -7.34614488e-03  1.92872668e-03
   6.51804032e-04 -2.90783559e-04  8.33304774e-04  2.16955857e-04
  -1.82888296e-03 -6.73966808e-03 -7.06652296e-04  1.37547939e-03
   1.87037513e-04 -4.21389675e-04  3.81372520e-04 -1.83769944e-03
   3.09177674e-03  2.85675237e-03 -5.35009382e-03  3.45244072e-04
   2.03390187e-03  3.51824245e-04 -7.65156990e-04 -7.52340769e-03
  -5.44937386e-04 -6.92082616e-03  2.81629898e-03  3.00541823e-03
  -6.73428364e-03 -9.06981248e-03 -4.02314123e-04 -7.14057498e-03
   1.78351253e-03 -1.00486551e-03 -2.71467579e-04 -9.53987532e-04
  -3.01135913e-03  2.04113530e-04 -3.51721334e-04  8.88494134e-04
  -1.00588072e-02 -1.46506994e-03 -6.92888047e-04 -2.97038164e-03
  -8.11825600e-03  2.42277863e-03  1.22357870e-03 -2.11457282e-05
  -5.07091032e-03 -3.01052118e-03  1.12278818e-03  7.57219910e-04
   6.27932081e-04 -2.34784311e-04  2.94391927e-03  4.30566899e-04
  -2.24498636e-03  2.20014466e-04  1.59999449e-03 -4.95361770e-03
  -9.31415334e-03 -6.19162049e-04 -1.61505945e-03  4.27505327e-03]
 [ 6.93616495e-02  1.88154983e-04 -1.22552495e-02  6.83587044e-02
  -2.30351593e-02  4.66761086e-03 -1.17318204e-03  1.27348691e-01
   8.92649442e-02 -3.74334119e-02  9.68354661e-03  1.98955208e-01
  -8.31104815e-03 -6.40456602e-02 -3.37739103e-02 -3.50301862e-02
  -3.82506400e-02 -5.28497696e-02  6.38086721e-02 -3.93062159e-02
  -1.16434665e-02 -9.26347508e-04 -5.33476565e-03 -2.77053402e-03
   4.30427715e-02  8.30091015e-02  7.75005519e-02 -3.18224542e-02
  -1.45449759e-02  7.87479337e-03 -8.12123250e-03 -1.07384630e-01
  -2.19676979e-02 -2.76062600e-02  4.92617115e-02 -6.63445517e-03
  -4.54824530e-02 -1.48006622e-02  1.43860597e-02  1.01210192e-01
   6.80344552e-02  1.07591718e-01 -3.29982191e-02 -4.09962907e-02
   9.66682956e-02  1.78811580e-01  1.13496361e-02  8.71718302e-02
  -4.05198783e-02 -1.44879837e-02 -1.31135748e-03 -5.31033729e-04
   4.59955893e-02 -4.24365979e-03 -4.34209891e-02 -7.26354046e-05
   1.11933097e-01  1.55036245e-02 -8.20622668e-02  3.19642313e-02
   1.46264762e-01 -7.02919587e-02 -2.54557617e-02  4.97096380e-06
   8.51341635e-02  3.64497676e-02 -1.45439394e-02 -1.99344754e-02
  -6.50328258e-03 -7.70055875e-02  8.10906291e-02 -3.14442930e-03
   5.36272824e-02 -4.14151931e-03 -3.43455151e-02  5.95145039e-02
   1.53853193e-01  2.75299288e-02  4.58785594e-02 -4.25837301e-02]]
Hidden_layer_0/bias:0
(80,)
[ 9.73996520e-03 -2.13419762e-03  4.58629169e-02  4.54309722e-03
  3.69013175e-02 -1.51506579e-02 -8.45598243e-03 -1.47875901e-02
 -9.09139286e-04  1.75163820e-02 -1.61820874e-02 -2.61391830e-02
 -3.64228003e-02 -2.54382510e-02  3.19909193e-02  7.87670165e-02
  6.36858791e-02  4.54976670e-02 -2.29626391e-02  1.90714132e-02
  1.41138826e-02  1.11118273e-03  5.20334356e-02  1.77223049e-02
 -5.78425126e-03 -8.18230212e-03 -2.80353846e-03  1.79944076e-02
  2.94036022e-03  3.65835801e-03 -1.98983471e-03 -3.97528224e-02
  2.91054826e-02  6.85180537e-03 -1.41794486e-02 -7.13139298e-06
  1.73154175e-02  5.58918575e-03 -4.08822438e-03 -2.07214523e-02
 -8.04603100e-03 -8.02207331e-04  6.52409866e-02  2.18540896e-03
 -1.99958850e-02  1.21446513e-03  1.30459731e-02 -2.54102144e-02
  2.37303153e-02 -3.54436273e-03  7.27803307e-03 -5.42069823e-02
 -9.49103665e-03  1.96602472e-04 -2.89780889e-02  1.55588612e-02
 -5.15984036e-02 -3.14638764e-02 -3.10494211e-02  1.33054955e-02
 -1.43083213e-02 -1.24021024e-02  3.35400016e-03  1.19485566e-02
 -4.95383516e-02  4.62502753e-03 -1.53922476e-02 -1.18085109e-02
  1.64533686e-02 -1.98148265e-02  1.06854178e-02  2.92980913e-02
 -9.67252348e-03  2.49265861e-02  1.60273686e-02 -2.53867730e-02
 -2.56960150e-02  7.38771493e-03  1.49687752e-03  4.97182794e-02]
Hidden_layer_1/kernel:0
(80, 80)
[[ 9.5415913e-04  1.0056821e-02  2.0515970e-04 ... -3.0408293e-05
   4.9076247e-05 -1.9033744e-03]
 [ 3.0358256e-06 -9.4121837e-08  4.5628639e-07 ...  1.0731803e-07
   1.9451733e-08 -8.8859069e-06]
 [-9.3268376e-04 -1.7232040e-02 -3.6591362e-05 ...  9.5662419e-03
  -5.2170135e-06  3.2960347e-04]
 ...
 [ 3.4454124e-04 -3.0803136e-04  7.2594572e-05 ...  1.3982733e-03
   2.4761857e-05 -7.0346956e-04]
 [ 6.1387406e-04  9.1806045e-03  1.2602330e-04 ... -6.0419936e-04
   3.0363330e-05 -1.2116762e-03]
 [-8.8451285e-04 -2.5236721e-03 -1.0765614e-04 ... -7.8918012e-03
  -2.9110888e-05  1.0067398e-03]]
Hidden_layer_1/bias:0
(80,)
[-0.00421936  0.00849171 -0.00550475  0.00593734 -0.05785881  0.02379175
  0.01130228  0.00839319 -0.00040211 -0.01038043  0.0195429  -0.01980506
  0.03472529 -0.01797117  0.03049891  0.0137466   0.00339509 -0.01145444
  0.0171253  -0.01531698  0.00976399  0.01978141  0.00311987  0.00240473
 -0.0126861  -0.00425549 -0.01166307  0.01612426  0.01878271  0.04137284
  0.00323521  0.00056772 -0.00440755 -0.0116578  -0.01081596  0.00062734
  0.00201444 -0.00625994  0.02747347  0.02762407 -0.00849977 -0.0238843
 -0.00182554 -0.03331139  0.00129023 -0.00287752  0.00907326  0.01332989
 -0.00567514  0.02398211 -0.01416582 -0.04543699  0.02590644 -0.00826448
 -0.01599277  0.01994917 -0.01923966  0.00298754 -0.02266357  0.01412404
 -0.03668612 -0.04098107  0.00590562 -0.03572183 -0.0314193  -0.01802602
  0.00615241  0.00045962  0.00318438  0.00764425  0.02256056 -0.0267202
  0.0111549  -0.03267983  0.00742675 -0.02833762 -0.01299956  0.00644907
 -0.00537233  0.04949935]
Hidden_layer_2/kernel:0
(80, 80)
[[-2.2680587e-03  4.1059419e-04  6.6455822e-03 ... -1.1275278e-05
   3.6825691e-05  5.8695960e-06]
 [ 1.7355940e-05  4.1074905e-05 -4.4529876e-05 ... -1.6838882e-06
   1.2071918e-05  7.0688759e-07]
 [-7.2177798e-05  4.0300045e-05  1.5252721e-04 ... -1.5394595e-06
   3.6392648e-06  2.0830300e-06]
 ...
 [ 8.3310195e-05 -2.4844248e-05  3.0071327e-05 ...  2.1188182e-06
  -6.5362833e-06 -3.1731986e-06]
 [-2.6886682e-05  4.8857964e-06  4.5308519e-05 ... -1.1348085e-07
  -1.5276073e-06  7.8133655e-07]
 [-8.5039362e-03 -2.0349762e-04 -5.8626863e-03 ...  7.2173302e-06
  -1.1746279e-05 -1.6217013e-05]]
Hidden_layer_2/bias:0
(80,)
[ 0.00711207 -0.01385706 -0.01794248 -0.02025205 -0.00696736 -0.02502018
 -0.01270271  0.02185938  0.0020004   0.01060355  0.00611792 -0.00258423
  0.01019506 -0.00895037  0.00054036  0.01455545 -0.00948588 -0.01318054
 -0.0039644   0.02330184 -0.01705157  0.00096204  0.00294407  0.00783764
 -0.01096908 -0.01253251 -0.00555768 -0.02502147  0.02782666  0.01505972
  0.01299796  0.00026665 -0.00562311 -0.02308678  0.0242083  -0.01279712
 -0.00244542 -0.01841302  0.02520208  0.02480247  0.0219659   0.01242548
  0.02099016 -0.00792791 -0.01365449  0.01148166  0.00835289  0.01529762
 -0.01504941 -0.00098507 -0.01021217 -0.0154054   0.0036569  -0.00130218
 -0.01487197  0.0165862  -0.02085394 -0.00677562 -0.01476031 -0.01709956
 -0.00142317  0.00367714 -0.02545318  0.03046068  0.02374617  0.02750229
 -0.00231298 -0.00786527 -0.01808242 -0.02026291 -0.01122325 -0.0221253
  0.01549278  0.00290273  0.00115555  0.02897807  0.00063425  0.00051378
 -0.00468756  0.00079279]
Hidden_layer_3/kernel:0
(80, 80)
[[-6.3317269e-04 -1.3160772e-03 -2.7277225e-03 ... -1.8907399e-03
   5.3580516e-05 -2.6232649e-03]
 [ 3.1001325e-04  6.8508839e-04  1.2695339e-03 ...  1.4106183e-03
  -3.2922089e-05  6.1471881e-03]
 [ 1.3700407e-03  2.8484410e-03  5.8431467e-03 ...  4.0588444e-03
  -1.2720149e-04  5.6032217e-03]
 ...
 [-2.0260766e-05 -4.0208164e-05 -8.0186932e-05 ... -5.2892166e-05
   1.9039417e-06 -7.1307950e-05]
 [ 2.3413457e-05  6.1046914e-05  1.0703729e-04 ... -4.2540527e-05
  -4.4112503e-06 -4.6943899e-04]
 [-2.8302862e-05 -3.9774086e-04 -4.7727319e-04 ... -2.3854208e-04
  -3.8904631e-07  3.5520357e-03]]
Hidden_layer_3/bias:0
(80,)
[-0.01648235 -0.01646415 -0.02445681  0.01605071 -0.01386003 -0.01607615
 -0.01603546  0.0209589   0.01488273 -0.00185446  0.01583999  0.01654029
 -0.02381227 -0.00382228  0.01893558 -0.01919127  0.01543159 -0.0160499
 -0.01152193 -0.01651005  0.01558231 -0.02718537  0.01574344 -0.01657767
 -0.01587594  0.01601624 -0.01617056  0.01559795  0.0151955   0.01538587
 -0.01608221  0.01463205 -0.0164203  -0.01627124 -0.02116631  0.01459027
  0.02004814 -0.01633737  0.01619856  0.01549548  0.01522398  0.01697739
 -0.01581803  0.01732336 -0.02140873  0.02094715 -0.0163293   0.01572553
  0.02567188  0.02147169 -0.01336484  0.01605255 -0.0162494  -0.02434053
  0.01452321 -0.01842737  0.01592182 -0.01561001 -0.01623085  0.01914757
  0.02031348  0.01606161 -0.01660322  0.01418349  0.01580461 -0.0158316
  0.01878934  0.02009081  0.01913439  0.01607021 -0.01508451 -0.01560284
 -0.0158966  -0.0204723   0.01494026  0.02172719 -0.01643564 -0.01502895
  0.00946372 -0.01650892]
output_layer/kernel:0
(80, 1)
[[-0.06079693]
 [-0.12688404]
 [-0.2588146 ]
 [ 0.20832673]
 [-0.0016132 ]
 [-0.19308132]
 [-0.0672465 ]
 [ 0.04516288]
 [ 0.09291971]
 [-0.00028651]
 [ 0.1979851 ]
 [ 0.19682047]
 [-0.20499644]
 [-0.00035038]
 [ 0.25690857]
 [-0.2650845 ]
 [ 0.0798844 ]
 [-0.12236427]
 [-0.03902584]
 [-0.04632867]
 [ 0.12251718]
 [-0.21478313]
 [ 0.06480701]
 [-0.25090036]
 [-0.00878353]
 [ 0.18936059]
 [-0.05929319]
 [ 0.11103708]
 [ 0.06926197]
 [ 0.05153195]
 [-0.2609346 ]
 [ 0.02888994]
 [-0.04388466]
 [-0.06902121]
 [-0.15647243]
 [ 0.04597513]
 [ 0.13318011]
 [-0.06192184]
 [ 0.19152822]
 [ 0.06127824]
 [ 0.03244091]
 [ 0.26116714]
 [-0.14140995]
 [ 0.06415412]
 [-0.14205678]
 [ 0.27492714]
 [-0.18925796]
 [ 0.10107552]
 [ 0.11144029]
 [ 0.12781093]
 [-0.0185499 ]
 [ 0.25428978]
 [-0.22908053]
 [-0.25211626]
 [ 0.03964842]
 [-0.11624011]
 [ 0.1219058 ]
 [-0.15948491]
 [-0.1500964 ]
 [ 0.11115339]
 [ 0.00613081]
 [ 0.22785835]
 [-0.04642038]
 [ 0.22781007]
 [ 0.2333811 ]
 [-0.17837061]
 [ 0.06146291]
 [ 0.04495583]
 [ 0.09230917]
 [ 0.13061401]
 [-0.27053493]
 [-0.11913299]
 [-0.19165896]
 [-0.00171405]
 [ 0.04298239]
 [ 0.19917974]
 [-0.17960069]
 [-0.17972808]
 [ 0.00550751]
 [-0.24447937]]
output_layer/bias:0
(1,)
[0.01639105]
