Hidden_layer_0/kernel:0
(4, 80)
[[-1.13643315e-02  2.92276934e-04  2.91574677e-03 -1.71192514e-03
  -6.73866784e-03  1.46318390e-03 -2.03870982e-03  2.11021630e-03
  -6.59064995e-03 -3.35900637e-04  2.25368026e-03 -2.22527678e-03
   2.58561270e-03  6.42448897e-04 -1.92388007e-03 -8.30041338e-03
  -3.46290274e-03 -8.73663835e-03 -3.47635272e-04  1.57719734e-03
  -1.44471327e-04 -4.48484719e-03  2.58469954e-03  9.53898416e-04
   2.58778688e-03  1.29127072e-03  2.79454049e-03  7.95523054e-04
  -4.15046327e-03 -1.01642711e-02 -8.85932997e-04  8.60100681e-06
   2.68253754e-03  1.86868431e-03  2.90369987e-03 -4.54864436e-04
  -5.11192763e-03 -1.38032446e-02  5.26088011e-03  2.49143760e-03
  -2.57671974e-03 -2.54373252e-03  2.10940861e-03  3.43309832e-03
   5.36454376e-04 -5.05681336e-03 -7.45194207e-04  1.47430677e-04
   1.95727756e-04  2.53158016e-03 -1.34795555e-03 -2.36632326e-03
   1.33102515e-03 -1.78032846e-04 -2.21006980e-04  1.39814918e-03
  -3.54597869e-04  1.03436073e-03  2.65750359e-03 -2.02282444e-02
  -4.92092129e-03  7.32522109e-04  2.29901541e-03  9.24148597e-04
  -7.14891357e-03 -5.61829656e-03 -2.39580078e-03 -4.13631758e-04
   2.69094342e-03  1.54376950e-03 -7.36510381e-03 -1.37205108e-03
   2.67170626e-03  1.23569823e-03 -2.46075704e-03  1.96759356e-03
   1.26102543e-03 -3.76474578e-03  1.11155721e-04  2.10238015e-03]
 [-1.04099205e-02  2.13645384e-04  2.50356225e-03 -1.56080187e-03
  -6.12396002e-03  1.29594642e-03 -1.79547456e-03  1.91088987e-03
  -6.13726070e-03 -2.97801715e-04  1.94928504e-03 -1.99084962e-03
   2.22956133e-03  5.24858187e-04 -1.55297201e-03 -7.33331498e-03
  -3.11820721e-03 -7.77308317e-03 -3.13695346e-04  1.34292874e-03
  -1.49367450e-04 -4.08869702e-03  2.25442974e-03  8.81237502e-04
   2.24157353e-03  1.13900250e-03  2.43293890e-03  7.56991038e-04
  -3.72361951e-03 -9.15120635e-03 -7.99852191e-04  7.12648671e-06
   2.30389019e-03  1.56817841e-03  2.53867079e-03 -3.92966816e-04
  -4.61473642e-03 -1.22967362e-02  4.41396935e-03  2.20210431e-03
  -2.26942706e-03 -2.29033036e-03  1.85146066e-03  2.94387690e-03
   4.83600743e-04 -4.56897588e-03 -6.48258661e-04  1.40935343e-04
   1.82261807e-04  2.25091050e-03 -1.18014065e-03 -2.11792206e-03
   1.21559331e-03 -1.65550868e-04 -2.00587325e-04  1.24925107e-03
  -3.53245880e-04  8.92283046e-04  2.31776084e-03 -1.73311178e-02
  -4.36626468e-03  6.65835803e-04  2.07662769e-03  8.41802161e-04
  -6.50776643e-03 -5.12585416e-03 -2.18639500e-03 -3.62883002e-04
   2.26899283e-03  1.33442599e-03 -6.60389336e-03 -1.12877635e-03
   2.32894043e-03  1.09786156e-03 -2.23612692e-03  1.74838700e-03
   1.04691309e-03 -3.35927447e-03  1.09486951e-04  1.82543625e-03]
 [-1.66409258e-02  3.34832672e-04  4.05650167e-03 -2.47818604e-03
  -9.84973181e-03  2.09353678e-03 -2.95190234e-03  3.05393292e-03
  -9.82000679e-03 -4.94641601e-04  3.15933814e-03 -3.26085649e-03
   3.59692401e-03  8.41982604e-04 -2.47493503e-03 -1.16878264e-02
  -5.00234496e-03 -1.25226313e-02 -4.89896338e-04  2.19285046e-03
  -2.44285387e-04 -6.58347597e-03  3.60456482e-03  1.43248925e-03
   3.57165327e-03  1.83840166e-03  3.91521212e-03  1.18754292e-03
  -6.02431968e-03 -1.47135137e-02 -1.28386123e-03  1.20174436e-05
   3.81275476e-03  2.54709879e-03  4.08381969e-03 -6.29969349e-04
  -7.47141195e-03 -1.96828190e-02  7.18178414e-03  3.52699286e-03
  -3.75705655e-03 -3.65135516e-03  3.05224885e-03  4.81959572e-03
   8.06960976e-04 -7.35868514e-03 -1.03441312e-03  2.29861180e-04
   2.95164180e-04  3.60771199e-03 -1.87800650e-03 -3.48030962e-03
   1.93838961e-03 -2.70002085e-04 -3.38669197e-04  1.99079840e-03
  -5.75449725e-04  1.44452637e-03  3.68046272e-03 -2.78561171e-02
  -7.11051794e-03  1.05185888e-03  3.31838615e-03  1.35190168e-03
  -1.04726618e-02 -8.21579993e-03 -3.51898954e-03 -5.84277906e-04
   3.64998635e-03  2.18098331e-03 -1.04741128e-02 -1.81293488e-03
   3.72553198e-03  1.74728048e-03 -3.62982298e-03  2.80422950e-03
   1.67443044e-03 -5.43835340e-03  1.81690441e-04  3.00967204e-03]
 [ 1.49951503e-01 -2.65785563e-03 -4.17019427e-02  1.97530221e-02
   7.79356584e-02 -2.08364669e-02  2.40557659e-02 -8.98583829e-02
   1.05736248e-01  4.25533624e-03 -2.49942672e-02  2.44256090e-02
  -9.60547030e-02 -7.28886342e-03  2.06961501e-02  9.51679051e-02
   3.89411263e-02  9.18819308e-02  3.86762060e-03 -2.13013291e-02
   2.39308458e-03  5.01881279e-02 -4.51525487e-02 -1.20361904e-02
  -4.88548204e-02 -1.18133426e-02 -4.38371561e-02 -6.93431450e-03
   4.70652990e-02  1.11613624e-01  1.04067111e-02 -3.14674580e-05
  -3.45029123e-02 -2.33902633e-02 -4.02601138e-02  5.37252566e-03
   5.36805913e-02  1.66973472e-01 -7.80857652e-02 -3.73762138e-02
   2.48414651e-02  3.03228553e-02 -1.81603264e-02 -4.28605564e-02
  -5.03564952e-03  5.27305640e-02  8.53042305e-03 -2.08616303e-03
  -2.65778159e-03 -2.69205701e-02  1.53106218e-02  2.90279929e-02
  -1.55983390e-02  1.80747721e-03  2.85175978e-03 -1.66912731e-02
   5.46297478e-03 -1.27212927e-02 -5.87022305e-02  2.16093153e-01
   5.33321723e-02 -9.63688176e-03 -2.51483414e-02 -8.12532008e-03
   8.86378139e-02  7.24842697e-02  2.42416095e-02  5.05530275e-03
  -3.90687026e-02 -1.92221366e-02  8.47701877e-02  1.48885222e-02
  -4.60017323e-02 -1.47077022e-02  2.29781549e-02 -2.88539771e-02
  -1.56429429e-02  3.95787805e-02 -1.69267005e-03 -2.22438052e-02]]
Hidden_layer_0/bias:0
(80,)
[-0.00590078 -0.00908619  0.02436698 -0.03811117 -0.03522032 -0.02935812
 -0.0475894  -0.03724872  0.02237358 -0.01632098  0.05071327 -0.05074188
 -0.03289286  0.00118534 -0.01063098 -0.01824498 -0.0229603  -0.03044899
 -0.01334742 -0.01776599 -0.01999677 -0.02871366 -0.01412421  0.06469446
 -0.01557268  0.00714161  0.00059465  0.04691515 -0.00217812 -0.03067417
 -0.02121742 -0.00270153 -0.02225171  0.01786197  0.03198564 -0.01359734
 -0.03796937 -0.04186502  0.06239412 -0.01893798 -0.04409083 -0.00207187
  0.00882186  0.05307494 -0.01092011 -0.03056795 -0.01015982  0.01033408
  0.01196086  0.04708991 -0.00827638  0.00730224  0.06295637 -0.01565783
 -0.01515887  0.00339298 -0.03258207  0.01818886 -0.01243449 -0.0276694
 -0.03116333 -0.02930064  0.02621404 -0.00515685  0.00395149 -0.02009944
 -0.03790404 -0.01488075  0.020193    0.02220095 -0.01757937  0.00200111
 -0.02488543  0.01530084 -0.00789241 -0.00952576 -0.00539957 -0.02708965
  0.00844874  0.0397986 ]
Hidden_layer_1/kernel:0
(80, 80)
[[ 1.6226698e-02  1.7092753e-02 -1.5404894e-03 ...  2.0277662e-02
  -1.7393939e-02  1.5649682e-02]
 [ 1.1123970e-04 -4.9446430e-04  5.6496152e-05 ... -2.5739733e-04
   1.8835659e-04  4.7944392e-05]
 [ 2.9524469e-03 -7.6388880e-03  5.6411442e-04 ... -3.4621882e-03
   3.1184789e-03  1.3461560e-03]
 ...
 [-1.4919118e-03  7.1709361e-03 -6.2236475e-04 ...  3.7773512e-03
  -2.9463982e-03 -6.6100573e-04]
 [ 6.0814324e-05 -2.5247657e-04  2.5075380e-05 ... -1.3758926e-04
   1.0950756e-04  2.7698077e-05]
 [ 1.7427355e-03 -2.2556963e-03  3.1009765e-04 ... -1.9362543e-03
   1.8843756e-03  3.5825677e-03]]
Hidden_layer_1/bias:0
(80,)
[ 0.01184969 -0.03193077 -0.02385244  0.02771608  0.05205189 -0.03139492
 -0.00593191 -0.02651591  0.03014752 -0.0018649   0.01744308 -0.0147526
 -0.05539395 -0.02251991 -0.01019842 -0.03746339 -0.01690627 -0.01473279
  0.01878372 -0.02978452 -0.00495829 -0.0194147  -0.01602956 -0.00317858
 -0.00213047  0.02008383 -0.0207203  -0.00047739 -0.02424674 -0.04440557
 -0.03025064 -0.03044985  0.03397838 -0.03931134 -0.01119063  0.02128509
 -0.0047191  -0.01936158  0.03587381  0.01281675 -0.04671852 -0.01413613
 -0.00780316  0.00296871 -0.01297641  0.02489734 -0.02108462  0.03849801
  0.00311467 -0.03220148  0.00853952  0.05447492 -0.03230457  0.02803714
  0.00520887 -0.02835238 -0.00513316 -0.01417513 -0.02582991 -0.0158391
  0.0523055   0.01205193  0.02125238  0.03736375  0.02838378  0.00231007
  0.01377153  0.02629408 -0.0097085   0.01050027 -0.035301    0.01103864
 -0.03886446  0.03118856 -0.02645267  0.01889886  0.02900728 -0.02663529
  0.0208632   0.0093667 ]
Hidden_layer_2/kernel:0
(80, 80)
[[ 3.6383746e-04 -2.0796165e-03 -1.7019651e-04 ...  7.9641533e-05
  -4.3233822e-04  8.1612043e-06]
 [-1.8728747e-03 -2.1761663e-03  1.1153123e-03 ... -4.1387480e-04
   2.0488275e-03 -3.8770941e-05]
 [ 2.2508108e-04 -1.2021041e-02  5.7500941e-03 ...  6.9192960e-05
  -1.3215560e-04  4.4290405e-06]
 ...
 [-1.1812716e-03 -3.9393543e-03  5.8375776e-04 ... -2.6267831e-04
   1.3116004e-03 -2.4804605e-05]
 [ 7.3248195e-04  3.3717153e-03 -3.8083008e-04 ...  1.6411889e-04
  -8.5836457e-04  1.6342761e-05]
 [ 2.3842044e-04  6.9131691e-04 -1.0307995e-04 ...  5.1886302e-05
  -2.8516009e-04  5.2772143e-06]]
Hidden_layer_2/bias:0
(80,)
[ 4.01003473e-02  2.65447404e-02 -1.53788440e-02  1.38346152e-03
  1.88685525e-02 -9.42491088e-03 -2.46552844e-02 -3.05523281e-04
 -2.54593939e-02 -2.29581017e-02 -3.82583588e-02 -1.13253547e-02
  4.02423408e-04  2.05404796e-02  4.07117652e-03  6.86042942e-03
  2.09323224e-02  2.21853188e-04 -4.43777395e-03  1.24339126e-02
  1.34725252e-03 -7.46052247e-03  2.24060807e-02 -2.40309793e-03
 -1.62469689e-02  3.58863920e-02  5.73982112e-03  2.62537040e-02
  1.28707951e-02  4.05794941e-03  3.84549215e-03 -4.87198262e-03
  1.35172170e-03 -2.22946182e-02 -2.22831089e-02  1.32922698e-02
 -2.69105379e-02  2.87826788e-02 -2.46221258e-04 -1.20705776e-02
 -1.83390062e-02 -8.40557925e-03  4.36313305e-04  3.30357254e-02
 -1.39365280e-02 -8.64304788e-03  2.34269741e-04  7.43155088e-03
  7.61564402e-03  7.71305131e-05  1.18046748e-02 -5.10672806e-03
  2.87037273e-03  1.59549378e-02  3.50469984e-02  2.08164081e-02
  1.32706985e-02 -1.46195842e-02 -2.71466002e-03  1.53637361e-02
  1.93964299e-02 -1.45366145e-02 -1.14718322e-02  2.71647070e-02
  2.14432320e-03 -1.99021008e-02 -6.96664490e-03  2.75117755e-02
  9.16480832e-03  3.42999934e-03  1.22891264e-02  1.68688502e-02
 -5.75095695e-03  6.49104500e-03  1.78640280e-02  1.79943573e-02
 -6.19402481e-03  6.51889620e-03 -1.29453279e-02  6.02246029e-04]
Hidden_layer_3/kernel:0
(80, 80)
[[-1.7611274e-04 -5.6440488e-04 -1.0218755e-03 ... -3.8636306e-03
  -2.0803302e-04 -5.2398164e-04]
 [-3.7477614e-04 -1.4387290e-03 -7.1441275e-03 ... -1.2497269e-02
  -4.7682217e-04 -4.6350281e-03]
 [-4.1837760e-05 -1.5494950e-03 -7.8212610e-03 ... -1.3110511e-02
  -7.8830424e-05 -1.9228602e-03]
 ...
 [-5.0125847e-05 -1.3707719e-04 -2.5254782e-04 ... -2.7913356e-04
  -5.7653444e-05 -1.7750297e-04]
 [ 2.6572659e-04  8.2457007e-04  9.4902357e-03 ... -7.8284824e-03
   4.0139418e-04  1.4021612e-03]
 [ 2.1261799e-06 -9.1326699e-05  2.1940602e-04 ...  5.3772824e-03
   6.6681866e-07 -4.5564989e-04]]
Hidden_layer_3/bias:0
(80,)
[-0.0195734  -0.01917589 -0.03039899  0.01889678 -0.01866161 -0.02720054
 -0.01990627  0.01969245  0.01848907  0.01905026 -0.02740725  0.01955921
  0.02221244 -0.02144627  0.02447606 -0.02085491 -0.02200286 -0.02071708
 -0.0162061   0.01991281 -0.01862741 -0.01859904 -0.0199146   0.02032694
  0.02416225  0.02105355  0.02337342 -0.01940425 -0.02277789 -0.02086551
 -0.01916591 -0.02487491  0.02178551 -0.01770247 -0.0195758   0.02689375
 -0.02120068  0.02065887 -0.03138383  0.01842889  0.0193383  -0.0172151
 -0.02658029 -0.02017908  0.02215633  0.01954805 -0.02147386  0.01964256
  0.01953675 -0.02161681 -0.02078061 -0.02107392  0.02363931 -0.01976854
 -0.02247487 -0.02032318 -0.00617559  0.01906658 -0.02642084 -0.03149006
 -0.02656824  0.02277656  0.01743662 -0.02223593  0.02294082  0.02223537
 -0.0191954  -0.01979905  0.02987666 -0.01975188 -0.01821301  0.02783694
 -0.01945819 -0.01838418 -0.01967725  0.0197596  -0.01993761 -0.02163582
 -0.02059554 -0.02119434]
output_layer/kernel:0
(80, 1)
[[-0.06193866]
 [-0.15295343]
 [-0.26775903]
 [ 0.13413925]
 [-0.24264763]
 [-0.1029492 ]
 [-0.1599565 ]
 [ 0.19728489]
 [ 0.03045959]
 [ 0.02931227]
 [-0.26529023]
 [ 0.10685726]
 [ 0.10771514]
 [-0.14533848]
 [ 0.01391628]
 [-0.22110772]
 [-0.24607088]
 [-0.05655766]
 [-0.03628435]
 [ 0.26266682]
 [-0.04524639]
 [-0.06257943]
 [-0.2276444 ]
 [ 0.21853401]
 [ 0.16824964]
 [ 0.33694017]
 [ 0.04357151]
 [-0.24041371]
 [-0.04563176]
 [-0.04033227]
 [-0.21651484]
 [-0.07562225]
 [ 0.0612852 ]
 [-0.01967942]
 [-0.10530747]
 [ 0.16031234]
 [-0.16797557]
 [ 0.2600351 ]
 [-0.09482368]
 [ 0.05574499]
 [ 0.08215381]
 [-0.0445621 ]
 [-0.10467563]
 [-0.12670626]
 [ 0.04847517]
 [ 0.23465674]
 [-0.27576178]
 [ 0.11225491]
 [ 0.11805493]
 [-0.0673935 ]
 [-0.03637749]
 [-0.06546932]
 [ 0.088098  ]
 [-0.01708745]
 [-0.15645185]
 [-0.03615825]
 [-0.00075277]
 [ 0.12093204]
 [-0.09481867]
 [-0.14303404]
 [-0.05247659]
 [ 0.19189128]
 [ 0.00066864]
 [-0.2583727 ]
 [ 0.14992638]
 [ 0.04214929]
 [-0.23060265]
 [-0.09054036]
 [ 0.13429712]
 [-0.13803205]
 [-0.21174496]
 [ 0.10114566]
 [-0.16530378]
 [-0.24347445]
 [-0.17191315]
 [ 0.17067435]
 [-0.0416664 ]
 [-0.25602376]
 [-0.07224338]
 [-0.18305372]]
output_layer/bias:0
(1,)
[0.02013073]
