Hidden_layer_0/kernel:0
(4, 80)
[[-2.09690072e-03 -9.31094517e-04 -1.96625199e-03  1.08862478e-05
  -6.30771974e-03  3.08632385e-04  3.21447663e-03 -2.64542922e-03
   4.45830165e-06 -5.21966303e-03 -1.39744789e-03  1.57565635e-03
   3.32336244e-03  6.15401252e-04 -6.78488550e-06 -1.19904578e-02
   6.13709271e-04  1.19454728e-03 -5.24766278e-04  1.15624047e-03
   3.30747920e-03 -2.12421408e-03 -8.34511966e-03  4.95836197e-04
   5.91428397e-05 -3.52833746e-03 -2.47057364e-03  1.32077723e-04
  -2.78194016e-03 -9.02497862e-03 -4.60834103e-03 -7.79394479e-03
   2.94803339e-03 -1.77592260e-03 -5.19286608e-03 -2.27199658e-03
  -3.94884788e-04 -5.36539638e-03 -1.26998127e-03 -8.76846444e-03
  -1.18929781e-02  4.42176417e-04 -3.81842209e-03 -5.88248949e-03
   1.46842236e-03 -2.30209809e-03  2.69779586e-04 -3.80269281e-04
  -1.39707606e-03  1.33536829e-04  1.04936844e-04  3.71393445e-03
  -1.58672140e-03 -1.63248403e-03 -1.58508919e-05  1.08962813e-04
  -6.43905369e-04 -5.75408376e-05 -4.96367458e-04  7.16152077e-04
   4.49632935e-04 -3.88171477e-03 -5.43830567e-04 -3.92350834e-03
   2.50162231e-03  7.62164884e-04 -1.74615707e-03  1.29217794e-03
   3.07347509e-04 -2.38156784e-03 -3.76103446e-03 -1.30131934e-02
   1.46503048e-03 -9.77436639e-03 -4.86159697e-03 -6.51739119e-03
   2.07472453e-03 -5.32547943e-03 -4.05345345e-03 -5.82033489e-03]
 [-2.31659855e-03 -9.51550493e-04 -2.21525086e-03  1.80174393e-05
  -7.04781339e-03  3.39259161e-04  3.40049528e-03 -2.96615600e-03
   1.78781520e-05 -5.90585265e-03 -1.57723424e-03  1.66812621e-03
   3.38681461e-03  6.07432856e-04  2.00061495e-05 -1.31012416e-02
   6.96144067e-04  1.22417684e-03 -5.46080002e-04  6.12267759e-04
   3.39872623e-03 -2.20629992e-03 -9.42060445e-03  5.38364053e-04
   9.26972934e-05 -3.75332357e-03 -2.66547594e-03  1.30088025e-04
  -3.62797431e-03 -1.00713549e-02 -5.12409955e-03 -8.45089369e-03
   3.13311419e-03 -1.92896486e-03 -5.79670677e-03 -2.43492983e-03
  -3.87808890e-04 -6.55599497e-03 -1.46025722e-03 -9.71164461e-03
  -1.28998253e-02  4.60824551e-04 -4.20932658e-03 -6.41219551e-03
   1.57555984e-03 -2.49796850e-03  2.85687333e-04 -3.89277498e-04
  -1.52333814e-03  1.08942717e-04  8.44734677e-05  3.89780477e-03
  -1.77791249e-03 -1.69674936e-03 -3.69850495e-05  1.30742425e-04
  -7.30069238e-04 -7.46793230e-05 -4.71525971e-04  7.22617609e-04
   4.94137581e-04 -4.31802962e-03 -6.07476570e-04 -4.16817702e-03
   2.55437638e-03  7.51399959e-04 -1.89406541e-03  1.30857516e-03
   2.68252887e-04 -2.54108221e-03 -4.38365526e-03 -1.43458461e-02
   1.58442848e-03 -1.08884675e-02 -5.32726571e-03 -7.27235107e-03
   2.22317851e-03 -5.73789934e-03 -4.41261008e-03 -6.27310621e-03]
 [-3.25088785e-03 -1.43941364e-03 -3.19858501e-03  2.46930249e-05
  -1.03404811e-02  4.86375910e-04  4.96352371e-03 -4.27831756e-03
   2.80345448e-05 -8.54913518e-03 -2.18705391e-03  2.36094813e-03
   5.11695724e-03  9.05722962e-04  3.11657132e-05 -1.91967990e-02
   9.06206260e-04  1.80320512e-03 -7.89625454e-04  1.03722839e-03
   4.97967424e-03 -3.31025943e-03 -1.37327183e-02  7.94806459e-04
   1.37956915e-04 -5.48837800e-03 -3.94909456e-03  1.93314510e-04
  -5.20550506e-03 -1.47385914e-02 -7.31642405e-03 -1.24696502e-02
   4.49102791e-03 -2.85163568e-03 -8.08155909e-03 -3.56651074e-03
  -5.50200755e-04 -9.43719409e-03 -2.11628317e-03 -1.40494443e-02
  -1.90693457e-02  6.88303611e-04 -6.03561290e-03 -9.22539178e-03
   2.25632987e-03 -3.64921195e-03  4.18935786e-04 -5.53926686e-04
  -2.26005586e-03  1.55199610e-04  1.36286486e-04  5.76432794e-03
  -2.52188742e-03 -2.42621149e-03 -5.77239116e-05  7.87257159e-05
  -1.07063318e-03 -1.11805770e-04 -7.17820541e-04  1.04531809e-03
   7.13151821e-04 -6.11396460e-03 -8.66926275e-04 -6.12823665e-03
   3.78633034e-03  1.10920623e-03 -2.62345234e-03  1.92319066e-03
   4.10310633e-04 -3.71064083e-03 -6.11352362e-03 -2.12243162e-02
   2.24146107e-03 -1.58862937e-02 -7.63998646e-03 -1.03358440e-02
   3.12969717e-03 -8.39722808e-03 -6.60644006e-03 -9.15793423e-03]
 [ 7.52282664e-02  1.60309300e-02  4.72925976e-02 -2.57674418e-03
   1.24239169e-01  9.29970946e-03 -2.35603172e-02  6.46473318e-02
  -3.38876998e-04  1.07087381e-01  6.80434033e-02 -2.14985367e-02
  -2.76818853e-02 -8.86689685e-03 -4.30899439e-04  1.69413224e-01
  -7.00301081e-02 -2.20780298e-02  7.08551612e-03  1.70219630e-01
  -5.90962917e-02  1.25618344e-02  1.12739570e-01 -3.53215658e-03
  -1.25343620e-03  4.60494570e-02  6.63244575e-02 -1.66919164e-03
   1.12239406e-01  1.28361642e-01  5.15406020e-02  1.03232443e-01
  -3.06955110e-02  2.27669012e-02  3.96808274e-02  3.87283973e-02
   1.86645440e-04  1.57765239e-01  3.94145772e-02  9.64638442e-02
   1.21527575e-01 -1.86974239e-02  6.20749071e-02  7.73291588e-02
  -2.55490113e-02  8.48325342e-02 -6.02401327e-03  5.44485962e-03
   1.01347473e-02  5.62406552e-04 -1.62053891e-02 -2.93202568e-02
   2.92482655e-02  7.00479150e-02  6.35874167e-04 -2.90830974e-02
  -7.71848625e-03 -8.87671765e-03 -5.24799526e-02 -1.09204911e-02
  -1.25641245e-02  5.95282465e-02  3.91483214e-03  2.93834750e-02
  -4.01490517e-02 -1.02623738e-02  7.36837881e-03 -1.66759547e-02
  -9.64234397e-03  3.23859081e-02  1.17523536e-01  1.89685017e-01
  -4.51833829e-02  1.26182809e-01  1.00146405e-01  7.96520635e-02
  -2.34832447e-02  1.03374213e-01  1.05830491e-01  6.08478971e-02]]
Hidden_layer_0/bias:0
(80,)
[-0.00701233  0.01332413 -0.01097494  0.01755778 -0.01078225  0.00747748
  0.08089118 -0.01924983  0.00220879 -0.01329776  0.00480315 -0.00072667
 -0.00949414 -0.00181932  0.0073365  -0.01771837 -0.03098443  0.0104032
 -0.01170389  0.01360429 -0.00157752 -0.07485289 -0.01078924  0.03647182
  0.01431891 -0.01414109  0.00173969  0.0071886   0.00801784 -0.00302697
 -0.04255986 -0.01868529  0.07149083  0.01315662 -0.00850618 -0.01190943
  0.02676936  0.00637194  0.0058251  -0.03105109 -0.02286408  0.01998
 -0.02128415 -0.03270717  0.0127435  -0.02936292  0.02190285 -0.01361926
 -0.06376985 -0.01929202 -0.06399485  0.08310331 -0.04762568 -0.01535931
 -0.00391402 -0.02351574 -0.06771538 -0.01965322 -0.04018865 -0.01871406
  0.05525802 -0.02904523 -0.03342171 -0.03009018  0.01791064 -0.0044272
 -0.02604723 -0.00853178 -0.02655464 -0.02832395 -0.00445287 -0.022761
 -0.00342102 -0.01624278 -0.026236   -0.02514986 -0.0103994  -0.01076472
 -0.0211306  -0.02006516]
Hidden_layer_1/kernel:0
(80, 80)
[[ 0.00370781 -0.00214405  0.00231239 ... -0.00222706 -0.00864442
   0.00563616]
 [ 0.00083019 -0.00042414  0.00040285 ... -0.0003801  -0.00141205
   0.00119606]
 [ 0.00244478 -0.00134276  0.00135028 ... -0.00123101 -0.00439795
   0.00361415]
 ...
 [ 0.00502339 -0.00292137  0.00308016 ... -0.00272546 -0.00812608
   0.00772468]
 [ 0.00466249 -0.0035601   0.00324306 ... -0.00340537 -0.01683233
   0.00869121]
 [ 0.00314932 -0.00182757  0.00181206 ... -0.00167013 -0.00562883
   0.00480052]]
Hidden_layer_1/bias:0
(80,)
[-0.00876109  0.02040577 -0.06570493  0.01107728 -0.01459462  0.00271089
  0.03161369  0.01022657 -0.02095708 -0.0005919   0.01080779 -0.01352666
 -0.001126    0.00157352 -0.00747742  0.03046057  0.04289781 -0.02329602
 -0.0258145  -0.00669317  0.00821362  0.00188241 -0.02679959  0.00129308
  0.00605651  0.0206391   0.01503642  0.00678546  0.02491313  0.0366154
 -0.03850714  0.00337599  0.01712985  0.02406998  0.04177687  0.02303181
  0.02589016  0.04744199 -0.03589952 -0.01403288 -0.01585015 -0.00165332
  0.00096964  0.00358231  0.03051678  0.02653564 -0.03506878 -0.02286091
  0.02541519 -0.01411211 -0.0300363  -0.02032308  0.0031073  -0.02712168
  0.0039308  -0.02071347 -0.01669364  0.00761308  0.04530597 -0.02688885
  0.00122541 -0.04499774 -0.01811604 -0.00025224 -0.02204452 -0.0116111
  0.02411397 -0.00288955  0.0096942  -0.02471108 -0.01760628 -0.01760746
 -0.00432568 -0.00932862  0.0074937   0.00970522 -0.00571227  0.03151659
  0.05489365 -0.04571627]
Hidden_layer_2/kernel:0
(80, 80)
[[-1.83481965e-02  4.20578476e-03  2.49427080e-06 ... -3.91397551e-02
   4.74964654e-05  1.99257885e-03]
 [-2.41655041e-03 -1.30969577e-03 -1.19012475e-06 ...  8.28588672e-04
  -3.55368538e-05 -3.45443492e-03]
 [ 4.20143455e-03  7.65527075e-04  3.06831566e-07 ... -1.08548412e-02
   3.55807024e-05  9.97364242e-03]
 ...
 [-2.28593405e-03 -1.19001640e-03 -1.11090412e-06 ...  2.23326986e-03
  -1.68730912e-05 -3.86941014e-03]
 [-7.90109858e-03 -4.08953568e-03 -5.10286782e-06 ...  9.07753874e-03
  -1.30540007e-04 -2.12284196e-02]
 [ 5.47376601e-03 -6.52715273e-04  4.47293769e-06 ...  2.83510722e-02
   1.18519456e-04  3.01178973e-02]]
Hidden_layer_2/bias:0
(80,)
[-2.40529682e-02 -2.76075769e-02 -4.80091476e-05  2.82116458e-02
 -2.47666296e-02 -2.15296540e-02 -8.68424028e-03  2.88346643e-03
  2.66415477e-02 -7.73106515e-03  1.19776614e-02  1.29325539e-02
  1.88517142e-02 -1.49119105e-02  4.75088088e-03  7.79304234e-03
 -1.17306923e-02 -1.76656060e-02 -2.25044806e-02 -6.28182618e-03
  6.02885208e-04 -8.02525828e-05 -2.92119682e-02 -1.83705632e-02
 -1.93099882e-02  3.28809884e-03  9.07276571e-03 -9.81516857e-03
  6.09732559e-03  2.59029708e-04  2.08081882e-02  8.74077994e-03
 -1.63615197e-02 -6.27758971e-04 -1.87965203e-02 -2.34195590e-02
 -2.50014178e-02 -1.57356020e-02  1.30927691e-03 -1.47205254e-03
 -1.91791188e-02  1.23511668e-07  2.27882163e-04  1.28266066e-02
  6.07413147e-03 -1.49269227e-03 -1.37829222e-02 -1.60797909e-02
 -2.34220959e-02 -8.49594083e-03  6.70654280e-03  9.63242725e-03
 -1.03039350e-02  5.24187693e-03  1.29532125e-02  8.83371476e-03
  2.21423917e-02  8.41043191e-04 -2.68800501e-02 -2.04159319e-02
 -2.52753356e-03 -1.20787323e-02  2.15858761e-02 -1.29215671e-02
  1.17162112e-02 -1.52300056e-02 -9.80060454e-03  4.33713682e-02
 -2.30718739e-02  2.19975933e-02 -1.19129671e-02  8.83530919e-03
 -9.25093424e-03 -2.11675912e-02  8.59878398e-03 -1.40443146e-02
 -1.98960472e-02  2.65465230e-02  1.32227782e-03 -2.36718636e-02]
Hidden_layer_3/kernel:0
(80, 80)
[[ 1.6801305e-02 -2.1026323e-02 -1.1373731e-02 ...  1.0421317e-03
  -5.6006233e-03  3.7747242e-03]
 [-3.5627352e-03 -4.0570688e-03  3.2451348e-03 ...  6.0373044e-04
  -2.5083576e-03  1.7729549e-03]
 [ 4.9898204e-05  8.8689512e-06 -9.0380354e-06 ... -7.6141544e-07
   2.1677370e-06 -1.6451467e-06]
 ...
 [ 5.9004454e-03  4.3109972e-03 -5.1389113e-03 ... -1.0342625e-03
   4.8071085e-03 -3.1940939e-03]
 [ 1.1509470e-02 -1.9057108e-03  5.9242332e-03 ... -5.5059263e-05
   5.3263007e-04 -4.8879610e-04]
 [-1.8332656e-02 -5.0635485e-04  2.3384871e-02 ...  2.2494025e-03
  -9.3987323e-03  7.1980320e-03]]
Hidden_layer_3/bias:0
(80,)
[ 0.01913825  0.01937706 -0.01928567  0.0183347  -0.02144826 -0.01972689
 -0.02004427 -0.02680224  0.02511364  0.022587   -0.01951917  0.02037588
 -0.01907084 -0.01934857  0.01882174  0.01941476 -0.01840457 -0.02366106
  0.01937655  0.01847933 -0.01569188  0.01812555 -0.00521937 -0.02140844
  0.01579575 -0.01851425  0.01916925  0.02507704  0.02053928 -0.01939863
 -0.01853456  0.02910967  0.01902812 -0.01857974 -0.01995378 -0.01960151
  0.02159928 -0.02340321  0.01949207 -0.01933581  0.02018926 -0.01952408
  0.02463521 -0.01817548 -0.02688574 -0.01575972 -0.00624405 -0.01939322
 -0.02140585 -0.0189863   0.01909347 -0.01916031 -0.02501959  0.02702043
  0.01898142  0.01883135  0.0201073   0.0231491   0.02455362 -0.0208788
 -0.02414527 -0.0255853   0.01953985 -0.01939043 -0.01979001 -0.02332196
  0.02255908 -0.01580929 -0.02513551 -0.01921515  0.01950098 -0.01965734
  0.01935927  0.02983498  0.01936297 -0.03141951  0.02725885 -0.02420561
  0.02307809 -0.01954557]
output_layer/kernel:0
(80, 1)
[[ 0.20587756]
 [ 0.2333767 ]
 [-0.1901924 ]
 [ 0.03123426]
 [-0.1122151 ]
 [-0.1912561 ]
 [-0.04262963]
 [-0.2611046 ]
 [ 0.22392131]
 [ 0.13249494]
 [-0.08038142]
 [ 0.186105  ]
 [-0.01059772]
 [-0.04224031]
 [ 0.07798583]
 [ 0.24446991]
 [-0.07125696]
 [-0.17489088]
 [ 0.20804591]
 [ 0.03348419]
 [-0.04099337]
 [ 0.04024846]
 [-0.00108401]
 [-0.16466856]
 [ 0.0289995 ]
 [-0.03643084]
 [ 0.16510025]
 [ 0.1267168 ]
 [ 0.25836244]
 [-0.21766104]
 [-0.29029968]
 [ 0.05452301]
 [ 0.03955438]
 [-0.24041854]
 [-0.15548037]
 [-0.12523772]
 [ 0.27242443]
 [-0.18817241]
 [ 0.14616989]
 [-0.22074667]
 [ 0.07434702]
 [-0.15729743]
 [ 0.11515229]
 [-0.18541172]
 [-0.15879357]
 [-0.00956026]
 [-0.00192677]
 [-0.03921892]
 [-0.17014089]
 [-0.07635258]
 [ 0.12947485]
 [-0.09599809]
 [-0.16589652]
 [ 0.2530857 ]
 [ 0.06968531]
 [ 0.19594948]
 [ 0.26712793]
 [ 0.22101699]
 [ 0.2097448 ]
 [-0.08375292]
 [-0.23254448]
 [-0.25823206]
 [ 0.15283892]
 [-0.10476181]
 [-0.06957757]
 [-0.17868623]
 [ 0.02925553]
 [-0.01474649]
 [-0.17692047]
 [-0.02172377]
 [ 0.23458582]
 [-0.06921154]
 [ 0.1981565 ]
 [ 0.11772207]
 [ 0.19924352]
 [-0.1985195 ]
 [ 0.11166731]
 [-0.03698589]
 [ 0.14708647]
 [-0.10558403]]
output_layer/bias:0
(1,)
[0.01973888]
