Hidden_layer_0/kernel:0
(4, 80)
[[-1.54184399e-05 -4.35485799e-06 -3.38834943e-04 -1.72513304e-04
  -2.10087441e-04 -8.29338169e-05 -5.24731644e-04  1.55416783e-04
   1.34085703e-05  6.75462143e-05 -6.53893585e-05  2.17881825e-04
  -6.06789308e-06 -1.32766319e-04 -1.75831097e-04  9.69571920e-05
   1.01805836e-05  6.62775856e-05 -1.79697032e-04 -3.90746100e-05
  -1.01915321e-05 -3.82517057e-04  7.32709805e-06 -8.16742249e-05
  -8.31217278e-07  5.31770522e-04 -9.52422397e-06  2.47284624e-04
   1.50222666e-04  5.69037074e-05 -7.40898213e-06  2.54538827e-05
  -8.44021415e-05  2.48217602e-05 -3.53956602e-05  1.38104531e-06
  -2.09457612e-05 -3.77951830e-04  7.55907240e-05  3.82581384e-05
  -2.24183357e-04  1.11224137e-04  2.46244908e-05  5.33992425e-05
  -7.73660286e-05  5.28078672e-05 -3.89051183e-06  3.94796407e-05
   3.73525017e-06 -9.92309360e-05  2.16279132e-05  1.22896177e-04
  -7.65744946e-04 -1.55106191e-05  5.71326973e-06 -5.01265786e-05
  -9.37986897e-06  1.26838830e-04  4.81431598e-05  7.19089576e-06
  -4.76322224e-04 -5.05006938e-05 -3.94109637e-04  7.49081810e-05
  -4.86457538e-05 -2.28116889e-07 -4.62536991e-05 -6.93388647e-05
  -3.25007968e-05  3.55320881e-05 -3.23250744e-04 -2.08055237e-04
   4.90262937e-06 -1.19382421e-04 -3.67464439e-04  8.14210216e-05
   3.20466715e-05 -2.76834999e-06 -2.39619752e-04  1.24279977e-05]
 [-6.44218699e-06 -2.54961310e-06 -2.11339313e-04 -1.12609785e-04
  -1.59832009e-04 -5.22865885e-05 -2.71992612e-04  9.34842756e-05
   1.01909372e-05  4.54131878e-05 -2.88068477e-05  1.36063521e-04
  -4.74524904e-06 -8.01605347e-05 -9.51174079e-05  4.33893110e-05
   6.16167381e-06  3.89758206e-05 -1.40970151e-04 -2.44075418e-05
  -6.88287901e-06 -2.08733079e-04  3.98409657e-06 -5.24780189e-05
  -1.16187664e-06 -2.08846213e-05 -6.68938492e-06  1.69060688e-04
   9.38395096e-05  2.80147779e-05 -1.26572659e-05  2.15743930e-05
  -4.99149028e-05  1.07538217e-05 -2.33714381e-05  6.25939208e-07
  -1.73393164e-05 -2.32294449e-04  6.15784229e-05  2.39660567e-05
  -1.50124295e-04  5.57256863e-05  1.72652217e-05  2.54181123e-05
  -4.54241599e-05  3.94591734e-05 -1.80405709e-06  2.51262973e-05
   2.34099321e-06 -7.42764460e-05  1.56376118e-05  7.45303332e-05
  -2.46580865e-04 -1.18619109e-05  2.91971173e-06 -3.15563411e-05
  -6.39395375e-06  6.82783284e-05  3.56806522e-05  5.12810220e-06
  -2.76040519e-04 -4.12041882e-05 -2.29849378e-04  2.40323607e-05
  -3.86221909e-05 -2.01261003e-07 -3.48724498e-05 -5.33354687e-05
  -2.12177547e-05  2.77629788e-05 -1.06132560e-04 -1.22052246e-04
   2.36118149e-06 -8.18243789e-05 -1.68877290e-04  5.14213425e-05
   1.81747964e-05 -2.78478478e-06 -1.24019905e-04  9.47203534e-06]
 [-1.21639005e-05 -4.59260309e-06 -3.80416022e-04 -1.98318390e-04
  -2.72950565e-04 -9.55517462e-05 -5.16794622e-04  1.71861655e-04
   1.62495289e-05  7.76860470e-05 -5.17418594e-05  2.48926051e-04
  -8.99430142e-06 -1.49981934e-04 -1.88549238e-04  7.50350882e-05
   1.19494371e-05  7.43615237e-05 -2.51580524e-04 -4.03302183e-05
  -1.24154703e-05 -3.71088419e-04  7.28825262e-06 -9.84678263e-05
  -2.04400521e-06 -1.94092408e-05 -1.19716278e-05  3.17636528e-04
   1.55600472e-04  5.17651461e-05 -2.62482899e-05  3.38464997e-05
  -9.28133304e-05  2.05631077e-05 -4.64407422e-05  1.18869968e-06
  -3.00895481e-05 -4.12298919e-04  9.64516512e-05  4.99104754e-05
  -3.00065294e-04  9.11390234e-05  3.16244004e-05  4.93454390e-05
  -9.41674807e-05  6.89226799e-05 -3.17491299e-06  4.14725400e-05
   3.86215834e-06 -1.27630643e-04  2.69785396e-05  1.28417640e-04
  -5.26070129e-04 -1.96556484e-05  5.01093609e-06 -5.24854477e-05
  -1.14305776e-05  1.22672558e-04  6.42157247e-05  9.42103816e-06
  -5.10029553e-04 -6.76410782e-05 -4.31127206e-04  4.70694431e-05
  -7.89874102e-05 -2.75494500e-07 -6.64395702e-05 -9.88905740e-05
  -3.68173060e-05  5.02887196e-05 -2.19463283e-04 -2.35513449e-04
   4.71568865e-06 -1.45699087e-04 -3.46338493e-04  9.68550958e-05
   3.76437856e-05 -3.26709801e-06 -2.13416439e-04  1.45621934e-05]
 [ 1.39141567e-02  5.52974176e-03  7.68618882e-02 -3.19687091e-02
   4.44198437e-02  6.46719560e-02  1.40784755e-01 -4.35653962e-02
  -1.01473210e-02 -3.39950994e-02  1.13234237e-01  1.13622487e-01
  -3.67591809e-03  4.80398610e-02 -1.12596750e-01 -6.42389730e-02
  -3.71169834e-03 -7.95249939e-02  1.92741472e-02  2.75130346e-02
  -3.36409500e-03  1.57210305e-01 -9.13863163e-03  1.06813706e-04
  -1.88270044e-02  1.54539749e-01  1.58590917e-02  2.03730874e-02
  -8.02523047e-02  7.14825466e-02  2.18224544e-02 -7.51427980e-03
  -8.27355310e-02 -2.25616321e-02 -4.91921194e-02 -1.53894455e-03
  -3.58811533e-03  8.72671753e-02 -2.88640521e-02  4.82095666e-02
   6.45475239e-02 -5.71591966e-02 -1.25140753e-02 -4.04104814e-02
   5.40651307e-02 -9.76100855e-04  4.17340500e-03 -2.69076023e-02
  -4.05416079e-03  2.64030527e-02 -6.72803074e-02 -1.11293986e-01
   1.67160228e-01 -2.14417633e-02 -6.36222865e-03 -8.97544324e-02
   2.15850156e-02  7.55777061e-02 -3.63031775e-02 -1.09621426e-02
   7.55683631e-02 -9.86006204e-03  1.12133935e-01 -3.68182696e-02
  -2.86855618e-03  4.54236782e-04  1.35450857e-02 -1.14134857e-02
   2.98579261e-02 -1.21046314e-02  9.42704454e-02 -9.61951688e-02
  -5.26206428e-03  2.89695654e-02  8.46759975e-02 -3.32116634e-02
  -5.83951455e-03 -6.50171860e-05  1.11323975e-01 -6.16930332e-03]]
Hidden_layer_0/bias:0
(80,)
[-0.0015334  -0.00045593 -0.03026474 -0.01535312 -0.00533225  0.00196958
 -0.01013123  0.02273384 -0.00458848  0.01371154  0.00221156 -0.00016003
  0.02102752 -0.01724086 -0.01384299  0.00624663  0.00349067 -0.00303791
 -0.00723206 -0.01016465  0.00462421  0.000852    0.00767903  0.02604711
 -0.00730518  0.00707029  0.00466327 -0.00931126  0.02181752 -0.00267542
 -0.00316991  0.02479581 -0.01625399 -0.00176221 -0.01344252 -0.00151103
 -0.00640354 -0.01972994  0.01216183  0.00336463 -0.00868993  0.0162477
  0.02231689  0.01028806 -0.00189933  0.01225501 -0.00578267  0.00131382
  0.00495461 -0.00495689  0.00357695  0.01202621 -0.00817276  0.00863155
  0.00294763 -0.01325329  0.00347409 -0.00041188 -0.00174362  0.00439908
 -0.02402812 -0.01307132 -0.01705832 -0.00331662  0.02710946 -0.00305359
 -0.01143692 -0.02098719 -0.01433014  0.00593815 -0.00678834 -0.017101
  0.00253116 -0.00622298 -0.00813835 -0.00757895 -0.00485042  0.00070784
 -0.00360789  0.00918988]
Hidden_layer_1/kernel:0
(80, 80)
[[-2.59836641e-04 -1.74591318e-04 -4.21025788e-06 ... -1.22678930e-05
  -4.32762772e-06  1.45995982e-05]
 [-1.04732491e-04 -6.97534633e-05 -1.92560128e-06 ... -4.71005160e-06
  -7.24890072e-07  5.72854879e-06]
 [-4.37989272e-02  1.54873924e-02  5.53327566e-03 ... -6.66610940e-05
  -9.25338190e-06 -1.59688015e-02]
 ...
 [ 9.16435733e-04  1.13430651e-05 -3.73679766e-04 ...  6.72492391e-08
  -1.40728424e-08 -5.67971379e-04]
 [-5.19813374e-02 -6.36794325e-03 -1.23310788e-02 ... -1.02338468e-04
  -1.44003498e-05 -1.50373960e-02]
 [-3.48201557e-03  8.04074007e-05  2.33700790e-04 ...  5.61198704e-06
   5.50179038e-07 -3.05422029e-04]]
Hidden_layer_1/bias:0
(80,)
[ 0.00726279  0.02003574  0.00241437 -0.00694758  0.01580227 -0.00586814
  0.00640718 -0.00904196 -0.0110391   0.00775869 -0.01164876 -0.0024078
  0.00339711  0.00111527 -0.01064485  0.01682047 -0.00110465 -0.00521298
  0.00537061 -0.00103938 -0.01422042  0.0052627   0.00376131 -0.00428132
 -0.00224693  0.01591476  0.0110747  -0.00851532  0.00424392  0.00773176
  0.00627163 -0.00420563 -0.00403165 -0.01846676 -0.02194611 -0.00084076
 -0.01589776  0.00789212 -0.00784026 -0.01573078 -0.00880864  0.00090874
  0.0026486   0.00896096  0.00133268 -0.00644329 -0.046805    0.01685912
  0.00253693  0.02135715 -0.0148673  -0.0162995  -0.00999189  0.0021337
 -0.0056289  -0.00635873 -0.02678617  0.00136592 -0.00160248 -0.00806531
 -0.01131948 -0.00783302  0.0115451  -0.0208663   0.01031378 -0.01325169
  0.00182088 -0.00749871 -0.00389326  0.01104118 -0.01071936 -0.00385494
 -0.00660759 -0.00677351 -0.04073897 -0.00141095  0.00365887  0.00483141
  0.00834121  0.0020974 ]
Hidden_layer_2/kernel:0
(80, 80)
[[ 3.5897225e-02 -4.7856595e-04  2.0582415e-02 ... -6.3170097e-05
  -1.3897843e-04 -4.5629698e-04]
 [-6.8583596e-03 -1.0669976e-03  1.2296803e-02 ...  3.8572645e-05
   9.1610716e-05  8.2219916e-04]
 [-4.1829512e-06  1.8615574e-05 -1.0171958e-05 ... -4.7085891e-06
  -3.3988085e-06 -7.7709941e-05]
 ...
 [-7.6386891e-03  9.0656040e-06 -1.2614491e-03 ... -3.0996200e-06
  -1.9061397e-06  2.8753957e-06]
 [-2.0334133e-05  9.2879072e-06 -1.4579441e-05 ... -6.3070861e-06
  -5.4387460e-06 -5.3123731e-05]
 [ 1.6612975e-03  3.1391508e-04  6.2659296e-04 ... -4.4316897e-05
  -3.0014096e-05 -7.7752949e-04]]
Hidden_layer_2/bias:0
(80,)
[ 5.53867687e-03 -5.16094733e-03  6.00585295e-03  7.11493241e-03
  4.76937974e-03 -6.41614152e-03  3.43240914e-04 -1.66443479e-03
 -1.38319749e-02  1.10271424e-02 -5.68410242e-03  1.14243958e-04
  3.84312659e-03 -1.29208104e-06  6.79118559e-03 -2.03093160e-02
 -2.92042107e-03  1.89806521e-03 -4.57114680e-03  5.00370050e-03
  2.22016801e-03  4.78863576e-03  1.35418773e-03 -7.82654528e-03
 -2.85161548e-08 -1.06842868e-04 -1.31457113e-02  1.13275591e-02
 -2.35426868e-03  1.80541666e-03 -2.13459576e-03  1.11612957e-03
  1.91127192e-02  1.30141685e-02 -1.53988999e-08 -8.65917827e-05
  8.32815841e-03  8.54793377e-03  1.42075559e-02 -6.52627181e-03
 -3.11813713e-03 -1.21709211e-02 -7.14187277e-03  2.27386411e-02
  4.56161937e-03  5.10642445e-03 -2.26379372e-03 -2.99930992e-03
  5.91986463e-04 -1.05043538e-02  8.26043834e-04  9.52932425e-03
  2.07112986e-03 -6.79613324e-03  3.92284757e-03 -7.16208259e-10
 -1.01285474e-02  4.17996598e-05 -1.50677189e-02  6.94256101e-08
  4.04218590e-04  5.91508986e-04  1.03591448e-02 -7.45446747e-03
  2.02370629e-05 -1.09593011e-02 -8.39138404e-04  3.19017447e-04
 -3.77635099e-03 -1.06572974e-02 -1.72696952e-02  2.42672438e-09
  1.52477808e-03  2.22948994e-02 -9.58550628e-03  1.77357700e-02
  8.59370735e-03  7.91425293e-04  3.24981241e-03  2.02131812e-02]
Hidden_layer_3/kernel:0
(80, 80)
[[ 4.8600702e-04  7.1530603e-04 -6.8397308e-04 ... -3.9212033e-04
   7.1821542e-04  7.2314462e-04]
 [ 1.3448509e-03  9.3713519e-04 -7.6570822e-04 ... -1.4790821e-04
  -1.0187296e-03  3.0940544e-04]
 [ 6.0384889e-04  1.8055490e-04 -1.7764501e-04 ... -1.2411564e-04
   5.1373441e-05  2.0602428e-04]
 ...
 [ 5.2075557e-06  9.4091483e-06 -1.4516907e-05 ... -1.2208500e-05
   4.1677313e-06  5.9628946e-06]
 [-2.9828728e-04  6.1024602e-05 -5.5827015e-05 ... -3.0141400e-05
   1.7719173e-04  5.7437970e-05]
 [-3.9319485e-02  1.1058743e-02 -7.4351178e-03 ...  4.4374624e-03
  -2.6999664e-02  2.1912835e-03]]
Hidden_layer_3/bias:0
(80,)
[-0.01407586 -0.01756419  0.0150586   0.01269099 -0.01393133 -0.01394238
 -0.01419194  0.0133897  -0.01326757 -0.0117933  -0.013771    0.01393226
 -0.01895645 -0.0132237  -0.0139022   0.01343729  0.0125403  -0.01438685
 -0.01530775 -0.01641281  0.01377994 -0.0133632   0.00825531  0.01374248
 -0.01930274  0.00980467 -0.0140106  -0.0162701   0.01370454 -0.01463878
 -0.01399335 -0.01543509  0.01002297  0.01063592  0.01370767 -0.01845489
  0.01462775 -0.00928495  0.01767886  0.01351148 -0.01481941 -0.01411296
 -0.01868163 -0.01804493  0.01169835 -0.01520525 -0.01654061 -0.01552899
  0.01341559 -0.01456494 -0.01519306  0.01370498 -0.01404107  0.01565254
  0.00966512  0.01045044 -0.01184214 -0.01685738  0.01301373  0.01334504
  0.01344639 -0.01425473  0.00706778 -0.01550865  0.01354552 -0.01887191
 -0.00170694 -0.01634215 -0.0143898   0.01359536  0.01356495 -0.01426377
  0.01708696  0.01448718 -0.0155696   0.0131484   0.01690499  0.0135269
 -0.0140413  -0.018673  ]
output_layer/kernel:0
(80, 1)
[[-0.22955143]
 [-0.19395958]
 [ 0.18101685]
 [ 0.2098381 ]
 [-0.25272715]
 [-0.21910104]
 [-0.13086072]
 [ 0.1154597 ]
 [-0.15649168]
 [-0.08085775]
 [-0.05415187]
 [ 0.0750585 ]
 [-0.14962374]
 [-0.09655358]
 [-0.19599925]
 [ 0.0737655 ]
 [ 0.16050112]
 [-0.11847112]
 [-0.05756531]
 [-0.1635062 ]
 [ 0.09409848]
 [-0.0960152 ]
 [ 0.01373829]
 [ 0.22644715]
 [-0.13010924]
 [ 0.0089199 ]
 [-0.16151002]
 [-0.22365266]
 [ 0.12270089]
 [-0.05417559]
 [-0.21159996]
 [-0.07953362]
 [ 0.00810237]
 [ 0.06048925]
 [ 0.19937685]
 [-0.16355535]
 [ 0.08277684]
 [-0.00481799]
 [ 0.05726551]
 [ 0.18936265]
 [-0.01768065]
 [-0.17968985]
 [-0.18122278]
 [-0.19108407]
 [ 0.15022704]
 [-0.13652179]
 [-0.20891641]
 [-0.09687746]
 [ 0.13456224]
 [-0.17076594]
 [-0.18655185]
 [ 0.23929158]
 [-0.27096304]
 [ 0.01668326]
 [ 0.00804788]
 [ 0.00687188]
 [-0.01597271]
 [-0.19276106]
 [ 0.14635277]
 [ 0.12410359]
 [ 0.19884989]
 [-0.1155993 ]
 [ 0.01079389]
 [-0.13235818]
 [ 0.23190893]
 [-0.11168972]
 [-0.00214444]
 [-0.12082045]
 [-0.14151631]
 [ 0.1222521 ]
 [ 0.19857648]
 [-0.25798222]
 [ 0.10821805]
 [ 0.16907094]
 [-0.11693571]
 [ 0.14026277]
 [ 0.14333762]
 [ 0.10392012]
 [-0.20232429]
 [-0.19736168]]
output_layer/bias:0
(1,)
[0.01399918]
