Hidden_layer_0/kernel:0
(24, 80)
[[-6.93491381e-03 -1.56095829e-02  2.37683021e-02 ... -2.77102664e-02
   1.74424582e-04  1.37943523e-02]
 [-1.43318726e-02  5.20302989e-02 -1.95119366e-01 ...  1.24013193e-01
   2.44286824e-02  1.11395307e-01]
 [ 2.31122859e-02  5.17299138e-02  8.46758857e-02 ...  1.44738075e-03
   8.77298135e-03  4.94685918e-02]
 ...
 [-1.54118031e-01 -6.54517710e-02  1.84326261e-01 ... -2.71701247e-01
   5.26822269e-01  1.07155763e-01]
 [ 9.57132280e-02  2.12035775e-01  2.74809927e-01 ... -8.38828012e-02
   4.66946792e-03  2.90559083e-02]
 [ 1.77252635e-01  3.09939742e-01  1.88086674e-01 ...  1.74997196e-01
  -1.13303974e-01 -1.27976358e-01]]
Hidden_layer_0/bias:0
(80,)
[-0.06341234 -0.09584846 -0.03956212  0.02525004 -0.03215326  0.00109301
 -0.01078562 -0.07991706  0.05494327  0.01912103  0.01730207 -0.06305791
  0.05421016  0.00977168 -0.10623316  0.00212547 -0.08408974  0.00284641
 -0.05386863  0.01018481 -0.14650787 -0.03070546 -0.00185776  0.01935801
  0.0208967   0.00830548  0.0053538  -0.00494802 -0.01791001 -0.017407
  0.03135868 -0.03649114 -0.04040122 -0.03974932 -0.07273422 -0.12567908
  0.00936419 -0.13866553 -0.143462    0.03109611 -0.0349925   0.00680455
 -0.05685594  0.00500178 -0.01086105 -0.09739631  0.04316754 -0.04438418
 -0.00032059 -0.03822026 -0.03390627 -0.04466659 -0.02110237  0.01167691
 -0.03721523 -0.13298771  0.0089374   0.03132986 -0.08968607  0.06009904
 -0.02269058  0.02516849  0.00089553 -0.06089438  0.11002845 -0.08604713
 -0.04436913  0.0354502  -0.02282481  0.00925488 -0.11871455 -0.03002169
 -0.03003279 -0.04742134 -0.03215295 -0.00114278  0.01038219 -0.07136771
  0.00380671  0.04780155]
Hidden_layer_1/kernel:0
(80, 80)
[[-0.0685161   0.08741859 -0.01010192 ...  0.01631175 -0.08164563
  -0.00519734]
 [-0.00283792  0.05098692 -0.05630929 ...  0.01289758  0.01052231
   0.00758423]
 [ 0.01595293  0.10441864 -0.03498412 ... -0.00552696 -0.0397914
   0.0244347 ]
 ...
 [-0.10923623 -0.03141581 -0.14184499 ... -0.03721148  0.00293052
  -0.03639831]
 [ 0.13876775 -0.14906998 -0.01156639 ... -0.11171367 -0.00179551
   0.02375402]
 [-0.01068881 -0.0232776  -0.09796627 ... -0.07565735  0.05060278
   0.00120928]]
Hidden_layer_1/bias:0
(80,)
[-9.34311189e-03 -3.97440046e-02  1.55203056e-03  6.21999195e-03
 -4.48129373e-03 -1.81385409e-02  1.11409789e-02 -1.50871845e-02
 -3.77678424e-02  7.21497170e-04  9.54620074e-03  2.32668221e-02
 -1.58655792e-02  1.35415979e-03 -1.55246062e-02  8.00567307e-03
 -6.80981390e-03 -1.71458372e-03 -2.75143255e-02 -1.82355326e-02
 -3.36122625e-02 -7.40899798e-03 -3.89165594e-03  2.08109777e-05
 -1.84796676e-02  4.47251322e-03  3.48147471e-03 -1.28327683e-02
 -4.86208946e-02  3.87177663e-03 -9.53769311e-03 -6.20076619e-03
 -1.32530024e-02 -9.48343892e-03  7.04893889e-03  3.07047041e-03
 -7.07224570e-03  1.57596190e-02 -8.19438417e-03 -1.43670207e-02
 -2.55366229e-02  7.56602501e-03  2.04774085e-03  1.14835436e-02
  4.87745274e-03 -1.61113543e-03  1.34086842e-02 -4.95275343e-03
 -8.23109876e-03 -2.21008528e-03  3.03210923e-03 -2.93195900e-02
 -7.71265849e-03 -1.62345043e-03  5.83538786e-03 -1.56003786e-02
 -4.27499600e-03  3.86039470e-03  1.28573207e-02 -2.65063047e-02
 -4.70860279e-04  6.77370792e-03  1.83156189e-02 -2.50702701e-03
  7.37401145e-03 -2.95067090e-04 -1.54615203e-02  1.43223885e-03
 -3.10626868e-02 -1.27013503e-02  5.24416100e-03 -1.22515159e-02
 -1.89981912e-03 -1.63380802e-02 -5.74754667e-04  4.11453284e-03
 -4.90862690e-03 -2.63927970e-04 -1.92345046e-02  1.77412049e-03]
Hidden_layer_2/kernel:0
(80, 80)
[[-0.02304962  0.11764572  0.03343276 ... -0.02349501 -0.05791523
  -0.01328214]
 [ 0.02636282 -0.13276577  0.01772966 ...  0.1199644  -0.10749283
  -0.05983254]
 [-0.04253367  0.00944449 -0.06573188 ... -0.0308997   0.00625461
  -0.01331079]
 ...
 [ 0.02736497  0.02147982 -0.01264614 ... -0.04143669  0.07776105
   0.02803393]
 [-0.07672867  0.04598859  0.08463438 ...  0.01778922 -0.00345396
   0.02010952]
 [ 0.03365732 -0.03285752  0.01419626 ...  0.00945334 -0.01373927
   0.04818881]]
Hidden_layer_2/bias:0
(80,)
[-2.04970082e-03 -1.20484727e-02 -4.19675373e-03  1.00804283e-03
  5.23277838e-03  5.26890438e-03 -8.52593966e-03  1.49655202e-03
 -2.40487838e-03  4.67705261e-03 -1.44613227e-02  9.94445436e-05
 -3.02178692e-03 -1.02175341e-03 -2.08128430e-03 -1.61428889e-03
 -4.02771914e-03  3.92632652e-03  7.38520583e-04 -1.41757121e-02
  2.45685154e-03 -2.47340836e-02  4.41122288e-03 -1.61085520e-02
  2.39983536e-04 -1.49669237e-02 -1.39672700e-02  1.49354236e-02
  1.53439038e-03 -1.44577981e-03  6.49472140e-03  3.57565912e-03
 -5.10910014e-03  5.12259314e-03  5.43184672e-03 -1.02705101e-03
 -2.73970654e-03  1.42320851e-03 -5.97523525e-04  1.48171955e-03
 -2.51915748e-03 -1.40985489e-04  1.11540863e-02 -2.08148677e-02
 -2.51009054e-02 -6.46075141e-03 -4.59767319e-03  1.14285955e-02
  2.63922685e-03 -3.07563245e-02  6.08871924e-03 -7.71270785e-03
 -9.18981852e-04  7.65550369e-03 -4.49196715e-03  7.30535656e-04
  2.91883294e-03  3.46181309e-03 -9.41677950e-04  9.01034195e-03
 -2.08465685e-03  7.86960497e-03 -3.24295312e-02 -3.88615252e-03
  5.21873683e-03 -1.12946695e-02 -9.38723423e-03 -7.38658244e-03
 -4.52265795e-03 -2.18408951e-03 -1.07067544e-03  8.42639618e-03
 -4.37217474e-04 -2.56570725e-04  4.10657190e-03  7.50965625e-03
 -1.77924260e-02 -9.09240171e-03 -1.21941725e-02  5.52204018e-03]
Hidden_layer_3/kernel:0
(80, 80)
[[-0.02010142 -0.02581742 -0.0092679  ...  0.00343381  0.03635384
   0.03575391]
 [-0.02385535  0.18072794  0.02640809 ... -0.01963344 -0.14033419
   0.1012286 ]
 [ 0.02304515  0.0126308   0.02742671 ... -0.00421445  0.04720797
   0.00459342]
 ...
 [ 0.07578373 -0.08497486 -0.01455565 ... -0.01418029  0.01258167
   0.04240775]
 [-0.13239114 -0.13552336 -0.05504718 ...  0.07785712 -0.05932925
   0.03506599]
 [-0.03256183  0.03456841  0.00179652 ... -0.11202265  0.02007384
   0.05518543]]
Hidden_layer_3/bias:0
(80,)
[ 6.6799861e-03  2.2387089e-02 -4.9264031e-03 -3.1314079e-02
 -6.8321395e-05  1.4709310e-03  1.6404138e-03 -3.8817653e-03
  1.5006968e-02  2.1600444e-03 -8.7615065e-03 -4.7211463e-04
 -1.6688233e-03 -4.9610360e-04 -3.1356590e-03 -7.4860873e-03
 -5.8592968e-03  2.2384208e-03 -7.2029448e-04  4.0080491e-03
 -3.8504489e-03  2.3773210e-03 -3.6859061e-03 -3.4527229e-03
 -1.1536462e-02 -4.8267264e-03  3.4534165e-03  1.7506361e-02
  3.4242356e-03 -3.2994960e-02  2.0741371e-03 -1.1552798e-02
  2.1088878e-02 -1.5054985e-03  2.2426692e-03  7.5366080e-04
 -2.1385476e-03  1.2318583e-02 -1.0061417e-03 -3.2884055e-03
  4.5277122e-02 -2.8329263e-02 -4.8211920e-03  3.7823459e-03
  2.4651180e-03 -3.7269183e-03 -2.2598163e-03 -3.2080556e-03
  2.1473832e-02 -2.8117692e-02  1.7895040e-03  4.1514984e-03
  5.3691556e-04  1.9445941e-03 -4.0199780e-03  9.3074795e-04
 -2.8083084e-02 -6.1175972e-03  8.5022440e-03  1.9940387e-02
  3.0712432e-03 -1.6959768e-03 -5.7196524e-03  8.5298857e-03
 -2.0981271e-02  2.3114935e-03 -5.0849130e-04  7.5919754e-03
 -5.3190133e-03  1.2423418e-03 -2.0699243e-03  5.0472482e-03
 -1.9183658e-03 -6.6881105e-03  2.6370268e-02 -1.0555809e-03
 -1.3064904e-04 -3.8632529e-03  2.1772815e-03 -1.4307182e-03]
Output_layer/kernel:0
(80, 24)
[[ 2.24163800e-01 -5.54989390e-02  5.29796958e-01 ...  6.07740358e-02
  -6.48294663e-05  6.53311936e-03]
 [-6.16771460e-01  1.36799192e+00 -2.23058328e-01 ...  9.43211466e-02
   1.74285900e-02 -1.11272298e-02]
 [ 2.86325246e-01  3.12458754e-01 -1.55792311e-01 ...  1.33059919e-02
   8.71455180e-04  1.87038584e-03]
 ...
 [ 1.65197358e-01 -7.19626769e-02 -3.42915505e-02 ... -1.13608325e-02
  -2.84908712e-03 -6.32104173e-04]
 [-5.48806369e-01  3.36200967e-02  4.85907257e-01 ... -4.80696782e-02
   2.89895659e-04 -1.11462548e-02]
 [ 4.13696766e-01  3.30676109e-01  2.02087805e-01 ...  4.51210849e-02
  -4.38547460e-03  7.11844908e-03]]
Output_layer/bias:0
(24,)
[-4.0351793e-01 -2.8120333e-01  6.6358306e-02 -5.3835575e-02
  2.3879156e-01  1.9818868e-01 -1.4770253e-01  6.4554177e-02
  8.0208136e-03  2.3014022e-03  2.0843635e-01  3.9951455e-02
  3.3399772e-03  2.7579695e-02 -2.1328453e-02 -1.5126389e-03
  6.0286555e-03  1.2180304e-02 -2.2400277e-02 -4.2487465e-02
  1.1566038e-02 -5.2427839e-02 -1.5798115e-04  6.3185901e-03]
