Hidden_layer_0/kernel:0
(24, 80)
[[ 0.00789116  0.0117309  -0.01175812 ...  0.00157025 -0.00684039
  -0.00055189]
 [ 0.00184099  0.02361904  0.07406943 ... -0.06014595 -0.09709164
   0.0485708 ]
 [ 0.07010634 -0.01656039 -0.03994707 ...  0.05352367 -0.02172357
  -0.02012363]
 ...
 [-0.34440792 -0.26805976 -0.46113864 ... -0.12694545  0.12846348
   0.00628289]
 [ 0.0449614  -0.01120103  0.25566632 ... -0.03127224 -0.29671332
  -0.05272512]
 [-0.2570968  -0.02620741 -0.19532906 ... -0.14502382  0.22968866
   0.26917526]]
Hidden_layer_0/bias:0
(80,)
[-3.37733030e-02  5.80839328e-02 -7.92134628e-02  7.91240670e-03
  1.40611112e-01  1.82377025e-02  9.41948779e-03 -2.96378545e-02
  2.58995388e-02  2.96942741e-02 -1.09655261e-01 -2.83728726e-02
 -1.06172953e-02 -1.07610440e-02 -2.73130834e-02 -5.69175668e-02
 -2.06997804e-02 -5.13446191e-03 -5.94200473e-03 -3.60695757e-02
 -3.99726145e-02 -1.33449495e-01  2.95166932e-02 -5.06452285e-02
 -2.48975307e-03  3.72220427e-02 -1.17356731e-02 -1.65476371e-02
  1.93097896e-03  4.58393358e-02  1.26641365e-02 -6.80673821e-03
 -9.52252075e-02  5.82883283e-02 -1.37846515e-01  7.13769859e-03
 -2.84031518e-02  3.19753401e-02  3.00494079e-02  8.24867859e-02
  1.72750000e-02 -1.32004559e-01 -3.82560771e-03  4.36694473e-02
 -4.67032865e-02 -4.14986536e-02  5.49461804e-02 -5.05837798e-02
  9.81137715e-03 -7.85427988e-02  4.69299294e-02 -1.22075319e-01
 -4.72729504e-02 -5.40294610e-02  2.69531477e-02 -8.83446354e-03
 -4.73470911e-02 -8.23183879e-02 -5.90318739e-02 -6.07357658e-02
 -8.45943578e-03 -8.14757030e-03 -1.38349627e-04  3.90181690e-02
 -1.43283293e-01  6.45498559e-02  3.26741077e-02  1.83749739e-02
  7.00419303e-03 -1.52306557e-01  1.53926620e-02  1.15581322e-02
 -5.38849570e-02  4.46859486e-02 -3.29858996e-02  8.99052545e-02
 -5.01913689e-02  1.20649217e-02 -1.07390629e-02 -1.02502024e-02]
Hidden_layer_1/kernel:0
(80, 80)
[[ 0.00519412  0.08795472 -0.0201878  ...  0.07178278  0.02784804
   0.02483162]
 [ 0.0043143   0.045291   -0.02463417 ...  0.02153858  0.03484613
  -0.02465582]
 [-0.02241975  0.11219557 -0.04277893 ...  0.03086966  0.00906767
  -0.04187433]
 ...
 [-0.07466253 -0.01869751 -0.02378857 ...  0.0241625   0.01024495
   0.00671049]
 [ 0.03002037 -0.00546432  0.06104866 ...  0.00811804  0.06291204
   0.00792209]
 [ 0.00818347  0.05385721 -0.02845371 ...  0.0619785   0.06097015
   0.04944126]]
Hidden_layer_1/bias:0
(80,)
[ 3.9318935e-03 -4.9632773e-02  5.2835555e-03 -1.3714942e-02
  1.0456919e-02 -2.1763699e-02 -2.1871401e-02 -6.7642801e-03
  7.7314940e-03  8.6316625e-03  4.3402137e-03 -8.6464761e-03
 -2.0888615e-02 -4.1396073e-03  3.0709025e-03  6.9903713e-03
 -2.2784099e-02 -3.4665852e-04 -4.7300914e-03  2.0596810e-02
 -4.6499908e-02 -1.6732719e-02  1.9294256e-02  2.5216559e-02
 -1.2247884e-02 -2.1699199e-03 -3.4913145e-02  1.5391599e-03
 -1.8284759e-03 -3.7868505e-03  9.0912711e-03  3.8435474e-02
 -2.9653829e-02  7.3510222e-03 -4.5069295e-04  1.2399681e-03
 -3.9229048e-03  8.3754370e-03 -1.1063975e-02 -3.0200998e-03
 -1.4098082e-03 -8.3035221e-03  1.7848865e-03 -1.1593075e-02
  1.1209717e-02  1.8565411e-02  5.9247720e-03 -9.1532369e-05
  2.0148471e-02 -5.2102418e-03  1.3443482e-02 -2.4424803e-02
  9.3648722e-03 -1.4207705e-03 -6.7440239e-03  9.8735597e-03
 -2.2709146e-03 -3.6982764e-02  1.2100610e-03  6.1951922e-03
 -4.4950088e-03 -8.6205835e-03 -6.6614719e-03 -2.6563687e-02
 -1.2917778e-03 -3.5414390e-02  9.4852950e-03 -1.5613726e-02
  1.6395228e-02  2.1068475e-04 -3.8630717e-02 -7.9121385e-03
 -2.1647915e-02  5.1838937e-03  7.6058530e-03  9.8113213e-03
 -3.9610300e-02  9.4876235e-04  5.5734883e-03 -2.9831289e-03]
Hidden_layer_2/kernel:0
(80, 80)
[[-0.01043022  0.02190181  0.03711307 ... -0.05253942  0.00206154
  -0.01364162]
 [-0.01772531 -0.01885333 -0.04111763 ...  0.05456763  0.01168507
  -0.0275807 ]
 [ 0.00309745  0.0017712   0.01759111 ... -0.01120844  0.02201393
  -0.00863352]
 ...
 [ 0.01783234  0.02842536 -0.00040379 ...  0.00042967 -0.06253239
   0.01473485]
 [-0.05015699 -0.02081848  0.10465608 ...  0.06544159  0.00733851
   0.01429012]
 [-0.01952857  0.01212725  0.01422305 ... -0.03275214 -0.0415444
  -0.01892398]]
Hidden_layer_2/bias:0
(80,)
[ 2.95055076e-03  1.05937049e-02  4.78419987e-03 -3.36723548e-04
 -2.28786725e-03 -3.56375985e-03 -6.68650446e-03  3.55598563e-03
  9.05603729e-03 -5.74942213e-03 -3.75407049e-03  1.26954180e-03
  1.14637625e-03 -1.55753794e-03  1.98466424e-03  7.45499274e-04
  3.15257814e-03 -3.85785406e-03 -5.40110050e-03  7.78781483e-04
 -1.02405241e-02 -1.90135953e-03  7.04951468e-04 -6.72719954e-03
  4.12785960e-03 -1.94686884e-03  1.64375023e-03  2.98678083e-03
  4.17406112e-03 -1.50893489e-02 -2.27114512e-03  1.75291172e-03
  4.01804643e-03 -3.38119012e-03 -9.27201100e-03  1.67744805e-03
  4.36446490e-03  1.55542605e-03  1.42783538e-05  3.44973081e-03
  1.04179755e-02  6.95627998e-04 -4.82283812e-03 -2.55019940e-03
  4.93496843e-03 -6.89025689e-03 -2.12459546e-03  4.64316551e-03
 -3.81675037e-03  2.25937780e-04  2.48451717e-03 -1.24621950e-02
 -2.37576594e-03  2.51206988e-03  1.62826770e-03  2.03891937e-03
 -9.17493366e-03  5.52817201e-03  3.54811375e-04 -1.46011347e-02
  5.49324928e-03 -2.03773589e-03 -4.68280911e-03  5.59137145e-04
 -2.99762608e-03  2.07192078e-03  2.43269117e-03 -1.05554229e-02
  1.50361918e-02  1.52035279e-03 -3.11269355e-03 -3.17792641e-03
 -1.32840057e-03 -5.52288489e-03 -2.28054286e-03  2.69099930e-03
 -4.65444289e-03  6.75240858e-03  3.77461605e-04 -4.46163025e-03]
Hidden_layer_3/kernel:0
(80, 80)
[[ 0.00975998  0.00129161 -0.0022544  ... -0.05067856 -0.05866938
  -0.02093995]
 [-0.12082175 -0.00258433  0.12635155 ...  0.1592152   0.06599505
   0.04059857]
 [ 0.02824899  0.01422815 -0.0558822  ...  0.01455026  0.04953895
  -0.00186498]
 ...
 [ 0.21717514 -0.00153078  0.12762533 ... -0.04147742  0.1461079
  -0.03220157]
 [-0.00810327 -0.01612352  0.0275426  ... -0.03472329  0.01947776
   0.03232857]
 [ 0.01031427 -0.03684619  0.02293703 ...  0.05737717 -0.02881273
   0.03657398]]
Hidden_layer_3/bias:0
(80,)
[-1.3180836e-02  2.4292639e-03 -1.8962980e-03 -1.0616891e-03
 -1.5535934e-03 -1.7914237e-03  2.4295354e-03 -1.0107907e-03
  1.1499850e-02 -4.8376839e-03  2.9567399e-03  7.6844241e-04
  1.3917719e-03  1.2536356e-03 -5.7147518e-03  3.3150769e-03
  3.6547810e-04  1.2912329e-04  2.0960208e-03 -3.8123663e-04
 -1.2584517e-03  6.6262943e-04 -5.3471881e-03 -2.3180628e-02
 -2.5954708e-03 -1.6679411e-03 -9.3910228e-03  6.9600076e-04
 -1.1638657e-03  3.4804558e-03  7.1539464e-03  7.0010354e-03
  1.9547623e-03 -5.4496671e-03 -7.0846634e-04  3.1064185e-03
 -9.9120149e-03  3.5858780e-04 -6.6745735e-04  1.6049733e-02
 -1.3611756e-03 -2.5352321e-03  4.4196965e-03 -2.0544541e-03
  1.0599694e-02 -1.5342082e-03 -1.5759068e-03 -3.8317413e-04
  6.3944829e-04  6.0775126e-03 -3.2859899e-03  2.7733680e-04
 -1.1584663e-03  3.5686297e-03  1.1492290e-03 -1.0788996e-03
 -6.7628752e-03  1.0682059e-03 -1.5689314e-03 -7.1030918e-05
  1.3765045e-04 -9.1028353e-03  1.5776291e-03  2.6572626e-03
  2.2631447e-04  1.7724802e-03  3.7703863e-03  2.0909263e-04
 -4.3815281e-03  1.2166519e-03  1.5493003e-03 -9.4101951e-03
 -5.5146069e-05  4.6967636e-03  5.7791692e-04  1.9971398e-03
  1.0881100e-02 -7.5895735e-03  1.2024341e-02  8.0645160e-04]
Output_layer/kernel:0
(80, 24)
[[ 3.9961677e-02 -4.7736636e-01 -3.7078310e-02 ... -4.1685827e-02
  -2.7007945e-02  2.6726345e-02]
 [-8.9296766e-02  1.9030425e-01 -3.5940871e-01 ... -3.5424143e-04
  -2.5094869e-03 -6.2881955e-03]
 [ 8.4347963e-01  5.8902764e-01 -6.6013336e-01 ...  5.4963149e-02
   1.9489622e-02  2.1700190e-02]
 ...
 [-1.2661627e-01  8.7444466e-01  8.1866339e-02 ... -3.2125659e-02
   1.8564485e-02 -5.6987401e-02]
 [ 3.0834278e-01 -7.0867412e-02  7.1587086e-01 ... -3.9719943e-02
  -7.8000231e-03 -1.0405260e-03]
 [-2.3877150e-01 -1.4819181e-01  2.0095603e-01 ...  1.4515498e-04
  -6.7495722e-03  5.0604949e-04]]
Output_layer/bias:0
(24,)
[-0.30501834 -0.10916086 -0.09150498 -0.17705236  0.28511733  0.13408643
 -0.11612956  0.09365353  0.04724915  0.00064933  0.03322065  0.00355022
  0.00048513  0.00602385 -0.05401596  0.00504052  0.00927962  0.01310808
 -0.00992852  0.00210195 -0.00085846 -0.00912376 -0.0028543   0.00637428]
