Hidden_layer_0/kernel:0
(24, 80)
[[-0.00475862 -0.00175108 -0.03423616 ... -0.08578005  0.02887598
   0.02710042]
 [-0.00838289  0.0029727  -0.04964757 ...  0.130667   -0.0307599
  -0.02084482]
 [-0.00316052 -0.02225494  0.04363104 ...  0.11914705 -0.04330413
  -0.01094023]
 ...
 [-0.01213832 -0.01528226  0.19541557 ...  0.12674305 -0.1556068
  -0.55751026]
 [-0.00668313 -0.03590801  0.36378688 ...  0.45437157  0.03018986
   0.04141515]
 [-0.03938516  0.09641954 -0.2631661  ... -0.1072194   0.06491365
   0.150881  ]]
Hidden_layer_0/bias:0
(80,)
[ 0.00941449  0.00207816 -0.02780724 -0.05131862 -0.01918746  0.01880463
  0.00496133 -0.00055599  0.00555992  0.01337285 -0.0257999  -0.04147709
  0.01793077 -0.05938543 -0.09931573 -0.1068192  -0.0091967   0.02746535
  0.00460386 -0.00690742 -0.12559636  0.00605529  0.05891248  0.01872609
  0.01146766 -0.01195236 -0.03120389 -0.01153362 -0.025961   -0.01103654
 -0.04073749  0.06475165  0.078672    0.03844451 -0.11349893 -0.00790193
  0.02342422  0.07912224  0.02822665 -0.03248914 -0.02300651  0.04760653
  0.04634181 -0.07204312 -0.10538598 -0.01602254 -0.11321919  0.04969673
  0.00433846  0.01258888 -0.00814792 -0.08433026  0.0805793  -0.01780105
  0.02551739  0.03933536  0.00687233  0.00210132  0.00320353 -0.06950479
  0.05699548  0.06481939 -0.05684616 -0.02350673  0.01291303 -0.0129317
 -0.00441059 -0.13378178 -0.1141153  -0.02096124 -0.05583079 -0.06152665
 -0.14096007 -0.1328281   0.05978712 -0.04262446  0.06122477 -0.14645132
  0.06746231 -0.03212919]
Hidden_layer_1/kernel:0
(80, 80)
[[-0.01788116  0.02845566 -0.02157469 ... -0.01281079  0.00195688
  -0.04442424]
 [-0.0155566   0.00756065  0.05411555 ... -0.01064276 -0.00989657
   0.05065465]
 [ 0.07650048  0.1552674   0.03447583 ... -0.00726694  0.0208159
  -0.05258033]
 ...
 [ 0.00089159 -0.01748085 -0.14533463 ...  0.01999216  0.01264331
  -0.05162898]
 [-0.03401387  0.08363734  0.09632427 ... -0.03141457 -0.03464615
  -0.0233699 ]
 [-0.02900669 -0.08809837 -0.06592521 ...  0.01305876  0.07208351
  -0.04667768]]
Hidden_layer_1/bias:0
(80,)
[-1.30399317e-02 -3.75580080e-02  2.95283808e-03  1.76212229e-02
 -6.55133417e-03  7.35361536e-04  2.54088938e-02 -2.90364563e-03
  1.35281105e-02 -4.40281630e-03  1.13277847e-03 -1.54476112e-03
 -2.72646639e-03 -2.05710698e-02 -3.96484276e-03 -9.07348283e-03
 -1.22814449e-02 -1.66174620e-02 -2.04576943e-02 -1.27909677e-02
  3.93828563e-03  2.48704497e-02  1.61375608e-02 -2.84436923e-02
  8.88259849e-04  8.43476737e-05 -6.93864282e-03  1.22406557e-02
 -1.85253788e-02  5.07433107e-03 -3.21558444e-03  5.62582980e-04
 -6.02102792e-03  8.94712657e-03 -1.13246683e-02 -1.27458656e-02
 -9.49887186e-03 -1.08524831e-03 -1.70930643e-02  1.26691815e-02
  8.73824582e-03 -2.54919566e-02 -4.94683487e-03 -7.77076976e-03
  5.94492070e-03 -2.07599089e-03  1.87294483e-02  1.98178622e-03
  1.18404822e-02  7.04852340e-04  1.72023964e-03 -6.31987071e-03
  1.39799463e-02 -5.53083513e-03 -2.95974081e-03 -9.53600556e-03
 -1.08115445e-03  5.03800297e-03 -1.54383597e-03  6.33032620e-03
  1.31170804e-04 -2.81323749e-03 -3.97688616e-03 -4.63383012e-02
 -1.11420006e-02 -1.74439661e-02 -9.26756859e-03 -9.49226879e-03
 -1.41541585e-02  6.77009812e-03  4.01067501e-03  1.29229659e-02
  2.72336043e-03  5.22408308e-03 -7.51106627e-03 -6.36859913e-04
 -3.49073857e-02 -1.35867202e-04 -7.02623045e-03 -7.01443339e-03]
Hidden_layer_2/kernel:0
(80, 80)
[[-0.05840776  0.05610527 -0.01998979 ...  0.06367134 -0.0207096
   0.14279854]
 [ 0.02664625 -0.009864   -0.0430604  ...  0.13048272 -0.04505525
  -0.03608416]
 [ 0.08510275  0.03079356 -0.0428538  ... -0.00190551  0.03200846
   0.02188525]
 ...
 [-0.02197325  0.04055975 -0.00893536 ...  0.02066898 -0.00055712
  -0.01168368]
 [-0.00106781  0.02618867 -0.0283971  ... -0.00549177 -0.01044101
  -0.01884834]
 [ 0.01406165  0.01160032 -0.03646537 ... -0.00451329 -0.03657184
  -0.01884776]]
Hidden_layer_2/bias:0
(80,)
[-6.89930003e-03 -4.59195953e-03 -4.93164640e-03 -7.62357004e-03
 -1.02640060e-03 -6.95797987e-03  6.53999683e-04 -1.50850427e-03
  7.43430760e-03 -4.48079221e-03 -4.10647690e-03 -2.91730696e-03
 -5.30711422e-03 -2.52983230e-03 -1.22288999e-03 -2.61992216e-03
 -5.86796341e-05 -1.46761108e-02 -1.32191004e-02  1.59383123e-03
 -8.37902259e-03 -7.81530701e-03  3.16511909e-03  1.07944394e-02
 -1.04095100e-03 -9.54680581e-05 -9.53591196e-04 -1.73511251e-03
 -2.94418097e-03  1.09084509e-03 -3.38152004e-03  3.13330768e-03
  4.91082110e-03  1.75127119e-03 -3.40920320e-04 -1.09055149e-03
 -1.39931859e-02 -4.22364334e-03 -1.75598473e-03  4.89727594e-03
 -3.80952866e-03 -1.07581317e-02  8.83319415e-03 -1.53134195e-02
  9.72966314e-04  2.57230527e-03 -2.79211253e-03 -2.05694209e-03
  1.40293711e-03 -1.08606508e-02 -4.04487271e-03 -1.44530064e-03
  1.88408047e-03  1.89601455e-03 -1.54935988e-03  3.52956657e-03
 -9.05463006e-03  3.10023688e-03  5.77661255e-03  2.83802103e-04
  4.52233711e-03 -5.15830377e-03 -3.60447005e-03 -8.89754621e-04
  1.01283183e-02  1.23777008e-03  2.16314243e-03 -1.03379716e-03
 -1.35115325e-03  4.50411951e-03 -7.84208812e-03 -3.68704787e-03
  4.33615409e-03  5.83950290e-03  4.80226893e-03  1.10609201e-03
  3.33579886e-03  2.53874226e-03  4.11640760e-03 -2.50925031e-03]
Hidden_layer_3/kernel:0
(80, 80)
[[-0.0197061  -0.00401097 -0.03910245 ... -0.00430891 -0.07143934
  -0.08289089]
 [ 0.02180077  0.00557275 -0.02201829 ... -0.019315   -0.00576215
   0.01393138]
 [ 0.00362063  0.00578074 -0.02274293 ...  0.03664078 -0.00160689
  -0.07590732]
 ...
 [-0.01458208  0.0260579   0.01119126 ... -0.04532917  0.02121357
   0.01005088]
 [-0.00332382 -0.00970574 -0.00614126 ... -0.00386576 -0.00125874
  -0.01185019]
 [ 0.00100875  0.00562592  0.00492943 ... -0.00143203 -0.00479604
   0.02604092]]
Hidden_layer_3/bias:0
(80,)
[ 3.4043419e-03 -2.9635350e-03  2.7669650e-03  5.1395080e-05
 -2.1039257e-03 -3.1280410e-03  1.9669791e-03 -4.4397400e-03
 -2.9680189e-03 -3.3938915e-03 -8.4272295e-04 -2.0299717e-03
 -6.6684796e-03  2.2787906e-03  9.4905356e-03  2.9000810e-03
  3.5421927e-03 -7.2698514e-03  8.8285835e-04 -3.9815973e-03
  2.0622011e-04 -3.3638894e-04 -4.9894177e-03  6.2204996e-04
 -1.4132175e-02  2.0536154e-03  7.4791610e-03 -2.6289847e-05
  1.5422418e-03 -1.4835125e-03 -1.9007456e-03 -5.7278988e-03
 -6.4047775e-03  6.7603041e-04  5.3255394e-04  1.3287264e-03
 -1.3155603e-02 -3.0663344e-03 -3.4886063e-03  4.4889441e-03
 -4.4013197e-03  5.7554077e-03 -5.8638986e-04  2.4851416e-03
 -8.5420907e-03 -2.5505470e-03 -7.7383714e-03 -9.8805083e-03
  1.0314351e-02  1.8706622e-03  1.0951217e-03 -2.1036307e-04
 -4.3049199e-03 -1.6366200e-03 -6.9751176e-03 -1.3933164e-03
 -8.2917847e-03  1.1055748e-03 -6.9027120e-04  4.8951437e-03
  2.9882484e-03 -5.3677526e-03 -1.3364213e-04  5.3302862e-04
  2.9423328e-03 -2.1954490e-02  3.2275990e-03 -4.3198355e-03
  3.5557281e-03 -3.2909228e-03  8.0541493e-03 -2.6586957e-02
  3.6513419e-03 -3.7056019e-03 -2.7012900e-03  3.8562478e-03
  2.8228746e-03  3.8034867e-03 -3.3458546e-03 -7.2476426e-03]
Output_layer/kernel:0
(80, 24)
[[-1.51258642e-02 -2.43776776e-02 -3.00132055e-02 ... -4.29481966e-03
  -4.64459136e-03  2.05785315e-03]
 [-2.48765349e-02  2.97141727e-02  4.85126339e-02 ...  1.39007298e-02
   7.44570279e-03  5.26310178e-04]
 [-3.02342139e-02 -1.05540395e-01  8.14204384e-03 ...  3.16365086e-03
   5.98428678e-03 -1.90200307e-03]
 ...
 [-5.93540631e-02  1.20643005e-01  3.53044458e-03 ...  1.82471145e-02
   6.98676053e-03 -6.19639223e-03]
 [-6.83385506e-02 -9.95562412e-03 -9.25402250e-03 ... -4.62717901e-04
  -3.78584815e-03  4.05180082e-03]
 [ 4.68106180e-01  1.94503754e-01 -3.17257077e-01 ...  8.35222937e-03
  -1.64212912e-01  3.81603139e-03]]
Output_layer/bias:0
(24,)
[-2.9886860e-01 -1.0194174e-01 -5.5757679e-02 -1.3036442e-01
  2.5051713e-01  1.0585501e-01 -9.4544739e-02  6.1034061e-02
 -5.6216754e-03 -1.0506426e-03  2.6554050e-02  6.4173942e-03
 -1.7239724e-03  9.2638256e-03 -4.0552709e-03 -9.2015625e-04
  1.0877101e-02 -2.8655750e-03 -3.3840595e-05 -2.6272084e-03
 -2.8939031e-03 -1.0331644e-02 -4.3359630e-02  1.0397227e-02]
